/* Generated by Edge Impulse
 *
 * Permission is hereby granted, free of charge, to any person obtaining a copy
 * of this software and associated documentation files (the "Software"), to deal
 * in the Software without restriction, including without limitation the rights
 * to use, copy, modify, merge, publish, distribute, sublicense, and/or sell
 * copies of the Software, and to permit persons to whom the Software is
 * furnished to do so, subject to the following conditions:
 *
 * The above copyright notice and this permission notice shall be included in
 * all copies or substantial portions of the Software.
 *
 * THE SOFTWARE IS PROVIDED "AS IS", WITHOUT WARRANTY OF ANY KIND, EXPRESS OR
 * IMPLIED, INCLUDING BUT NOT LIMITED TO THE WARRANTIES OF MERCHANTABILITY,
 * FITNESS FOR A PARTICULAR PURPOSE AND NONINFRINGEMENT. IN NO EVENT SHALL THE
 * AUTHORS OR COPYRIGHT HOLDERS BE LIABLE FOR ANY CLAIM, DAMAGES OR OTHER
 * LIABILITY, WHETHER IN AN ACTION OF CONTRACT, TORT OR OTHERWISE, ARISING FROM,
 * OUT OF OR IN CONNECTION WITH THE SOFTWARE OR THE USE OR OTHER DEALINGS IN THE
 * SOFTWARE.
 */
// Generated on: 22.11.2022 12:08:26

#include <stdio.h>
#include <stdlib.h>
#include "edge-impulse-sdk/tensorflow/lite/c/builtin_op_data.h"
#include "edge-impulse-sdk/tensorflow/lite/c/common.h"
#include "edge-impulse-sdk/tensorflow/lite/micro/micro_mutable_op_resolver.h"
#include "edge-impulse-sdk/porting/ei_classifier_porting.h"

#if EI_CLASSIFIER_PRINT_STATE
#if defined(__cplusplus) && EI_C_LINKAGE == 1
extern "C" {
    extern void ei_printf(const char *format, ...);
}
#else
extern void ei_printf(const char *format, ...);
#endif
#endif

#if defined __GNUC__
#define ALIGN(X) __attribute__((aligned(X)))
#elif defined _MSC_VER
#define ALIGN(X) __declspec(align(X))
#elif defined __TASKING__
#define ALIGN(X) __align(X)
#endif

#ifndef EI_MAX_SCRATCH_BUFFER_COUNT
#define EI_MAX_SCRATCH_BUFFER_COUNT 4
#endif // EI_MAX_SCRATCH_BUFFER_COUNT

#ifndef EI_MAX_OVERFLOW_BUFFER_COUNT
#define EI_MAX_OVERFLOW_BUFFER_COUNT 10
#endif // EI_MAX_OVERFLOW_BUFFER_COUNT

using namespace tflite;
using namespace tflite::ops;
using namespace tflite::ops::micro;

namespace {

constexpr int kTensorArenaSize = 26752;

#if defined(EI_CLASSIFIER_ALLOCATION_STATIC)
uint8_t tensor_arena[kTensorArenaSize] ALIGN(16);
#elif defined(EI_CLASSIFIER_ALLOCATION_STATIC_HIMAX)
#pragma Bss(".tensor_arena")
uint8_t tensor_arena[kTensorArenaSize] ALIGN(16);
#pragma Bss()
#elif defined(EI_CLASSIFIER_ALLOCATION_STATIC_HIMAX_GNU)
uint8_t tensor_arena[kTensorArenaSize] ALIGN(16) __attribute__((section(".tensor_arena")));
#else
#define EI_CLASSIFIER_ALLOCATION_HEAP 1
uint8_t* tensor_arena = NULL;
#endif

static uint8_t* tensor_boundary;
static uint8_t* current_location;

template <int SZ, class T> struct TfArray {
  int sz; T elem[SZ];
};
enum used_operators_e {
  OP_RESHAPE, OP_CONV_2D, OP_MAX_POOL_2D, OP_FULLY_CONNECTED, OP_SOFTMAX,  OP_LAST
};
struct TensorInfo_t { // subset of TfLiteTensor used for initialization from constant memory
  TfLiteAllocationType allocation_type;
  TfLiteType type;
  void* data;
  TfLiteIntArray* dims;
  size_t bytes;
};
struct NodeInfo_t { // subset of TfLiteNode used for initialization from constant memory
  struct TfLiteIntArray* inputs;
  struct TfLiteIntArray* outputs;
  void* builtin_data;
  used_operators_e used_op_index;
};

TfLiteContext ctx{};
TfLiteTensor tflTensors[31];
TfLiteEvalTensor tflEvalTensors[31];
TfLiteRegistration registrations[OP_LAST];
TfLiteNode tflNodes[15];

const TfArray<2, int> tensor_dimension0 = { 2, { 1,1300 } };
const ALIGN(16) float tensor_data1[6] = { -0.79006350040435791, 0.55224698781967163, 0.20003972947597504, -0.71591675281524658, -0.76966720819473267, 1.6198042631149292, };
const TfArray<1, int> tensor_dimension1 = { 1, { 6 } };
const ALIGN(16) float tensor_data2[16] = { -0.015210430137813091, 0.68056750297546387, -0.79315483570098877, -0.50047099590301514, 0.52139312028884888, 0.56840533018112183, 0.81332957744598389, 0.3766995370388031, 0.48765790462493896, 0.086306780576705933, 1.2394092082977295, 0.54242235422134399, -0.53748691082000732, -0.48386794328689575, 0.19882644712924957, -0.64750659465789795, };
const TfArray<1, int> tensor_dimension2 = { 1, { 16 } };
const ALIGN(16) float tensor_data3[64] = { -0.74500232934951782, -0.063809648156166077, -0.48154211044311523, 0.29442146420478821, -0.09305436909198761, -0.30595317482948303, -0.0064488719217479229, 0.38220775127410889, 0.14208832383155823, -0.55984979867935181, -1.0537787675857544, -0.7149692177772522, -0.68988412618637085, 0.27524641156196594, 0.086568690836429596, 0.12108722329139709, 0.040747698396444321, -1.1760231256484985, -0.15431036055088043, -0.30909454822540283, -0.4869447648525238, -0.32897272706031799, -0.30018314719200134, -0.18544341623783112, -0.62131994962692261, -0.82855767011642456, 0.04524671658873558, 0.77043348550796509, 0.14682047069072723, 0.40967610478401184, -0.4244067370891571, -0.22775453329086304, -0.92603766918182373, 0.40846040844917297, -1.160348653793335, 0.96489834785461426, -0.27767744660377502, 0.40545535087585449, 0.21706129610538483, 0.39542949199676514, -1.3971894979476929, -1.6651767492294312, -0.22719956934452057, 0.36164698004722595, -0.26259484887123108, -0.52005386352539062, -0.14958639442920685, -0.33863577246665955, -0.39927393198013306, -1.0966284275054932, 0.10700671374797821, 0.3904813826084137, -0.82447022199630737, -1.2830450534820557, -0.58986705541610718, -1.2173957824707031, -0.3843061625957489, -0.060798443853855133, 1.2514946460723877, -0.28176474571228027, 1.1801286935806274, -0.1976829320192337, -0.68901407718658447, -0.053073141723871231, };
const TfArray<1, int> tensor_dimension3 = { 1, { 64 } };
const ALIGN(16) float tensor_data4[8] = { -1.3111377954483032, -1.0715444087982178, -0.80385327339172363, -1.0794192552566528, -0.72460412979125977, -1.2864727973937988, 0.11419877409934998, -0.36145174503326416, };
const TfArray<1, int> tensor_dimension4 = { 1, { 8 } };
const ALIGN(8) int32_t tensor_data5[2] = { -1, 208, };
const TfArray<1, int> tensor_dimension5 = { 1, { 2 } };
const ALIGN(16) float tensor_data6[6*208] = { 
  -0.29159432649612427, -0.24403385818004608, -0.80354928970336914, -0.72873401641845703, -0.20354315638542175, 0.050108946859836578, -0.32801192998886108, -0.033615387976169586, 0.049867335706949234, -0.66675496101379395, 0.079478181898593903, -0.750357985496521, -0.47262534499168396, -0.035146012902259827, -0.24274906516075134, -0.063692346215248108, -0.32714349031448364, -0.43385940790176392, -0.58212029933929443, 0.5420001745223999, 0.078102231025695801, 0.064713463187217712, -0.20488868653774261, -0.28701373934745789, 0.11625412106513977, -0.24931596219539642, 0.12838239967823029, -0.64089435338973999, 0.071365445852279663, 0.03346753865480423, 0.064076274633407593, -0.42766940593719482, -0.36562195420265198, -0.19410140812397003, -0.44446453452110291, 0.059374682605266571, 0.097793430089950562, -0.060360729694366455, -0.027275539934635162, -0.72323393821716309, 0.087392315268516541, 0.069257102906703949, -0.055911153554916382, -0.50238096714019775, -0.16957837343215942, 0.12341514974832535, 0.0041177449747920036, -0.29386726021766663, -0.25094342231750488, -0.079125016927719116, -0.22945789992809296, -0.03129269927740097, 0.12444392591714859, 0.059026379138231277, -0.12238427996635437, -0.48971420526504517, 0.049480188637971878, 0.15941281616687775, -0.15961270034313202, -0.16963827610015869, 0.25603410601615906, -0.19770063459873199, -0.020862165838479996, 0.025884119793772697, -0.35398679971694946, -0.19197314977645874, -0.059059306979179382, 0.18449273705482483, 0.1986229419708252, 0.1040370762348175, 0.052449841052293777, -0.37340733408927917, 0.072135932743549347, 0.082772888243198395, -0.068432696163654327, -0.2622031569480896, 0.29593342542648315, -0.010437571443617344, 0.075356140732765198, -0.23466557264328003, -0.53505516052246094, 0.072309821844100952, -0.11957361549139023, 0.17504924535751343, 0.19930398464202881, -0.11433503776788712, 0.0056255124509334564, -0.22484284639358521, -0.019371220842003822, 0.06828974187374115, 0.069450065493583679, -0.4423983097076416, -0.32788246870040894, 0.01867559552192688, 0.050266135483980179, 0.2412799596786499, -0.26548707485198975, 0.14754724502563477, -0.13144232332706451, 0.20213164389133453, 0.25132802128791809, -0.085074350237846375, -0.035164300352334976, 0.12149381637573242, 0.08989221602678299, 0.12839375436306, 0.077229224145412445, -0.406421959400177, -0.041931364685297012, -0.057977292686700821, 0.22456496953964233, 0.26499214768409729, -0.12725451588630676, 0.18052656948566437, 0.019293179735541344, 0.24619561433792114, 0.26990425586700439, -0.077485278248786926, -0.30482536554336548, 0.14356857538223267, 0.38819342851638794, 0.1383301168680191, 0.12476911395788193, -0.18853555619716644, -0.22628411650657654, 0.12029284238815308, 0.14771929383277893, 0.21930418908596039, -0.41075286269187927, 0.20660035312175751, 0.041987191885709763, 0.30487450957298279, 0.16354358196258545, -0.16882763803005219, -0.24880562722682953, 0.31568080186843872, 0.43654748797416687, 0.048206634819507599, 0.036306124180555344, -0.28853270411491394, -0.3220047652721405, 0.10398072004318237, 0.18371520936489105, 0.33220472931861877, -0.36404991149902344, 0.13119179010391235, -0.20326469838619232, 0.32211732864379883, 0.39395919442176819, -0.38356679677963257, -0.18127931654453278, 0.17166309058666229, 0.36721122264862061, 0.14479257166385651, 0.10688153654336929, -0.29486933350563049, -0.13693942129611969, -0.35988610982894897, 0.3011719286441803, 0.37705418467521667, 0.038429517298936844, 0.10988558828830719, -0.086485803127288818, 0.32816594839096069, 0.34153389930725098, -0.25578579306602478, -0.076270386576652527, 0.31627306342124939, 0.26421666145324707, 0.12658886611461639, 0.18654350936412811, -0.2038714736700058, -0.065004996955394745, -0.11142484843730927, 0.072992183268070221, 0.33463862538337708, -0.18229421973228455, 0.28499054908752441, -0.37300729751586914, 0.28321331739425659, -0.17429134249687195, -0.26412594318389893, -0.11440534144639969, 0.35770729184150696, 0.389090895652771, -0.074757806956768036, 0.031931646168231964, -0.204938605427742, 0.068421490490436554, -0.019150415435433388, 0.17906738817691803, 0.19256050884723663, -0.039350282400846481, -0.30127111077308655, -0.1625262051820755, -0.11667931079864502, -0.0040888413786888123, 0.016561649739742279, -0.046945352107286453, -0.10035655647516251, 0.076166205108165741, -0.14791202545166016, -0.078122265636920929, -0.041687920689582825, -0.2332981675863266, -0.091392695903778076, -0.11389341950416565, 0.18666961789131165, 
  -0.077943108975887299, -0.19573624432086945, 0.3779541552066803, 0.37827959656715393, -0.31003129482269287, -0.054363854229450226, -0.18745139241218567, -0.17546407878398895, -0.0061955908313393593, 0.48455104231834412, -0.37742593884468079, 0.014138411730527878, -0.25476545095443726, -0.063313215970993042, 0.0021786182187497616, -0.37272286415100098, 0.090297766029834747, 0.14935973286628723, 0.5360453724861145, 0.3159128725528717, -0.49421313405036926, 0.089663609862327576, 0.04602959007024765, -0.23598811030387878, -0.097304649651050568, 0.36332005262374878, -0.44971033930778503, -0.20133985579013824, -0.077777653932571411, 0.084815770387649536, -0.44212916493415833, -0.15850871801376343, 0.13637109100818634, 0.12891843914985657, 0.37010595202445984, 0.17348542809486389, -0.49407956004142761, 0.10978963971138, 0.036244731396436691, -0.22228144109249115, -0.29488837718963623, 0.38558274507522583, -0.13480833172798157, 0.092540688812732697, -0.21248078346252441, 0.050864305347204208, -0.027087589725852013, -0.405539870262146, -0.075504586100578308, 0.089669264853000641, 0.44754022359848022, 0.073103226721286774, -0.40292203426361084, 0.11520358175039291, 0.088928021490573883, -0.056414280086755753, -0.34620898962020874, 0.26186323165893555, -0.089728198945522308, 0.030208773910999298, -0.15322315692901611, 0.16851970553398132, -0.15908820927143097, -0.13348625600337982, -0.23546901345252991, 0.10585775971412659, 0.21637639403343201, 0.032632045447826385, -0.35837149620056152, 0.16281622648239136, 0.12562167644500732, -0.13549754023551941, -0.2478472888469696, 0.13347885012626648, -0.20592173933982849, 0.19080154597759247, -0.29541239142417908, 0.19229160249233246, 0.020188972353935242, -0.22830711305141449, -0.16383896768093109, 0.053943149745464325, 0.27609318494796753, -0.23351150751113892, -0.20519664883613586, 0.21242152154445648, 0.06412351131439209, -0.46176087856292725, -0.35665175318717957, 0.1476677805185318, 0.099814854562282562, -0.0062186336144804955, 0.039093095809221268, -0.13225637376308441, 0.37236025929450989, 0.044194724410772324, 0.040058568120002747, 0.0028565097600221634, 0.24641048908233643, -0.20167830586433411, -0.061704341322183609, -0.027212440967559814, -0.09343603253364563, -0.1723950207233429, -0.54692614078521729, 0.097722023725509644, -0.2361883670091629, 0.13724265992641449, -0.4819084107875824, -0.17079141736030579, 0.36961868405342102, -0.20309105515480042, -0.26248890161514282, 0.10833913087844849, 0.21355962753295898, -0.10551244765520096, -0.16695551574230194, -0.008601335808634758, -0.29269605875015259, -0.19488663971424103, -0.31064656376838684, 0.028525905683636665, -0.45261013507843018, 0.30868679285049438, -0.15825068950653076, -0.21060191094875336, 0.39800241589546204, -0.066847808659076691, -0.26584461331367493, 0.13327416777610779, 0.17083419859409332, -0.056480690836906433, -0.081505723297595978, 0.00420038728043437, -0.15556821227073669, -0.2668883204460144, -0.69359427690505981, -0.0465412437915802, -0.23452413082122803, 0.15994015336036682, -0.64277875423431396, -0.15598310530185699, 0.53947687149047852, -0.046021249145269394, -0.22069342434406281, -0.09260018914937973, 0.49410328269004822, -0.29852437973022461, -0.29884061217308044, -0.08806309849023819, -0.27489936351776123, -0.24226632714271545, -0.48755684494972229, -0.13422749936580658, -0.15494516491889954, 0.15505164861679077, -0.26413404941558838, -0.14223183691501617, 0.52564394474029541, 0.1782774031162262, -0.34101766347885132, 0.145138218998909, 0.4483644962310791, -0.24774162471294403, -0.42660018801689148, -0.1929294615983963, -0.57886302471160889, -0.029401810839772224, -0.27665063738822937, 0.035104338079690933, -0.26706728339195251, 0.37357866764068604, -0.22296027839183807, 0.32155057787895203, 0.48385876417160034, -0.32856401801109314, 0.098559863865375519, 0.062190160155296326, 0.52033102512359619, 0.14729900658130646, -0.57995259761810303, -0.064406327903270721, -0.22299154102802277, -0.032600365579128265, -0.03748832643032074, 0.31258532404899597, -0.1442561149597168, 0.31411489844322205, -0.034123584628105164, -0.063501834869384766, 0.35706746578216553, -0.58634328842163086, 0.17413409054279327, -0.056163746863603592, 0.49258849024772644, -0.047830644994974136, 0.0016172993928194046, -0.041121665388345718, -0.072151869535446167, -0.23613151907920837, -0.10714125633239746, 0.26439976692199707, -0.39153900742530823, -0.10718521475791931, -0.28196370601654053, -0.15518674254417419, 0.17443729937076569, -0.40412351489067078, 
  0.12799984216690063, 0.11146622151136398, -0.054175280034542084, -0.092387385666370392, 0.20642794668674469, 0.015495482832193375, 0.15925760567188263, 0.13767221570014954, -0.28000399470329285, 0.25326728820800781, -0.31665191054344177, 0.01106438972055912, -0.22833018004894257, -0.0040579736232757568, -0.15995073318481445, -0.030064735561609268, 0.24394987523555756, 0.1194685697555542, -0.11792092025279999, -0.52227991819381714, 0.35748624801635742, -0.012897651642560959, 0.21226486563682556, -0.27257648110389709, -0.47774422168731689, 0.02767510712146759, -0.8848080039024353, 0.037727650254964828, -0.15633854269981384, 0.00043602767982520163, 0.026369666680693626, -0.10385370254516602, -0.047116391360759735, 0.071963757276535034, 0.079731374979019165, -0.34231084585189819, 0.38523188233375549, -0.16189704835414886, 0.094397284090518951, -0.1305859237909317, -0.63601541519165039, 0.164438396692276, -0.69378668069839478, 0.070896491408348083, -0.10714811831712723, 0.24024172127246857, -0.12284445762634277, -0.3444041907787323, 0.038226678967475891, 0.02190978080034256, 0.021711753681302071, -0.23867428302764893, 0.12861743569374084, -0.18520741164684296, 0.1236058846116066, -0.23724356293678284, -0.2388637512922287, -0.019529562443494797, -0.14897745847702026, -0.084532953798770905, 0.20039960741996765, 0.19301141798496246, -0.15082620084285736, 0.19597665965557098, 0.027648093178868294, 0.069212451577186584, -0.15306113660335541, -0.085954777896404266, 0.081155993044376373, -0.17960427701473236, 0.12716250121593475, -0.11163667589426041, -0.42806410789489746, 0.11332202702760696, -0.57955515384674072, -0.048295710235834122, -0.23386865854263306, -0.12860643863677979, -0.016836091876029968, -0.26820921897888184, -0.099444679915904999, 0.21581237018108368, -0.12322519719600677, -0.39904892444610596, 0.12003300338983536, -0.1727764904499054, 0.24109748005867004, -0.31843173503875732, -0.78309184312820435, -0.12470068782567978, -0.14064384996891022, 0.024002738296985626, 0.082417987287044525, 0.052606336772441864, -0.10313821583986282, -0.3280368447303772, 0.22728407382965088, 0.20139363408088684, -0.070029221475124359, -0.22199039161205292, 0.18124857544898987, -0.00016357388813048601, 0.17865228652954102, -0.46609783172607422, -0.40789201855659485, -0.061173591762781143, 0.069326236844062805, 0.021440112963318825, 0.4857475757598877, 0.023843441158533096, -0.17625740170478821, -0.62161237001419067, 0.28873205184936523, 0.48819330334663391, -0.055915266275405884, -0.34568062424659729, 0.16951209306716919, 0.043826989829540253, 0.28500759601593018, -0.36701154708862305, -0.49856904149055481, 0.068404398858547211, 0.26379427313804626, 0.23871468007564545, 0.32628253102302551, 0.04081420972943306, -0.29452356696128845, -0.47491729259490967, -0.0097869345918297768, 0.22168511152267456, -0.19858422875404358, -0.23967325687408447, 0.27864593267440796, 0.18314918875694275, 0.32986718416213989, -0.52143186330795288, -0.51067030429840088, 0.15943059325218201, 0.039921194314956665, 0.24871833622455597, 0.46499279141426086, -0.0037892234977334738, -0.40898397564888, -0.53471660614013672, 0.13099932670593262, 0.27573099732398987, -0.088167101144790649, -0.31138938665390015, 0.21445088088512421, 0.27356657385826111, 0.27492406964302063, -0.2231670469045639, -0.50357508659362793, 0.12127736955881119, -0.051514383405447006, 0.21348828077316284, 0.035572316497564316, 0.10927659273147583, -0.16311533749103546, -0.10423353314399719, 0.37360683083534241, 0.46318256855010986, 0.081823974847793579, -0.39719483256340027, 0.25526434183120728, 0.35945811867713928, 0.24379065632820129, -0.070062719285488129, -0.28083276748657227, 0.17300404608249664, -0.058045964688062668, -0.042727731168270111, -0.14366075396537781, -0.020118147134780884, -0.24811361730098724, -0.037693407386541367, 0.10199447721242905, 0.59532976150512695, -0.043856512755155563, -0.23454630374908447, 0.64684170484542847, 0.33845826983451843, 0.39299151301383972, -0.016815889626741409, -0.31658744812011719, 0.24306634068489075, -0.24443136155605316, -0.4467255175113678, -0.22871464490890503, 0.21987853944301605, -0.44032329320907593, -0.76497042179107666, -0.035706773400306702, 0.65868252515792847, -0.32083812355995178, 0.4341742992401123, 0.21386566758155823, 0.12518736720085144, 0.0029195807874202728, -0.25933554768562317, -0.22106239199638367, 0.50339841842651367, -0.38591790199279785, -0.69310718774795532, -0.12127836048603058, 0.30232208967208862, 0.059569109231233597, -0.063024789094924927, 
  -0.076587267220020294, 0.0060273087583482265, -0.18853236734867096, 0.40984320640563965, 0.038633603602647781, 0.2997148334980011, 0.1953301876783371, 0.20674866437911987, -0.2478611022233963, 0.29958441853523254, 0.016435153782367706, 0.66279560327529907, -0.24811120331287384, -0.067580953240394592, 0.18792839348316193, -0.28825557231903076, -0.6082187294960022, -0.0089353471994400024, -0.012475061230361462, -0.20428024232387543, 0.13849149644374847, 0.15750733017921448, -0.27361124753952026, 0.20874713361263275, 0.29062783718109131, -0.050164088606834412, -0.72031527757644653, 0.1011061891913414, 0.039613965898752213, -0.038633711636066437, -0.14641569554805756, -0.0037539054173976183, -0.26538366079330444, 0.10229199379682541, 0.091355212032794952, -0.35958415269851685, 0.10759368538856506, 0.10364207625389099, -0.31605961918830872, 0.24582862854003906, 0.12038521468639374, -0.12871642410755157, -0.45593473315238953, 0.24305222928524017, -0.071824245154857635, 0.065401449799537659, -0.17755630612373352, -0.12257862091064453, -0.55017554759979248, 0.0099542401731014252, -0.15986594557762146, -0.41469612717628479, -0.15961024165153503, -0.19872547686100006, 0.14959627389907837, 0.25439557433128357, 0.20379382371902466, -0.034741301089525223, -0.70548182725906372, -0.093278244137763977, -0.008788304403424263, -0.013139652088284492, -0.16272719204425812, 0.01892874576151371, -0.61699110269546509, 0.22877304255962372, -0.054088793694972992, -0.1696183830499649, -0.29759687185287476, -0.2374352365732193, 0.16522780060768127, -0.086654163897037506, 0.13539418578147888, 0.056894358247518539, -0.46470701694488525, 0.047658108174800873, 0.012127899564802647, -0.058575470000505447, 0.049513515084981918, -0.07133658230304718, -0.75330513715744019, 0.077567242085933685, -0.018909422680735588, -0.37190079689025879, -0.22124311327934265, 0.042292565107345581, 0.51431518793106079, 0.39310315251350403, 0.22074878215789795, 0.16227841377258301, 0.2992139458656311, -0.11514691263437271, -0.031134568154811859, -0.065346837043762207, -0.24720510840415955, 0.18326294422149658, 0.010761263780295849, 0.55972027778625488, 0.039482124149799347, -0.40504881739616394, -0.64735382795333862, -0.4017312228679657, 0.30718711018562317, -1.0785139799118042, 0.15203453600406647, -0.61728775501251221, -0.24292267858982086, -0.80548226833343506, 0.006632643286138773, 0.027107933536171913, -0.91489613056182861, -0.35225644707679749, -0.25815609097480774, -0.8190118670463562, -0.80577057600021362, -0.3172835111618042, -0.65430939197540283, -1.4652491807937622, 0.41985204815864563, -2.2315914630889893, 0.038765020668506622, -1.2201292514801025, 1.1223816871643066, -0.39343768358230591, 0.09210466593503952, -0.21528983116149902, -0.1583244800567627, -0.67539209127426147, 0.2212647944688797, -0.63729977607727051, -1.1448712348937988, -1.3549401760101318, -0.51468729972839355, -1.2621662616729736, 0.40251460671424866, -2.0753242969512939, -0.18435317277908325, -1.018634557723999, 0.59189891815185547, -0.86609750986099243, -0.044440466910600662, 0.088656827807426453, 0.10045764595270157, -0.30376225709915161, 0.057462822645902634, -0.18347065150737762, -1.5914038419723511, -0.91661030054092407, -0.58462822437286377, -1.5034312009811401, 0.25065413117408752, -1.6642055511474609, -0.24768437445163727, -0.95890921354293823, 0.39605867862701416, -0.79959911108016968, -0.19579580426216125, -0.10078416764736176, 0.49719372391700745, -0.34895050525665283, -0.50143676996231079, -0.83245903253555298, -1.7414820194244385, -1.2005680799484253, -0.15447729825973511, -1.3075029850006104, 0.33128821849822998, -1.5348359346389771, -0.57614535093307495, -0.98939478397369385, 0.54928398132324219, -0.46003532409667969, -0.00038006788236089051, -0.4986121654510498, 0.037659741938114166, 0.2194334864616394, -0.98033809661865234, -1.4459493160247803, -1.2211166620254517, -0.27640587091445923, 0.010416202247142792, -1.2024341821670532, 0.88476705551147461, -1.8358147144317627, -1.5215383768081665, -0.93274861574172974, 0.58195185661315918, -0.4377206563949585, -0.2357650101184845, -0.17650620639324188, 0.11694217473268509, 0.15552319586277008, -2.6853322982788086, -1.6213452816009521, -0.76777219772338867, -1.3166892528533936, 1.0776290893554688, -2.245692253112793, 0.99136948585510254, -0.70644831657409668, -2.3236443996429443, -2.3661637306213379, 1.0310224294662476, 0.063128672540187836, -0.011707074008882046, -0.27117374539375305, 0.5356755256652832, -0.23658512532711029, 
  -0.085401684045791626, 0.077890835702419281, -0.68186753988265991, -0.92842650413513184, 0.13543573021888733, -0.20994105935096741, -0.3481428325176239, 0.10212387889623642, 0.16773277521133423, -0.67413592338562012, 0.27708038687705994, 0.19427773356437683, 0.2522290050983429, -0.056552063673734665, 0.081874951720237732, -0.078823789954185486, -0.10094527900218964, 0.015437020920217037, -0.70014971494674683, -1.7883001565933228, 0.024960624054074287, -0.13337522745132446, -0.073202215135097504, 0.25634840130805969, 0.14164988696575165, -0.68281912803649902, 0.25791037082672119, 0.15498705208301544, -0.7640606164932251, -0.025826869532465935, 0.28417578339576721, 0.30350708961486816, -0.087167099118232727, 0.10419502109289169, -0.29747670888900757, -0.006621635053306818, -0.20239803194999695, -0.14040748775005341, -0.036124467849731445, 0.43826282024383545, 0.01093247439712286, -0.48580187559127808, 0.22637489438056946, 0.013621415942907333, -0.11428668349981308, -0.19349831342697144, 0.15306253731250763, 0.45544835925102234, 0.10224933177232742, 0.017391296103596687, -0.024860059842467308, 0.22702455520629883, 0.047452419996261597, -0.16887417435646057, -0.45081561803817749, 0.23653903603553772, 0.23449356853961945, -0.42688620090484619, 0.38894945383071899, 0.170423224568367, -0.53691834211349487, -0.0053465720266103745, 0.042838618159294128, 0.13884195685386658, 0.11142992973327637, -0.091505087912082672, -0.22733071446418762, 0.13815861940383911, 0.11617091298103333, -0.052844449877738953, -0.65656769275665283, 0.20299449563026428, 0.14050622284412384, -0.3893742561340332, 0.25652432441711426, 0.18551988899707794, -0.033021349459886551, -0.20581889152526855, 0.0626034215092659, 0.18660254776477814, 0.12347041070461273, -0.15403544902801514, -0.083255484700202942, 0.13101857900619507, 0.036548644304275513, -0.24422362446784973, -0.46477603912353516, 0.070370793342590332, 0.2083355039358139, -0.20858697593212128, 0.44244897365570068, 0.11190996319055557, 0.34280824661254883, -0.11574168503284454, -0.023898407816886902, -0.019919658079743385, 0.19979199767112732, -0.37705117464065552, -0.18613073229789734, 0.25184288620948792, 0.22795546054840088, -0.30495467782020569, -0.16023790836334229, 0.032189145684242249, 0.10027643293142319, -0.074647106230258942, 0.089505523443222046, 0.22316998243331909, -0.35896754264831543, -0.21282464265823364, 0.072288647294044495, 0.27620354294776917, 0.11562488228082657, -0.28068050742149353, -0.22389650344848633, 0.14143407344818115, 0.11834044009447098, -0.22538286447525024, -0.36992686986923218, -0.04113379493355751, 0.27258425951004028, -0.02045389823615551, -0.33210316300392151, 0.34929752349853516, -0.10696101188659668, -0.0057583097368478775, -0.20285534858703613, -0.13776595890522003, 0.17304195463657379, -0.52060133218765259, 0.059491902589797974, 0.17586158215999603, 0.1370166540145874, -0.12117131054401398, -0.21862466633319855, 0.17035108804702759, 0.29528710246086121, -0.14715628325939178, -0.0022419870365411043, 0.39362010359764099, -0.21160987019538879, -0.022076856344938278, -0.59717452526092529, -0.47790992259979248, -0.037222154438495636, -0.42455244064331055, -0.15006080269813538, 0.30857738852500916, 0.14690272510051727, 0.21413208544254303, -0.35929888486862183, -0.099608682096004486, 0.38717573881149292, -0.062803059816360474, 0.22136196494102478, 0.41275295615196228, -0.23079164326190948, 0.071969397366046906, -0.54393881559371948, -0.77987432479858398, -0.098078101873397827, -0.21883255243301392, -0.068759121000766754, 0.45157718658447266, 0.11795139312744141, -0.20654048025608063, -0.39104935526847839, -0.12684838473796844, 0.35735771059989929, -0.22457487881183624, 0.10744397342205048, 0.53694897890090942, 0.16786673665046692, -0.17277641594409943, -0.09138932079076767, -0.29656749963760376, -0.056935399770736694, -0.077460162341594696, -0.40787157416343689, 0.40179851651191711, 0.080252058804035187, -0.16326028108596802, -0.4187735915184021, -0.2057453840970993, 0.3663707971572876, -0.41493022441864014, 0.16016387939453125, 0.47105583548545837, 0.38778415322303772, -0.30848807096481323, -0.19305318593978882, 0.14174066483974457, -0.018469475209712982, -0.04236946627497673, -0.52176064252853394, -0.47251185774803162, -0.10080499947071075, 0.059283733367919922, -0.60373419523239136, 0.33370199799537659, 0.24064776301383972, -0.31045719981193542, 0.19016954302787781, 0.49368774890899658, -0.21873453259468079, -0.33753699064254761, -0.33221766352653503, 0.022169526666402817, 
  0.2606373131275177, 0.13673985004425049, -0.39013004302978516, 0.04817035049200058, 0.26026782393455505, 0.10405866056680679, -0.018367530778050423, -0.36734679341316223, 0.10686405003070831, -0.35177379846572876, 0.22530779242515564, 0.17588697373867035, 0.30033984780311584, 0.25047165155410767, -0.25836879014968872, -0.091256096959114075, 0.33749383687973022, -0.17712000012397766, -0.39848405122756958, 0.076173983514308929, -0.053120929747819901, -0.44306445121765137, 0.038912259042263031, 0.15531662106513977, -0.096375882625579834, -0.59576982259750366, 0.23592346906661987, 0.26448318362236023, -0.21011967957019806, -0.15183553099632263, -0.092036709189414978, 0.045378610491752625, 0.2638145387172699, -0.23518507182598114, -0.48195135593414307, 0.078201822936534882, -0.27442899346351624, -0.27442923188209534, -0.079934954643249512, 0.35912728309631348, 0.0026227901689708233, -0.54601341485977173, 0.1505964994430542, 0.14877417683601379, 0.012333638966083527, 0.16436092555522919, 0.12623336911201477, -0.0026989667676389217, 0.38469341397285461, -0.18141034245491028, -0.70618522167205811, -0.0015315613709390163, -0.21650029718875885, 0.18287228047847748, -0.29037937521934509, 0.10051881521940231, -0.05569661408662796, -0.56324583292007446, 0.1669125109910965, -0.095594488084316254, -0.20534345507621765, 0.016950774937868118, 0.0069371513091027737, -0.1984097808599472, 0.39596310257911682, -0.20577168464660645, -0.43743905425071716, -0.1714799553155899, -0.24992726743221283, 0.19369706511497498, -0.22318029403686523, 0.32761117815971375, 0.12623195350170135, -0.29232478141784668, -0.0031265122815966606, -0.046436555683612823, 0.18995630741119385, 0.10970847308635712, 0.1298309713602066, -0.24102114140987396, 0.27267304062843323, -0.027735516428947449, -0.34317055344581604, -0.6564338207244873, -0.58490151166915894, 0.27209374308586121, -0.24967926740646362, 0.16651959717273712, 0.12332522124052048, -0.11543624103069305, -0.14357432723045349, -0.12528300285339355, 0.18173903226852417, 0.13345500826835632, -0.41932091116905212, -0.17753063142299652, 0.26017189025878906, 0.1145702600479126, -0.15126526355743408, -0.4738737940788269, -0.49377313256263733, 0.35397183895111084, -0.33581119775772095, 0.27081632614135742, -0.097772523760795593, 0.039380203932523727, -0.17405718564987183, -0.11900757253170013, -0.33748313784599304, 0.37392789125442505, -0.13095147907733917, -0.32742783427238464, 0.28747677803039551, -0.0057205562479794025, -0.14946083724498749, -0.75867372751235962, -0.83061093091964722, 0.50920534133911133, -0.28165271878242493, 0.22001384198665619, -0.17259848117828369, -0.0067100157029926777, -0.75490546226501465, 0.034063339233398438, -0.12808796763420105, -0.20721790194511414, -0.1929638683795929, -0.12362438440322876, 0.43274703621864319, -0.10710640996694565, -0.37061908841133118, -1.0847269296646118, -0.52955144643783569, 0.62072741985321045, -0.303129643201828, 0.2264779806137085, -0.11264563351869583, -0.013624157756567001, -0.54862141609191895, -0.048924949020147324, 0.10376906394958496, 0.11662063002586365, -0.42545652389526367, -0.30430001020431519, 0.34490817785263062, -0.10461133718490601, -0.15006621181964874, -0.92015248537063599, -0.49117463827133179, 0.64131170511245728, -0.23510561883449554, 0.095791555941104889, -0.34470465779304504, 0.0027089875657111406, -0.28228744864463806, -0.25967258214950562, 0.14156626164913177, 0.16049416363239288, -0.44517031311988831, -0.56422847509384155, 0.26449880003929138, -0.15758012235164642, -0.079908326268196106, -0.6382867693901062, -0.65020424127578735, 0.66886895895004272, -0.095644205808639526, -0.010809109546244144, -0.14973291754722595, 0.17702369391918182, -0.059927083551883698, -0.43134161829948425, -0.096838131546974182, 0.082463309168815613, -0.1220707967877388, -0.21183425188064575, 0.012678725644946098, -0.08708200603723526, -0.25288531184196472, -0.75956368446350098, -0.51702803373336792, 0.72585636377334595, -0.24077852070331573, -0.11383266001939774, -0.029336728155612946, 0.0072403158992528915, 0.072121232748031616, -0.037747956812381744, -0.36056405305862427, 0.14484597742557526, -0.13248538970947266, -0.25882574915885925, 0.10437114536762238, -0.18744611740112305, -0.20369221270084381, -0.68813961744308472, -0.041274014860391617, -0.087487667798995972, -0.15429629385471344, -0.027610588818788528, 0.072107046842575073, -0.12610171735286713, -0.096741706132888794, 0.42693245410919189, 0.096788361668586731, 0.020372927188873291, -0.1151830330491066, 0.10997260361909866, 
};
const TfArray<2, int> tensor_dimension6 = { 2, { 6,208 } };
const ALIGN(16) float tensor_data7[8*1*3*13] = { 
  /* [0][0][][] */ -0.33558577299118042,-0.5024418830871582,-0.73415851593017578,-0.024353055283427238,0.23420305550098419,0.11491470038890839,-0.046241957694292068,-0.052787963300943375,-0.019577767699956894,0.083806246519088745,0.0017299300525337458,0.058241110295057297,0.086080968379974365, 0.4049949049949646,0.4095514714717865,-0.83736616373062134,-0.48794451355934143,0.11571343243122101,0.22050726413726807,-0.096306711435317993,0.039944104850292206,-0.1254442036151886,0.076028041541576385,0.040068365633487701,0.036289680749177933,0.018761018291115761, -0.0090016517788171768,0.43538179993629456,0.096351325511932373,-0.19067190587520599,0.3237433135509491,-0.1492634117603302,-0.11177957803010941,0.20579086244106293,-0.099571190774440765,0.033321324735879898,-0.013927675783634186,0.09576849639415741,0.073005206882953644, 
  /* [1][0][][] */ 0.51651221513748169,0.12756659090518951,-0.57280325889587402,0.12862475216388702,0.47179567813873291,0.31075683236122131,0.1730770617723465,0.26141449809074402,-0.092100061476230621,0.068721801042556763,-0.0079462938010692596,-0.035233482718467712,-0.021042119711637497, 0.47012126445770264,0.004555045161396265,-0.49169448018074036,-0.0029015110339969397,0.31032958626747131,0.31586095690727234,0.02350248210132122,-0.13085918128490448,-0.059982519596815109,0.096236348152160645,0.089756347239017487,0.002370474161580205,-0.096491478383541107, 0.28956359624862671,-0.099571041762828827,-0.31984379887580872,0.14203278720378876,0.35973092913627625,0.20660452544689178,0.021703658625483513,-0.071792371571063995,0.072136059403419495,-0.075055286288261414,0.11686019599437714,-0.15272335708141327,-0.031185280531644821, 
  /* [2][0][][] */ 0.57338327169418335,-0.69521093368530273,-0.12715868651866913,-0.041264686733484268,-0.51135283708572388,0.22950214147567749,0.38797837495803833,0.23949111998081207,-0.15385632216930389,0.060934808105230331,0.018799452111124992,0.026033518835902214,-0.02559325098991394, 0.41482254862785339,-0.49783295392990112,-0.15022720396518707,0.27931046485900879,-0.38566812872886658,0.2011110931634903,0.29051586985588074,-0.071465425193309784,-0.027285508811473846,-0.024143842980265617,0.22576270997524261,-0.2462390661239624,0.19784961640834808, -0.048759888857603073,-0.65961241722106934,-0.087447196245193481,0.0094287488609552383,-0.66149550676345825,0.19593186676502228,0.16643041372299194,0.17731210589408875,-0.20397897064685822,0.039291348308324814,-0.0063459551893174648,-0.011534308083355427,0.0035640825517475605, 
  /* [3][0][][] */ -0.76431381702423096,0.49409025907516479,-0.51014328002929688,0.3678756058216095,0.31091684103012085,0.13898928463459015,-0.0054105115123093128,0.0054539795964956284,-0.1524672657251358,-0.029485810548067093,0.069706819951534271,-0.09776664525270462,-0.0027224400546401739, -0.49453482031822205,0.40984624624252319,-0.16459119319915771,0.20884941518306732,0.016100697219371796,0.028349105268716812,-0.080615408718585968,0.12269479036331177,-0.11236607283353806,0.12496761977672577,-0.17915281653404236,0.12494096159934998,0.13995184004306793, -0.43710136413574219,0.6785353422164917,-0.11736036837100983,0.54443323612213135,0.10654176026582718,0.25182473659515381,-0.074887387454509735,0.14296956360340118,0.043218407779932022,-0.10716856271028519,0.049425765872001648,0.039779167622327805,-0.30354636907577515, 
  /* [4][0][][] */ -0.22213132679462433,-0.64391493797302246,-0.54934030771255493,0.099499717354774475,0.31589135527610779,0.078493133187294006,0.29173469543457031,0.14113043248653412,-0.40231412649154663,-0.044815223664045334,-0.15484490990638733,0.065181910991668701,-0.15851663053035736, -0.018618294969201088,-0.46372005343437195,-0.21526239812374115,0.25523492693901062,0.20510651171207428,-0.12167304009199142,-0.15652664005756378,-0.0035708954092115164,-0.13997560739517212,0.039122026413679123,-0.2964693009853363,-0.10835392028093338,0.20528504252433777, -0.52009004354476929,-0.87003666162490845,-0.15086695551872253,0.035052079707384109,-0.15919582545757294,0.20896729826927185,0.14148856699466705,0.052867788821458817,-0.067800097167491913,-0.044812873005867004,0.13190425932407379,-0.13616204261779785,-0.13614155352115631, 
  /* [5][0][][] */ 0.7382844090461731,-1.0635318756103516,-0.022098518908023834,0.37359175086021423,0.29682362079620361,0.050749629735946655,-0.097534872591495514,0.0074479943141341209,0.11325632035732269,-0.10602066665887833,0.095371700823307037,-0.10391566157341003,-0.13765513896942139, 0.54188847541809082,-0.85391271114349365,-0.021927954629063606,-0.056296307593584061,0.27371323108673096,-0.11689277738332748,0.0040116067975759506,-0.099703148007392883,0.028391465544700623,-0.14757148921489716,0.0485040582716465,0.2197725772857666,-0.0052418895065784454, -0.16295598447322845,-0.72429227828979492,-0.19602140784263611,-0.14970652759075165,0.45384705066680908,0.18276692926883698,-0.13584397733211517,0.24178868532180786,-0.055165160447359085,0.020327916368842125,-0.069929525256156921,0.019227487966418266,0.11146542429924011, 
  /* [6][0][][] */ -0.7324298620223999,-0.051476731896400452,0.20652750134468079,-0.090706609189510345,0.084780603647232056,-0.042339261621236801,0.022112471982836723,0.070621669292449951,-0.095634356141090393,0.12961794435977936,0.11572084575891495,-0.017937112599611282,-0.10176464170217514, -0.75771307945251465,-0.34558591246604919,-0.21189379692077637,-0.2353689968585968,0.15994344651699066,-0.015833690762519836,0.078938096761703491,-0.0505034439265728,0.14463163912296295,-0.27542799711227417,-0.034386672079563141,-0.1126529723405838,-0.21840731799602509, -0.66448318958282471,-0.55758088827133179,0.02791011705994606,-0.080255776643753052,-0.37118864059448242,0.02028743177652359,-0.064099311828613281,-0.12150081992149353,-0.030826658010482788,0.15671508014202118,0.023996029049158096,-0.098248742520809174,0.13113410770893097, 
  /* [7][0][][] */ -0.010011656209826469,-0.47182732820510864,0.82813364267349243,0.047073774039745331,0.16923849284648895,0.089188538491725922,0.21212953329086304,-0.17366313934326172,-0.20323467254638672,-0.12834528088569641,0.037374082952737808,-0.19023755192756653,0.14088985323905945, 0.17429019510746002,-0.41544657945632935,0.40791407227516174,0.068293385207653046,0.026560820639133453,0.10032378882169724,-0.20687320828437805,0.10342658311128616,0.071593455970287323,-0.11887677013874054,-0.14237861335277557,-0.24698404967784882,0.024134628474712372, 0.071378268301486969,-0.65385133028030396,0.83664089441299438,-0.054004117846488953,0.036375544965267181,0.13167333602905273,0.095531567931175232,-0.20932340621948242,0.11257855594158173,0.10591153055429459,0.19291575253009796,-0.085549026727676392,0.02956005372107029, 
};
const TfArray<4, int> tensor_dimension7 = { 4, { 8,1,3,13 } };
const ALIGN(16) float tensor_data8[64*1*3*8] = { 
  /* [0][0][][] */ -0.067924447357654572,-0.49028897285461426,-0.26754674315452576,-0.1492074579000473,0.61175757646560669,0.006622691173106432,-0.10246163606643677,-0.1401117742061615, -0.31994315981864929,-1.2712215185165405,-0.30115553736686707,0.26495695114135742,0.15876664221286774,-0.10076902806758881,-0.25128644704818726,-0.21958784759044647, 0.050273943692445755,-1.2201673984527588,-0.71747726202011108,-0.27098530530929565,-0.32213366031646729,0.0086246989667415619,0.22768178582191467,-0.37533101439476013, 
  /* [1][0][][] */ -1.2922190427780151,-1.0517909526824951,-0.19995313882827759,-0.95705604553222656,-0.24340358376502991,-0.49958857893943787,-0.45397931337356567,0.17406107485294342, -1.1240247488021851,-0.042504888027906418,0.33355873823165894,-1.0402863025665283,0.4475630521774292,-0.43089380860328674,-0.43314620852470398,-0.16962480545043945, -1.2586323022842407,-0.13097737729549408,0.0092838853597640991,-0.45183444023132324,-0.092129409313201904,0.018301073461771011,0.084562934935092926,0.31485161185264587, 
  /* [2][0][][] */ -0.38172867894172668,-0.20260486006736755,0.20037826895713806,0.060215208679437637,0.17041712999343872,0.17668153345584869,0.053012434393167496,0.41702172160148621, -0.20114080607891083,-0.52953356504440308,0.079741135239601135,0.017544964328408241,-0.15264801681041718,0.23977260291576385,0.24938507378101349,-0.23421970009803772, -0.48430094122886658,-0.43966370820999146,-0.12875235080718994,-0.047462407499551773,0.15691444277763367,-0.10526787489652634,-0.20286168158054352,0.53081166744232178, 
  /* [3][0][][] */ -1.3542155027389526,-0.677834153175354,0.010254288092255592,-1.5932323932647705,-0.69310951232910156,-0.00091429956955835223,-1.2056750059127808,-0.096697993576526642, -0.92946666479110718,0.29284512996673584,0.12067287415266037,-1.4313218593597412,-0.10087712854146957,-0.45433485507965088,-1.7808417081832886,-0.035623360425233841, -1.088524341583252,0.09584219753742218,0.034650903195142746,-1.5056191682815552,-0.19128064811229706,0.30106130242347717,-1.2041923999786377,0.071861475706100464, 
  /* [4][0][][] */ -0.60056918859481812,-0.56231915950775146,-0.31016078591346741,-0.59319806098937988,-0.4742007851600647,-1.0344640016555786,-0.35709583759307861,-0.16774000227451324, -1.1379777193069458,0.11599298566579819,-0.2072283923625946,-1.0252672433853149,0.28359788656234741,-0.89947056770324707,0.087810531258583069,-0.2458072304725647, 0.18302623927593231,0.21068620681762695,-1.0499569177627563,-0.54334580898284912,-0.68760776519775391,-0.16433669626712799,-0.41658416390419006,-0.3687121570110321, 
  /* [5][0][][] */ -0.029875347390770912,0.50736081600189209,-0.84202104806900024,-0.48530581593513489,-1.0503467321395874,-0.53972083330154419,-0.46101129055023193,-1.1724936962127686, 0.0075448635034263134,0.24442489445209503,-0.78687989711761475,-0.41617110371589661,-0.24888874590396881,-0.28283610939979553,-0.37889686226844788,-0.05681159719824791, -0.22541359066963196,-0.06649191677570343,-0.069380655884742737,-0.45121312141418457,0.16692489385604858,0.13369713723659515,0.46150669455528259,0.2064603865146637, 
  /* [6][0][][] */ -0.15579889714717865,-0.25446873903274536,-0.35825756192207336,0.15563206374645233,-0.23224553465843201,0.089603759348392487,-0.0017142469296231866,-0.69643187522888184, 0.6575247049331665,0.01349668949842453,-0.4552609920501709,0.085905537009239197,-0.52572882175445557,-0.51106804609298706,-0.11724577844142914,-0.58024418354034424, -0.61156851053237915,-0.053664881736040115,-0.12985469400882721,-0.2606942355632782,-0.13539136946201324,-0.15030589699745178,-0.12949632108211517,0.39094960689544678, 
  /* [7][0][][] */ -0.32644620537757874,-0.25083529949188232,-0.28487873077392578,0.36404401063919067,-1.0784645080566406,-1.1137948036193848,-0.73647260665893555,0.016893573105335236, -0.60540139675140381,-0.52451145648956299,-0.10640105605125427,-0.24998648464679718,-0.87181252241134644,-0.6245650053024292,-0.84700655937194824,-0.51319348812103271, -0.026401761919260025,0.21609817445278168,0.18453443050384521,-0.35265836119651794,0.10013144463300705,-0.09125373512506485,-1.3202464580535889,-0.81671661138534546, 
  /* [8][0][][] */ 0.23951630294322968,0.43512403964996338,0.30684620141983032,-0.49406865239143372,0.0094838803634047508,-0.62187588214874268,-1.1805553436279297,0.15951657295227051, -0.92554157972335815,-0.2753242552280426,0.30871289968490601,-0.11149023473262787,-0.33871269226074219,-0.71083533763885498,-0.20257250964641571,-0.07348921149969101, -0.57662320137023926,-0.61654025316238403,-0.17153991758823395,0.16152708232402802,-1.1275128126144409,-0.85983180999755859,-0.24321889877319336,-0.30028825998306274, 
  /* [9][0][][] */ -0.57859081029891968,0.067827530205249786,-0.53523224592208862,-0.32728278636932373,-0.20289865136146545,-0.20023155212402344,-0.25924232602119446,-0.11174581944942474, 0.12649659812450409,-0.092159822583198547,-0.47965121269226074,-0.56691747903823853,-0.49534615874290466,-0.7300029993057251,-0.41534388065338135,-0.1605818122625351, -0.48846957087516785,-0.39243361353874207,-0.054570328444242477,-1.0533802509307861,-0.13568753004074097,0.41716152429580688,-0.26694679260253906,-0.50499510765075684, 
  /* [10][0][][] */ 0.3074832558631897,0.5675240159034729,-0.30528509616851807,-0.22146809101104736,-0.51951742172241211,-0.86704808473587036,-0.49426102638244629,-0.89842689037322998, -0.89327114820480347,-0.49908676743507385,0.30881300568580627,-0.83854681253433228,0.22148354351520538,-0.048323340713977814,0.1008303165435791,0.048557616770267487, -0.84212011098861694,-0.60257899761199951,0.27558469772338867,-0.80638563632965088,0.33906668424606323,0.0062314365059137344,-0.015507099218666553,0.13155172765254974, 
  /* [11][0][][] */ 0.023563764989376068,0.049510091543197632,-0.07726103812456131,-0.13698415458202362,0.33746263384819031,0.97523552179336548,-0.30210599303245544,-0.30120810866355896, -0.13791948556900024,0.022639632225036621,-0.095415659248828888,-0.60720288753509521,-0.42244160175323486,-0.65861892700195312,-0.19489836692810059,-1.1623144149780273, 0.16523487865924835,-0.079640306532382965,0.11899355798959732,-0.52225428819656372,-0.50006377696990967,-0.11555546522140503,-0.36340856552124023,-1.2666410207748413, 
  /* [12][0][][] */ -0.056016441434621811,0.57056969404220581,0.091474756598472595,-0.12658263742923737,-0.17204126715660095,-0.11402622610330582,-1.2919905185699463,-0.50976109504699707, 0.14415480196475983,-0.26935940980911255,0.014539104886353016,-0.091650158166885376,0.24764618277549744,0.073886260390281677,-1.7783681154251099,-0.61888706684112549, 0.21248422563076019,0.18746910989284515,0.31775066256523132,0.36996757984161377,-0.29813733696937561,-0.221673384308815,-1.3928542137145996,-0.49552556872367859, 
  /* [13][0][][] */ 0.0052019921131432056,0.090110138058662415,-0.41989046335220337,0.66576850414276123,-0.67075377702713013,-0.43906682729721069,-0.46122536063194275,-0.044958148151636124, -0.16911390423774719,-0.3807188868522644,-0.21144713461399078,-0.2399660050868988,-0.52664661407470703,-0.96797609329223633,-0.50850135087966919,-0.60869711637496948, 0.11796301603317261,-0.20445984601974487,-0.030505253002047539,-0.41707396507263184,-0.85448592901229858,-0.70601803064346313,-1.0569223165512085,-0.22876660525798798, 
  /* [14][0][][] */ -1.1681855916976929,-1.1405187845230103,-0.14895746111869812,0.04248553141951561,-0.2390943318605423,-0.35672906041145325,-0.12362920492887497,-0.53261303901672363, -0.26080602407455444,-0.42245373129844666,0.28374585509300232,-0.28574308753013611,-0.087091006338596344,0.040694639086723328,-0.011600085534155369,-0.41383755207061768, 0.13929204642772675,0.73959207534790039,-0.059610821306705475,-0.21042260527610779,0.18428441882133484,-0.069661960005760193,-0.42365708947181702,-0.99752819538116455, 
  /* [15][0][][] */ -0.2518153190612793,-0.56171596050262451,-0.40531912446022034,0.28398200869560242,-0.09305717796087265,-1.1848050355911255,-0.1356910914182663,-1.6824008226394653, 0.25317734479904175,-0.61646938323974609,-0.19222055375576019,-0.37560635805130005,-0.084998190402984619,-1.1001116037368774,0.02059515193104744,-1.8518215417861938, -0.18846867978572845,-0.37068277597427368,-0.25790902972221375,0.12745800614356995,0.31278648972511292,-0.5231548547744751,0.16053083539009094,-0.62514656782150269, 
  /* [16][0][][] */ -0.13359571993350983,-0.022041851654648781,0.11520250886678696,0.26923763751983643,-0.37355616688728333,-1.1073921918869019,-1.1667824983596802,-0.91922628879547119, -0.14646723866462708,-0.13618068397045135,-0.13585098087787628,0.53549551963806152,-0.13460047543048859,-0.71267545223236084,-1.0996425151824951,-0.65942281484603882, -0.16225525736808777,0.16215692460536957,0.54837322235107422,-0.14655137062072754,0.00074074487201869488,-0.29457825422286987,-0.85022866725921631,-0.72996824979782104, 
  /* [17][0][][] */ -0.28944572806358337,0.19844341278076172,-0.23392190039157867,-0.47499930858612061,0.20858603715896606,0.23024803400039673,-0.20504350960254669,-0.16243141889572144, 0.10465136915445328,0.11128352582454681,0.13334020972251892,-0.4474932849407196,-0.16857339441776276,0.43521329760551453,-0.15653187036514282,-0.046757306903600693, 0.10939338058233261,0.059883836656808853,0.15052413940429688,-0.041289884597063065,0.5320514440536499,-0.23558245599269867,0.010164657607674599,-0.13690906763076782, 
  /* [18][0][][] */ 0.14545631408691406,0.32056328654289246,-0.69637042284011841,-0.35736161470413208,-0.58905130624771118,-0.59826368093490601,-0.8242374062538147,-0.50171041488647461, -0.30681785941123962,0.083422131836414337,-0.20958313345909119,-0.99930894374847412,-0.35346567630767822,-0.23578189313411713,-0.199162557721138,0.20813745260238647, -0.28076061606407166,-0.16977590322494507,0.19004939496517181,-0.71249610185623169,0.7569892406463623,0.13967415690422058,0.072194136679172516,-0.047926176339387894, 
  /* [19][0][][] */ -0.048997219651937485,0.71014457941055298,0.29142233729362488,-0.26957023143768311,0.1441958099603653,-0.11816554516553879,-0.22350767254829407,-0.47453761100769043, 0.15491053462028503,-0.099802464246749878,0.057328052818775177,-0.98187458515167236,-0.070946589112281799,-0.19397380948066711,-0.68268948793411255,-0.13338278234004974, -0.080123543739318848,-0.16097390651702881,-0.39676627516746521,-0.77382081747055054,-0.81939607858657837,-0.17955222725868225,-0.53471022844314575,-0.54527962207794189, 
  /* [20][0][][] */ 0.14172732830047607,-0.18014252185821533,-1.0059233903884888,-0.14990885555744171,-0.18415567278862,-0.32017812132835388,0.53908622264862061,0.059015899896621704, -0.1009557917714119,0.072361484169960022,-1.333100438117981,-0.35999253392219543,-0.39756950736045837,0.2858029305934906,-0.12174523621797562,-0.28606489300727844, 0.33233335614204407,0.015832060948014259,-0.14224295318126678,-0.74508243799209595,-0.33868727087974548,-0.48128250241279602,-0.29970380663871765,-0.65762788057327271, 
  /* [21][0][][] */ -1.0233148336410522,-0.93519443273544312,0.025427266955375671,0.30351343750953674,-0.95593637228012085,0.067941553890705109,-0.55386483669281006,-0.35302814841270447, -0.84040164947509766,-1.4431678056716919,-0.40991523861885071,-0.16721919178962708,-0.25878018140792847,-0.5170280933380127,-0.048973873257637024,-0.16026794910430908, 0.0066885817795991898,-0.24651296436786652,-0.40499657392501831,-0.58527618646621704,0.28288620710372925,0.46886059641838074,0.22456938028335571,-0.0020331982523202896, 
  /* [22][0][][] */ 0.2568666934967041,-0.80621665716171265,-0.74876487255096436,0.23513087630271912,0.19654703140258789,-0.00077883613994345069,0.093808121979236603,-0.22953864932060242, -0.38653382658958435,-1.117847204208374,-0.70979702472686768,-0.084764406085014343,0.056316331028938293,-0.52187639474868774,0.12527117133140564,-0.12570327520370483, -0.61392372846603394,-1.0321947336196899,0.28989326953887939,0.27100339531898499,-1.021734356880188,-0.44136911630630493,-0.68471556901931763,0.45341730117797852, 
  /* [23][0][][] */ -0.15001823008060455,-0.2569061815738678,-0.94967126846313477,-0.057100825011730194,-0.64998942613601685,-0.10437288135290146,-0.050392191857099533,0.59723275899887085, 0.62794190645217896,-0.21956072747707367,-0.55173534154891968,-0.51836323738098145,-0.34501752257347107,-0.26055905222892761,-0.06845470517873764,-0.36320310831069946, -0.34198027849197388,0.17626161873340607,-1.1102348566055298,-0.20565487444400787,-0.62468159198760986,-0.37677961587905884,-0.54394173622131348,-0.14430445432662964, 
  /* [24][0][][] */ 0.15418057143688202,0.41419580578804016,-0.41491210460662842,-0.03119644895195961,-0.90167063474655151,-1.0735398530960083,-0.30542254447937012,-0.62391269207000732, -1.4487935304641724,-0.42532414197921753,-0.41069963574409485,-0.13608768582344055,0.031000783666968346,-0.096255667507648468,0.028565818443894386,0.21756777167320251, -1.5963021516799927,-0.97949761152267456,0.16614344716072083,-0.40772631764411926,0.001787874847650528,-0.11387738585472107,0.3586079478263855,-0.0025059911422431469, 
  /* [25][0][][] */ -0.013082115910947323,0.34717550873756409,0.42561662197113037,-0.049441155046224594,-0.065243825316429138,0.056578319519758224,-0.10326442122459412,-0.15439257025718689, -0.82136803865432739,-0.047364313155412674,-0.095403730869293213,-0.17293985188007355,0.1969321072101593,0.36046499013900757,-0.24895787239074707,0.085785850882530212, -0.43980813026428223,-0.13280841708183289,0.24602159857749939,0.10901699960231781,0.23766908049583435,-0.6348004937171936,0.40753164887428284,-0.02045617438852787, 
  /* [26][0][][] */ -0.97297990322113037,-1.9979343414306641,-0.095307536423206329,-0.6458466649055481,-0.23414073884487152,0.029336871579289436,0.59490859508514404,0.091199696063995361, -1.5650286674499512,-0.73385274410247803,0.3330247700214386,-0.63313323259353638,-0.13503165543079376,-0.38957926630973816,-0.19047631323337555,0.040320474654436111, -1.4494456052780151,-1.3726541996002197,0.152750164270401,-0.672954261302948,-0.093323707580566406,-0.21224699914455414,0.26818349957466125,-0.059297669678926468, 
  /* [27][0][][] */ -0.27626359462738037,-0.27898383140563965,-0.28859508037567139,-0.46035602688789368,-0.30936712026596069,0.14745244383811951,-0.75949317216873169,-0.056789569556713104, -0.39191636443138123,-1.3681505918502808,-0.037918243557214737,-0.39936971664428711,-1.1975216865539551,-0.080309867858886719,-0.98976624011993408,0.24547173082828522, -0.37378779053688049,-0.62838393449783325,0.2298390120267868,-0.79769212007522583,-1.111078143119812,-0.1614547073841095,-0.69997000694274902,0.047321364283561707, 
  /* [28][0][][] */ -0.46307122707366943,-0.97541218996047974,-0.14450684189796448,-0.77400285005569458,-0.030084135010838509,-0.063293285667896271,-0.3027743399143219,-0.29377323389053345, -0.23613597452640533,-0.46232262253761292,0.14675392210483551,-1.7176289558410645,-0.88959985971450806,0.1193225160241127,0.14161618053913116,0.065240830183029175, -0.2937886118888855,-0.54083317518234253,-0.70364952087402344,-1.3959107398986816,-0.28859016299247742,-0.070306472480297089,-0.37302699685096741,0.33770903944969177, 
  /* [29][0][][] */ 0.08475029468536377,-0.18725326657295227,-0.37584167718887329,-0.61340200901031494,-0.43556809425354004,0.35627773404121399,-0.75047624111175537,0.26826626062393188, -0.044870715588331223,-0.68779611587524414,-0.81854969263076782,-0.32938730716705322,-0.50538629293441772,-0.8033561110496521,-0.98210000991821289,0.120939701795578, -0.085104338824748993,-0.50294888019561768,-1.2883937358856201,0.65510708093643188,-1.0002133846282959,-0.92829310894012451,-0.62419140338897705,0.03665558248758316, 
  /* [30][0][][] */ -0.52252703905105591,-0.3190009593963623,-0.13768374919891357,-0.21492896974086761,0.029151581227779388,-0.1536228209733963,-0.058539833873510361,-0.33469909429550171, -0.13077609241008759,-0.44094374775886536,-0.14977757632732391,-0.19896164536476135,0.022732732817530632,-0.23568524420261383,-0.018598455935716629,-0.42393442988395691, -0.0063979579135775566,-0.081650912761688232,-0.3084142804145813,-0.37059056758880615,-0.42497193813323975,-0.074310168623924255,-0.2434040904045105,-0.34430551528930664, 
  /* [31][0][][] */ 0.71090537309646606,-0.021462207660079002,-0.34600639343261719,-0.21762856841087341,-0.010874370113015175,0.2341209352016449,-0.12075366824865341,-0.60176575183868408, -0.12205782532691956,0.077066086232662201,-0.058762382715940475,-0.46478366851806641,0.10299316048622131,0.14612451195716858,-0.83732926845550537,-0.71648687124252319, 0.27083024382591248,-0.082297235727310181,-0.54898089170455933,-0.27964788675308228,-0.60906493663787842,-0.011896556243300438,-0.80345016717910767,-0.36842697858810425, 
  /* [32][0][][] */ 0.27857884764671326,-0.005126291885972023,-0.04172215610742569,0.041763395071029663,0.46494445204734802,0.29476070404052734,0.027798604220151901,-0.5641481876373291, 0.18332923948764801,-0.13330180943012238,-0.10232498496770859,-0.20258486270904541,0.0099561531096696854,0.42245471477508545,-0.22666515409946442,-0.99639862775802612, -0.25961983203887939,0.46736276149749756,0.38765588402748108,-0.10198382288217545,-0.15171848237514496,0.17250551283359528,-0.22515846788883209,-0.98118430376052856, 
  /* [33][0][][] */ -0.3739602267742157,-0.13766573369503021,0.0061256801709532738,0.07479521632194519,-0.80530548095703125,-1.2795816659927368,-1.7616078853607178,-0.56996208429336548, -0.20330244302749634,-0.18122637271881104,-0.185514897108078,0.075342558324337006,0.090186439454555511,-0.3629734218120575,-1.668012261390686,-0.8886866569519043, -0.031478099524974823,0.5139811635017395,-0.12729352712631226,0.14001519978046417,0.46000343561172485,0.072966873645782471,-0.92005407810211182,-0.76827216148376465, 
  /* [34][0][][] */ -0.93214893341064453,-0.57051444053649902,0.47504729032516479,0.3344414234161377,-0.4026721715927124,-0.039156008511781693,0.071645759046077728,0.063354760408401489, 0.056083817034959793,-0.19346489012241364,-0.037937048822641373,-0.054715957492589951,0.20742787420749664,0.22612129151821136,-0.11504722386598587,-0.0010685785673558712, -0.38754090666770935,-0.47160202264785767,0.073736928403377533,0.080050788819789886,0.2619134783744812,0.15476803481578827,0.43023931980133057,0.13410599529743195, 
  /* [35][0][][] */ -0.28124573826789856,-0.17709144949913025,-0.76984083652496338,0.094575382769107819,-1.2195143699645996,-1.0513499975204468,-0.26210173964500427,-0.92011141777038574, -0.066405825316905975,-0.1259068101644516,-1.0672976970672607,-0.026144988834857941,-0.056137517094612122,-0.043979361653327942,0.062385447323322296,-1.0333058834075928, 0.27042281627655029,0.14424328505992889,-0.86608493328094482,-0.26687493920326233,-0.23660510778427124,0.11221423745155334,-0.43004322052001953,-1.6043603420257568, 
  /* [36][0][][] */ 0.12748922407627106,0.32804903388023376,-0.18226341903209686,-0.45654881000518799,-0.23361198604106903,-0.044608447700738907,-0.86090767383575439,-1.383820652961731, 0.25565260648727417,-0.25476357340812683,-0.81781625747680664,-0.065545856952667236,-0.633841872215271,0.12124922126531601,-0.31392952799797058,-1.1608731746673584, -0.36328646540641785,-0.23570434749126434,-1.2310775518417358,0.14135581254959106,-0.078080274164676666,-0.040108539164066315,0.52332508563995361,-0.017683245241641998, 
  /* [37][0][][] */ -0.42348065972328186,-0.42417779564857483,-0.24144247174263,0.24120576679706573,0.050545442849397659,-0.48321911692619324,0.47471544146537781,-0.54138976335525513, 0.025008024647831917,-0.28432133793830872,0.0056828605011105537,-0.23412291705608368,-0.044176578521728516,0.010476183146238327,-0.002909450326114893,-0.73594862222671509, 0.019609421491622925,-0.02000376395881176,-0.37991473078727722,-0.11732311546802521,-0.9133027195930481,-0.71324902772903442,-0.20858520269393921,-0.71974128484725952, 
  /* [38][0][][] */ -0.48576360940933228,-0.28269776701927185,0.49730214476585388,-0.85497409105300903,-0.36393800377845764,-0.80149233341217041,-0.83027684688568115,-0.17962071299552917, -0.16437354683876038,0.032652121037244797,-0.12812539935112,-0.2694932222366333,-0.0097129484638571739,-0.39995837211608887,-0.81295144557952881,-0.27952760457992554, 0.083726786077022552,0.23164837062358856,0.56359851360321045,0.10433006286621094,-0.14031721651554108,-0.37539935111999512,-0.56906044483184814,-0.38914135098457336, 
  /* [39][0][][] */ -0.00073950958903878927,0.39946544170379639,-0.21275076270103455,0.19360852241516113,0.088660255074501038,-0.017130790278315544,-0.91942685842514038,-0.44345459342002869, -0.20479856431484222,-0.076852753758430481,-0.45835721492767334,-0.29242196679115295,-0.35510009527206421,-0.055990912020206451,-1.3331259489059448,-1.0212554931640625, 0.030430233106017113,-0.10428860783576965,-0.060043282806873322,0.12783050537109375,-0.97558635473251343,-0.59721076488494873,-1.4112192392349243,-0.71802127361297607, 
  /* [40][0][][] */ -0.094148576259613037,0.12811803817749023,0.034219171851873398,-0.20828312635421753,0.36693292856216431,-0.12809240818023682,-0.360881507396698,-0.38513544201850891, -0.54518938064575195,-0.0054237423464655876,-0.2235933244228363,-0.1632559597492218,-0.10427100211381912,0.35519608855247498,-0.75937122106552124,-0.1911507248878479, 0.28901839256286621,0.14792917668819427,-0.4464181661605835,-0.44110417366027832,-0.27252978086471558,0.057294666767120361,-1.0391358137130737,-0.33568108081817627, 
  /* [41][0][][] */ -0.15578384697437286,-0.0053954781033098698,0.71843612194061279,0.072124198079109192,-0.31028962135314941,-0.16858561336994171,-0.31571421027183533,-0.52911096811294556, -0.025049196556210518,-0.089793995022773743,-0.21231120824813843,-0.16111260652542114,0.10292258858680725,0.28308174014091492,-0.10948465764522552,-0.0018932778621092439, -0.51199173927307129,0.13101004064083099,0.023292960599064827,-0.51319456100463867,-0.069923289120197296,0.39951387047767639,-0.28648394346237183,-0.22012539207935333, 
  /* [42][0][][] */ -0.21435660123825073,-1.1944025754928589,-0.3031545877456665,0.23678721487522125,-0.081318795680999756,-0.11203029751777649,0.33261844515800476,0.0025859922170639038, -0.46057641506195068,-1.6703982353210449,-0.44076234102249146,0.060132849961519241,0.22815462946891785,-0.17693978548049927,0.038977712392807007,-0.32595258951187134, -0.4075503945350647,-1.3608666658401489,-0.14569750428199768,0.048952076584100723,0.42882150411605835,-0.18561947345733643,0.13518503308296204,-0.10315310955047607, 
  /* [43][0][][] */ -0.75154894590377808,-0.055381603538990021,-0.065826579928398132,0.023560676723718643,-1.4582817554473877,-0.14682745933532715,-0.76116347312927246,-0.15659189224243164, -1.1385414600372314,-0.24292612075805664,-0.032082390040159225,-0.36245420575141907,-0.42808261513710022,-0.18685822188854218,-0.48260951042175293,-0.23060229420661926, -0.99661213159561157,-0.3257535994052887,-0.20027413964271545,-0.25437232851982117,-0.22038766741752625,-0.10835464298725128,-0.076573461294174194,0.55361056327819824, 
  /* [44][0][][] */ -0.099656961858272552,-0.49272879958152771,0.1642364114522934,-0.29098659753799438,-0.71531015634536743,-0.41197124123573303,-0.42945879697799683,-0.45411726832389832, -0.10624627023935318,-0.078316293656826019,0.36052092909812927,-0.03000633604824543,-0.2888510525226593,-0.82267826795578003,-0.70478332042694092,-0.39772790670394897, -0.45074373483657837,-0.40531173348426819,-0.15869218111038208,-0.85031771659851074,-0.30219027400016785,0.73448401689529419,-0.82103103399276733,-0.2524246871471405, 
  /* [45][0][][] */ -0.092184998095035553,-0.12874798476696014,-0.15475282073020935,-0.03933938592672348,0.018855497241020203,-0.064663700759410858,0.5958828330039978,0.37032622098922729, 0.049703050404787064,-0.1528887003660202,-0.76892226934432983,-0.1438787430524826,-0.84130257368087769,-0.85280096530914307,-0.17151735723018646,-0.55523431301116943, -0.012408625334501266,0.18133834004402161,-0.93884384632110596,0.14747625589370728,-1.085195779800415,-0.81230676174163818,-0.56246578693389893,-0.59569311141967773, 
  /* [46][0][][] */ -0.13098101317882538,-0.59610652923583984,-0.38673883676528931,-0.012345810420811176,-0.52881532907485962,-1.3497178554534912,-0.14133372902870178,-0.13931062817573547, -0.20304641127586365,-0.31552520394325256,-0.45441839098930359,0.12310627847909927,0.044634580612182617,-0.49979028105735779,0.55402392148971558,-0.37352705001831055, 0.55578339099884033,-0.01824529841542244,-0.83945250511169434,-0.067363433539867401,-0.14333054423332214,-0.20831279456615448,-0.24645039439201355,-0.67375260591506958, 
  /* [47][0][][] */ -0.00057847041171044111,0.20638546347618103,-0.65865898132324219,0.34208190441131592,-0.93867963552474976,-0.92004424333572388,-0.67569559812545776,-1.8970953226089478, 0.068372040987014771,-0.17937994003295898,-1.3587294816970825,-0.043903950601816177,-0.77552533149719238,-0.80511826276779175,-0.35432219505310059,-1.4101169109344482, -0.14517596364021301,-0.35010576248168945,-1.9316645860671997,0.61457240581512451,-0.94306540489196777,-0.39848583936691284,0.079617917537689209,-0.28651440143585205, 
  /* [48][0][][] */ -0.85490554571151733,-0.2881152331829071,0.17425039410591125,-1.0828925371170044,-0.1607557088136673,0.46749195456504822,-0.48061180114746094,0.42939481139183044, -0.62069135904312134,0.023641070351004601,0.066509969532489777,-1.3927843570709229,-0.27328431606292725,0.22493818402290344,-0.54466784000396729,-0.22084788978099823, -0.47291892766952515,-0.043508183211088181,0.22108827531337738,-1.1995753049850464,-0.036968223750591278,0.44041165709495544,-0.25517749786376953,0.066790960729122162, 
  /* [49][0][][] */ -0.0072967726737260818,-0.22486956417560577,0.13829800486564636,-0.20188488066196442,0.14688049256801605,0.12031035125255585,-0.084735110402107239,-0.80493885278701782, -0.15106320381164551,-0.60335594415664673,-0.39148399233818054,-0.22040969133377075,-0.23385900259017944,-0.045139189809560776,-0.12710434198379517,-0.58877772092819214, -0.048370178788900375,-0.60646182298660278,-0.4573206901550293,0.49786296486854553,-0.94236236810684204,-0.20885653793811798,-0.052885208278894424,-0.5788913369178772, 
  /* [50][0][][] */ -0.11119113117456436,-0.47945094108581543,0.38680317997932434,-0.56685537099838257,-0.35760781168937683,-0.64264100790023804,-0.08153766393661499,-0.28400737047195435, -0.54819238185882568,-0.24459169805049896,-0.14193554222583771,-0.23388171195983887,0.012470483779907227,-0.17282785475254059,-0.54345136880874634,-0.41862526535987854, -0.26966404914855957,0.86157596111297607,-0.11005588620901108,-0.052903160452842712,0.10161340236663818,0.18339590728282928,-0.52305018901824951,-0.54074764251708984, 
  /* [51][0][][] */ -0.51686400175094604,0.073343530297279358,0.53381264209747314,-0.58395171165466309,-0.29018369317054749,0.0061015482060611248,-0.63704729080200195,0.32249906659126282, -0.41957813501358032,0.11411231011152267,-0.29196009039878845,-0.099250555038452148,0.1227889209985733,-0.3905218243598938,-0.55015307664871216,-0.21555972099304199, -0.65268564224243164,-0.31097698211669922,0.36322665214538574,-0.29399597644805908,-0.29364055395126343,-0.98714417219161987,-0.2244400829076767,-0.13344092667102814, 
  /* [52][0][][] */ 0.035770203918218613,0.085594132542610168,-0.2320772260427475,-0.25206375122070312,0.08621273934841156,-0.96105998754501343,-0.50887101888656616,-0.11985276639461517, -1.0852696895599365,-0.01392369344830513,0.80161362886428833,-0.3692280650138855,-0.19599860906600952,-0.56268215179443359,-0.23252315819263458,-0.28593367338180542, -0.74265676736831665,-0.13660664856433868,0.089554436504840851,0.29703155159950256,-0.31584009528160095,-1.0432960987091064,-0.068976119160652161,-0.48025989532470703, 
  /* [53][0][][] */ -0.98171061277389526,-0.087686873972415924,-0.095976665616035461,-0.10033334791660309,0.11110236495733261,0.21388302743434906,0.014483483508229256,0.026481585577130318, -0.55329573154449463,-0.11076529324054718,0.47786301374435425,-0.27609893679618835,-0.053049810230731964,-0.67506289482116699,-0.024563919752836227,-0.094996906816959381, -0.81636172533035278,0.11224367469549179,0.03794286772608757,0.1753658652305603,0.0063691772520542145,0.64696371555328369,0.32945558428764343,-0.013367265462875366, 
  /* [54][0][][] */ 0.10282588005065918,0.5715022087097168,-0.52722674608230591,-0.38819468021392822,0.039451118558645248,-0.25024819374084473,-0.1217932254076004,-0.95578759908676147, 0.13336238265037537,-0.12975054979324341,-0.7811848521232605,-0.94480615854263306,-0.28105774521827698,-0.18373315036296844,-0.90012764930725098,-0.40461462736129761, 0.19980335235595703,-0.088595710694789886,-1.2006558179855347,-0.68569689989089966,-1.1677347421646118,-0.14956966042518616,-1.2062381505966187,-0.96699637174606323, 
  /* [55][0][][] */ -0.56032562255859375,-0.43326428532600403,0.066266261041164398,-0.093703687191009521,0.19242671132087708,0.49107280373573303,-0.28876513242721558,-0.051239185035228729, 0.0067793042398989201,-0.3473154604434967,-0.53232735395431519,0.15889787673950195,0.47055277228355408,-0.22043414413928986,-0.075849175453186035,-0.41980141401290894, 0.2864353358745575,-0.074859440326690674,-0.70382523536682129,0.097395181655883789,0.068447574973106384,-0.65198373794555664,0.069047197699546814,-1.5999516248703003, 
  /* [56][0][][] */ -0.0044900607317686081,0.043843451887369156,-0.42153391242027283,-0.36966744065284729,-1.1576287746429443,-0.53532832860946655,-0.8203551173210144,0.082746975123882294, -0.10155178606510162,-0.12834958732128143,-1.1643469333648682,0.16868114471435547,-1.1466785669326782,-0.82072776556015015,-0.44356304407119751,-0.12193421274423599, 0.013240683823823929,-0.021474363282322884,-0.47456648945808411,0.098109617829322815,-0.24134550988674164,0.11363775283098221,0.86343640089035034,0.074584677815437317, 
  /* [57][0][][] */ -1.9599229097366333,-1.1113332509994507,-0.40445488691329956,-0.2066923975944519,-0.78631401062011719,-0.21600897610187531,-0.2070586234331131,0.4099394679069519, -0.79623633623123169,-0.97316652536392212,-0.53760510683059692,-0.28350123763084412,-0.53126949071884155,-0.24786706268787384,-0.046127110719680786,-0.27854174375534058, -0.4080517590045929,0.041162922978401184,-0.69933688640594482,0.40961027145385742,0.45120799541473389,-0.083041191101074219,-0.042692255228757858,-0.2705727219581604, 
  /* [58][0][][] */ -0.82800042629241943,-0.57362818717956543,-0.42527720332145691,-0.48587971925735474,-0.19096250832080841,-0.43033650517463684,0.068520233035087585,-0.24783256649971008, -1.1273448467254639,-0.68318146467208862,-0.748649001121521,-0.22191791236400604,-0.32760950922966003,-0.99311691522598267,-0.075611837208271027,-0.22387582063674927, -0.48319754004478455,-0.84747129678726196,-0.520050048828125,-0.28627392649650574,-0.8505743145942688,-1.0813251733779907,-0.097804345190525055,-0.17279757559299469, 
  /* [59][0][][] */ -0.1063387468457222,-1.1549454927444458,-0.5359729528427124,-0.049866937100887299,0.28848251700401306,-0.44318392872810364,0.20243313908576965,-0.46791785955429077, -0.16632243990898132,-1.2086790800094604,-0.980538010597229,0.071269765496253967,0.25109681487083435,-0.3663322925567627,-0.23183934390544891,-0.33350428938865662, -0.2221217155456543,-1.3134756088256836,-0.52166807651519775,0.23034925758838654,0.14675867557525635,-0.21874351799488068,0.30872121453285217,-0.002998927840963006, 
  /* [60][0][][] */ -0.77648240327835083,-0.84170681238174438,-0.33732631802558899,-0.58589452505111694,-0.67944824695587158,-0.99774038791656494,-0.14337733387947083,0.0187529306858778, -1.2851699590682983,-0.30638387799263,0.18066059052944183,-0.054669864475727081,-0.45660066604614258,-0.65991753339767456,-0.18387691676616669,-0.15494348108768463, -0.77486675977706909,-0.30770993232727051,0.13624162971973419,-0.014057322405278683,-0.4189007580280304,-0.74918770790100098,-0.019038125872612,-0.28536409139633179, 
  /* [61][0][][] */ -0.43754133582115173,-0.67400181293487549,-0.27876418828964233,0.36551156640052795,-0.61935311555862427,-0.46152195334434509,-0.50454753637313843,-0.061923205852508545, -1.0638196468353271,-0.21045763790607452,-0.14609354734420776,-0.51452243328094482,-0.3671690821647644,0.20154505968093872,-0.48025372624397278,-0.048552855849266052, -0.67586058378219604,-0.20008194446563721,-0.22354322671890259,-0.19359523057937622,-0.2473069429397583,0.75806599855422974,0.046091947704553604,0.021996781229972839, 
  /* [62][0][][] */ -0.11277337372303009,-0.081391856074333191,0.25125366449356079,-0.27320209145545959,0.019778382033109665,0.093101300299167633,-0.23039105534553528,-0.38311272859573364, -0.7797468900680542,0.09278462827205658,-0.17038233578205109,-0.68733412027359009,0.029901552945375443,0.15436947345733643,-0.22634804248809814,0.31931456923484802, -0.97171461582183838,-0.40595430135726929,0.39832189679145813,-0.89060032367706299,0.15869899094104767,0.59405612945556641,0.16237430274486542,-0.099560260772705078, 
  /* [63][0][][] */ 0.17896540462970734,-0.11743439733982086,-1.715299129486084,-0.15881305932998657,-0.93471765518188477,-1.0813970565795898,-0.33582592010498047,-1.4247845411300659, -0.20941387116909027,0.23813319206237793,-0.47286024689674377,-0.13816289603710175,-0.16077840328216553,-0.35989284515380859,-0.14477920532226562,-0.93784838914871216, -0.26086190342903137,0.042964890599250793,0.63140887022018433,-0.11912035197019577,0.080574549734592438,0.0021466764155775309,-0.39945626258850098,-0.84965389966964722, 
};
const TfArray<4, int> tensor_dimension8 = { 4, { 64,1,3,8 } };
const ALIGN(16) float tensor_data9[16*1*3*64] = { 
  /* [0][0][][] */ 0.20409207046031952,0.17183634638786316,0.078919701278209686,-0.31241953372955322,-0.35140809416770935,0.046173572540283203,-0.13021902740001678,0.31417733430862427,-1.1746385097503662,0.058275636285543442,-0.097859852015972137,0.14818955957889557,-0.15339143574237823,0.7390892505645752,-0.43640032410621643,-0.46519264578819275,0.016325909644365311,0.026076778769493103,0.39160504937171936,-0.55180823802947998,0.018845038488507271,0.26349660754203796,0.37181076407432556,-0.97608590126037598,0.12854871153831482,-0.13807906210422516,-0.071779921650886536,-1.1286489963531494,-0.84987705945968628,-1.1514467000961304,-0.0010060413042083383,-0.26388320326805115,-0.0078677907586097717,-0.91477340459823608,0.13437463343143463,-0.60414630174636841,-0.017047066241502762,0.14397558569908142,-1.0919208526611328,0.17225100100040436,-0.26896136999130249,-0.27316829562187195,0.1230681911110878,-0.7039024829864502,0.44383424520492554,0.36132317781448364,-0.1608537882566452,0.21034879982471466,-0.26046174764633179,0.41159304976463318,-0.57268887758255005,-1.5321295261383057,-1.2229650020599365,-0.039592541754245758,-0.23397581279277802,0.049804594367742538,-0.74722981452941895,-0.3392215371131897,-0.44095253944396973,0.1677815169095993,-1.0504086017608643,0.73395484685897827,0.35067671537399292,-0.1946309506893158, 0.26561009883880615,0.077590987086296082,-0.059646494686603546,0.030037207528948784,-0.28026926517486572,-0.28602281212806702,-0.32930049300193787,0.4102824330329895,-0.025037385523319244,-0.17267736792564392,-0.2884482741355896,0.01345216017216444,-0.14898952841758728,0.64602005481719971,-0.27280813455581665,-0.22389242053031921,-0.082543887197971344,-0.044844407588243484,-0.46025028824806213,0.042398367077112198,0.097799263894557953,0.0081686889752745628,0.30727189779281616,-0.12596963346004486,-0.68082511425018311,0.16023604571819305,0.28892365097999573,0.38260361552238464,-0.56039059162139893,-0.19198325276374817,0.075163766741752625,-0.14500373601913452,-0.022848637774586678,-0.018480492755770683,-0.19258490204811096,-0.012463443912565708,-0.58220529556274414,-0.029245069250464439,-0.37640655040740967,0.025959786027669907,-0.33366841077804565,-0.20794536173343658,0.047090858221054077,0.29586482048034668,-0.28203931450843811,0.16226217150688171,-0.10421305894851685,-0.10581143200397491,-0.67017793655395508,0.053096488118171692,-0.1912330687046051,0.0021483092568814754,0.030409866943955421,0.24617058038711548,-0.43931454420089722,0.21654841303825378,-0.83515602350234985,-0.13009341061115265,-0.32920938730239868,0.068311750888824463,0.041166666895151138,-0.25472602248191833,-0.2586415708065033,0.096478544175624847, -0.47738179564476013,-1.5310019254684448,-0.87086504697799683,-1.2041707038879395,-0.29138889908790588,-0.20912183821201324,-0.1794026792049408,0.021706240251660347,0.17210081219673157,-0.31789624691009521,0.84278464317321777,-0.29402485489845276,0.2505837082862854,0.33436912298202515,0.069212116301059723,-0.11158325523138046,0.43505406379699707,-0.27787259221076965,-0.043954811990261078,-0.10294415801763535,0.46614030003547668,-0.042814243584871292,-0.44192233681678772,0.11743532121181488,-0.32080653309822083,-0.86340487003326416,-1.0790282487869263,-0.23322576284408569,-1.2850003242492676,-0.09886479377746582,0.017619773745536804,-0.21450832486152649,0.2181660383939743,0.41367951035499573,-1.5664088726043701,0.27974197268486023,0.039947818964719772,0.39450943470001221,0.19856014847755432,0.14617568254470825,-1.0319728851318359,-0.16104170680046082,-0.39895188808441162,-1.5941194295883179,-0.29329204559326172,0.50359582901000977,0.034955397248268127,-0.10380323231220245,-1.6112693548202515,0.28168737888336182,0.072825632989406586,-0.81169146299362183,0.32022479176521301,-0.96792387962341309,-0.66675484180450439,0.041712567210197449,-0.0032805397640913725,0.18268997967243195,-0.64359837770462036,-0.27860647439956665,-0.058350861072540283,-0.32519450783729553,-1.001428484916687,0.71618187427520752, 
  /* [1][0][][] */ -0.4147663414478302,-0.65772140026092529,-0.90113210678100586,-1.0855786800384521,-0.72729969024658203,0.13958710432052612,0.26937860250473022,0.30796468257904053,-0.80130100250244141,0.32418271899223328,0.57837074995040894,0.31259328126907349,-0.074398495256900787,0.28776052594184875,0.24552126228809357,-0.19846886396408081,0.43227037787437439,-0.057248614728450775,0.55984652042388916,0.12979952991008759,0.28237631916999817,-0.24545051157474518,-0.28152236342430115,0.069351285696029663,0.39389079809188843,-0.042661655694246292,-0.31442496180534363,-0.4426194429397583,-0.24456986784934998,-0.15113504230976105,-0.072376072406768799,0.11060994863510132,0.17542606592178345,0.20731046795845032,-0.72397208213806152,0.35301777720451355,0.29654264450073242,0.31264522671699524,-0.44420328736305237,0.15236860513687134,-0.053422648459672928,-0.32921618223190308,-0.65027296543121338,-0.34186172485351562,-0.15274499356746674,0.14357465505599976,0.041679322719573975,-0.49452459812164307,-0.63590466976165771,0.2228986918926239,-0.072315320372581482,-0.80792826414108276,-0.76965814828872681,-0.29797565937042236,-0.16402566432952881,0.02655511163175106,-0.0072764744982123375,-1.311845064163208,-0.64498519897460938,-0.62630671262741089,-1.1080873012542725,-0.44116795063018799,-0.20199079811573029,0.048779226839542389, -0.19971336424350739,0.13572056591510773,0.32431623339653015,-0.49085772037506104,0.15412180125713348,0.12729434669017792,0.011328814551234245,-0.58161920309066772,-0.70430833101272583,-0.060252886265516281,0.30351975560188293,0.1362626850605011,-1.0233256816864014,-0.5099635124206543,0.55496311187744141,0.19149211049079895,-0.49689263105392456,-0.10933982580900192,0.25021126866340637,-0.62637758255004883,-0.23763959109783173,-0.0024710719007998705,0.062396805733442307,-0.49330192804336548,0.42645558714866638,0.27611583471298218,0.049295529723167419,0.050940319895744324,0.31095296144485474,-0.29294544458389282,0.15807622671127319,-0.60008347034454346,-0.61964881420135498,-0.53793710470199585,-0.18691256642341614,-0.42277234792709351,0.30444589257240295,-0.02479119598865509,-0.39804092049598694,-0.57432371377944946,-0.27345117926597595,-0.19809311628341675,-0.18845206499099731,0.041782129555940628,-0.14995449781417847,0.51874536275863647,0.083167277276515961,-0.30141299962997437,-0.21737517416477203,-0.24946773052215576,-0.26958993077278137,-0.21591578423976898,-0.25183755159378052,-0.0021108700893819332,-0.68482190370559692,-0.23796272277832031,0.14727632701396942,-0.23914064466953278,-0.61731094121932983,-0.14691817760467529,-0.33902743458747864,0.13428890705108643,0.047094665467739105,0.070800274610519409, -0.12297188490629196,0.14839479327201843,0.033602107316255569,-0.10880645364522934,0.030438469722867012,0.56086128950119019,0.36902976036071777,-1.1597086191177368,-0.044206097722053528,-0.12824468314647675,0.39912188053131104,0.10253243148326874,-1.0328140258789062,-0.86640572547912598,0.28876206278800964,-0.08128540962934494,-1.1298049688339233,-0.19836680591106415,0.41142785549163818,-0.32012492418289185,0.22178123891353607,0.030673734843730927,0.073060043156147003,0.36429205536842346,0.24540126323699951,-0.10268044471740723,0.054500635713338852,0.50044542551040649,0.17321930825710297,-0.32910466194152832,-0.18427668511867523,-0.49822509288787842,-0.53064423799514771,-1.5827163457870483,0.024154281243681908,-0.48583647608757019,0.43276509642601013,0.53903794288635254,-0.18702505528926849,-0.59743916988372803,-0.12360972911119461,-0.18569798767566681,-0.17146645486354828,0.40449860692024231,0.052250701934099197,0.17251671850681305,0.080023445188999176,-0.55176490545272827,-0.094479456543922424,0.058619827032089233,-0.17559261620044708,-0.080172628164291382,-0.36981427669525146,-0.18264886736869812,-0.45342960953712463,0.10301078110933304,-0.46357482671737671,-0.017560910433530807,-0.69474524259567261,-0.44478300213813782,-0.81997179985046387,-0.16661892831325531,0.02344072051346302,-0.028827296569943428, 
  /* [2][0][][] */ -0.8584398627281189,-0.49166032671928406,-1.2146906852722168,0.14744827151298523,0.12314852327108383,-0.20747625827789307,-0.24186897277832031,-0.66329973936080933,-0.16038331389427185,-0.11850430816411972,-0.19186045229434967,0.32902225852012634,0.21042481064796448,-0.052600186318159103,0.10440809279680252,-0.66757702827453613,-0.3268578052520752,0.057397894561290741,-0.30840921401977539,0.27004644274711609,-0.25415298342704773,-1.696692943572998,-0.3976798951625824,-0.7192227840423584,-0.1627962738275528,-0.23257960379123688,-1.2787574529647827,-1.2691893577575684,-0.73733985424041748,0.2103433758020401,0.0092788683250546455,0.25937792658805847,0.26825550198554993,-0.30944764614105225,-0.36675477027893066,-0.52441501617431641,0.4974084198474884,-0.73876601457595825,0.21499189734458923,0.35155856609344482,0.35475677251815796,0.53270959854125977,-1.0150910615921021,-1.3592453002929688,-0.151511549949646,-1.3649462461471558,-0.96164709329605103,0.069923065602779388,-0.14570571482181549,0.13222178816795349,-0.015901271253824234,-0.4956701397895813,-0.66473251581192017,0.22313855588436127,0.19866259396076202,-0.39092046022415161,-0.072779439389705658,-1.6095097064971924,-0.69650518894195557,-0.63121223449707031,-0.04788699746131897,-0.71929419040679932,-0.044726260006427765,-0.68321710824966431, -0.28947567939758301,-0.89868068695068359,-0.34616589546203613,0.2406773567199707,-0.36093643307685852,0.20399816334247589,0.29575863480567932,-0.57943630218505859,-0.29395020008087158,0.40722885727882385,0.1255495697259903,0.27466040849685669,0.25863510370254517,-0.22637709975242615,-0.82834881544113159,0.025978734716773033,-0.037325896322727203,0.072495453059673309,0.067364424467086792,0.26812383532524109,-0.089635193347930908,0.084269791841506958,-0.64106863737106323,-0.1015089675784111,0.090339288115501404,-0.50922954082489014,-0.88119643926620483,-0.18197526037693024,-0.1349063366651535,0.45583003759384155,-0.26719421148300171,-0.073966905474662781,-0.034950867295265198,-0.075420685112476349,-0.52935963869094849,-0.47675973176956177,0.34044754505157471,-1.0461643934249878,-0.25335705280303955,0.14881733059883118,0.091671109199523926,-0.30803957581520081,-0.41059955954551697,-0.12710055708885193,0.23919346928596497,-0.50788742303848267,-0.3662695586681366,0.63319796323776245,-0.13984480500221252,0.35967305302619934,-1.2009226083755493,-0.84740310907363892,-0.68191277980804443,-0.29171442985534668,0.31653597950935364,-0.29247257113456726,0.47888931632041931,-0.35191860795021057,-0.31335225701332092,0.11224344372749329,-0.67048025131225586,-0.34559237957000732,-1.0981971025466919,-0.3667600154876709, 0.038519218564033508,0.16646580398082733,0.3063848614692688,0.10755259543657303,0.082320325076580048,0.1777493804693222,0.15782515704631805,-1.4266089200973511,-0.010604480281472206,0.38795706629753113,-0.40492734313011169,0.4228997528553009,0.10429760068655014,-0.58344542980194092,-1.372563362121582,0.14785008132457733,-0.4269065260887146,-0.26600918173789978,0.18896342813968658,-0.34144189953804016,-0.46074506640434265,0.065882086753845215,0.67959797382354736,-0.2801191508769989,-0.027375102043151855,-0.28958031535148621,0.50843822956085205,0.2554696798324585,0.42644879221916199,0.2857944667339325,-0.34345132112503052,0.13560545444488525,-0.36755892634391785,-0.26563605666160583,-0.0058445688337087631,-0.54898220300674438,0.32874584197998047,-0.31463810801506042,-0.26543635129928589,-0.24296963214874268,0.24340815842151642,-1.2545531988143921,0.36678922176361084,0.26364952325820923,0.042529571801424026,-0.16108150780200958,-0.19751682877540588,0.46021002531051636,0.14222592115402222,0.47795054316520691,-1.7048054933547974,-0.57554173469543457,-0.11425017565488815,-0.23817591369152069,0.20642645657062531,-0.41639724373817444,0.23892723023891449,0.06301889568567276,0.027243120595812798,0.28021866083145142,-0.24170768260955811,-0.11327798664569855,-0.099733546376228333,-0.72805321216583252, 
  /* [3][0][][] */ -1.3496905565261841,-0.14872519671916962,-0.97600734233856201,-0.52855604887008667,-0.44546025991439819,0.536690354347229,0.37027490139007568,-0.39626330137252808,-0.10576316714286804,0.20136412978172302,0.17162726819515228,-0.75481998920440674,0.16799481213092804,0.38224804401397705,0.01893836073577404,0.0011631313245743513,0.40797907114028931,-0.28217697143554688,-0.016670962795615196,-0.064420945942401886,0.17786048352718353,-0.15900403261184692,0.23480807244777679,0.36773481965065002,0.22086551785469055,-0.66208440065383911,-0.68689292669296265,-0.077862493693828583,-0.29162114858627319,-0.0050452006980776787,0.30284002423286438,0.30950766801834106,-0.057513467967510223,0.13367451727390289,-1.0810914039611816,0.49098473787307739,0.049906790256500244,0.20479211211204529,-0.51407343149185181,0.036821678280830383,-0.23685531318187714,-0.23151959478855133,-0.6892051100730896,-0.20074044167995453,0.36649379134178162,-0.094110392034053802,0.32392281293869019,0.37471196055412292,-0.50379705429077148,-0.40870031714439392,-0.016131294891238213,-0.3434186577796936,-0.14410686492919922,-0.92226904630661011,0.70758295059204102,-0.55012804269790649,-0.0015189021360129118,-0.2273479700088501,-0.71112579107284546,-0.79477649927139282,-0.5208020806312561,-0.25939902663230896,-0.52366024255752563,-0.072197742760181427, -0.33502906560897827,-0.58062952756881714,-0.6167142391204834,0.5627892017364502,-0.30341854691505432,-0.018906658515334129,-0.20847943425178528,0.19708137214183807,0.039065111428499222,0.43995228409767151,0.12794336676597595,-0.26282164454460144,0.083665929734706879,-0.12539555132389069,-0.49110719561576843,0.12021941691637039,0.056056007742881775,-0.10384706407785416,-0.17432509362697601,0.12022357434034348,0.18667393922805786,-0.038387686014175415,-0.23943623900413513,0.080925717949867249,0.016910811886191368,-1.4089460372924805,-0.7482750415802002,0.026307985186576843,-0.46980422735214233,0.25055944919586182,0.22332115471363068,0.01637660339474678,-0.30670067667961121,-0.1660250723361969,-0.98360854387283325,0.11529787629842758,0.23338088393211365,-0.17826938629150391,-0.33107799291610718,0.46987947821617126,-0.093615464866161346,-0.19334873557090759,-0.52217143774032593,-0.038186740130186081,-0.18591466546058655,-0.19460222125053406,-0.30198675394058228,0.24963642656803131,-0.73556053638458252,-0.22370857000350952,-0.32115644216537476,-0.52828651666641235,-0.73024004697799683,-0.69567024707794189,0.29993560910224915,0.23797506093978882,-0.41235366463661194,-0.52316451072692871,0.21030451357364655,0.05061350017786026,-0.2621782124042511,-0.11175895482301712,-1.1464132070541382,-0.16035617887973785, -0.43899855017662048,-1.0982071161270142,-1.2096431255340576,-0.33744925260543823,0.13403148949146271,0.077554903924465179,-0.073260262608528137,0.75613737106323242,-0.056025255471467972,-0.12329357862472534,-0.14425911009311676,-0.18599456548690796,-0.11471312493085861,0.59561479091644287,0.14861193299293518,-0.17790378630161285,0.1913347989320755,-0.96945220232009888,0.090509392321109772,0.14391055703163147,-0.17336447536945343,-0.68445950746536255,-0.028142213821411133,0.19931554794311523,-0.29879206418991089,-1.8712964057922363,-0.77201038599014282,0.18802148103713989,-0.74795037508010864,0.13372139632701874,-0.11271847039461136,0.17490525543689728,-0.35690778493881226,0.059288855642080307,-1.6085485219955444,0.45338991284370422,0.32408428192138672,0.10577451437711716,0.15348587930202484,0.095927342772483826,0.079350009560585022,-0.98453402519226074,-0.37899738550186157,-0.56899547576904297,-1.2106782197952271,-0.32114475965499878,-0.070952542126178741,0.2772870659828186,0.0043219039216637611,-0.10195504128932953,-0.2497820258140564,-0.43734169006347656,-0.26285403966903687,-0.9036257266998291,0.49216875433921814,-0.61882799863815308,-0.57509720325469971,-0.22289338707923889,0.36040100455284119,-0.42482635378837585,0.24935939908027649,-0.30887481570243835,-1.8754279613494873,-0.035210635513067245, 
  /* [4][0][][] */ -0.63133424520492554,-0.55293524265289307,-0.1414172500371933,-0.34297508001327515,0.074991814792156219,0.19628898799419403,0.194745734333992,0.23525305092334747,0.29140746593475342,-0.4232519268989563,0.071312934160232544,-0.28228104114532471,0.1378609836101532,0.14149788022041321,0.25417536497116089,0.1716582179069519,0.06258556991815567,-0.27933719754219055,-0.37189048528671265,0.42262712121009827,-0.0042110998183488846,-0.68328392505645752,-0.46483302116394043,0.016228564083576202,-0.024179788306355476,-0.11136004328727722,-0.51514166593551636,-0.013459574431180954,-1.0044201612472534,0.53766006231307983,0.10849327594041824,0.13411754369735718,0.096676938235759735,0.030503677204251289,-0.34332200884819031,0.76800805330276489,0.29693159461021423,0.21249714493751526,0.064230002462863922,0.25546380877494812,-0.19169065356254578,0.19640557467937469,-0.14529088139533997,-0.4826730489730835,-0.24778346717357635,-0.26724144816398621,0.19098047912120819,0.29642891883850098,-0.22054925560951233,-0.32182958722114563,0.27074611186981201,0.041655708104372025,0.05269492045044899,-0.58690559864044189,-0.12057013809680939,-0.47214800119400024,0.5097312331199646,-0.37903311848640442,0.37331229448318481,-0.13956785202026367,0.013632629066705704,-0.39346045255661011,-0.42271792888641357,0.03950364887714386, -0.34131845831871033,-0.52221322059631348,-0.32135593891143799,-1.0343625545501709,0.71719831228256226,0.094267815351486206,-0.39880508184432983,-0.024814354255795479,0.06544792652130127,-0.039618875831365585,-0.54855352640151978,-0.70233136415481567,-0.45576369762420654,0.02559027262032032,-0.00097975460812449455,0.15740785002708435,0.0080234762281179428,-0.46282994747161865,-0.01357978954911232,-0.32964369654655457,0.11561541259288788,-0.14679710566997528,-0.10091513395309448,0.54756706953048706,-0.0088842101395130157,-0.2601093053817749,0.2311333566904068,-0.066890649497509003,-0.06847207248210907,0.038859710097312927,0.14710810780525208,-0.28161114454269409,-0.19425514340400696,0.10959003120660782,-0.17462363839149475,0.19951927661895752,0.16278806328773499,0.12943200767040253,0.019776994362473488,-0.047007463872432709,-0.50739723443984985,-0.4044681191444397,0.17030352354049683,-0.69501632452011108,0.17316041886806488,-0.24864721298217773,0.24833908677101135,-0.36122423410415649,-0.43359744548797607,-0.23543860018253326,0.13867305219173431,-0.0072542447596788406,-0.50186175107955933,-0.51502203941345215,-0.44330155849456787,-0.52891999483108521,0.059322793036699295,-0.095034748315811157,0.47464168071746826,0.01329430565237999,0.30575558543205261,0.081398740410804749,-0.35242262482643127,-0.016877379268407822, -0.73323631286621094,-0.75685954093933105,-1.133779764175415,-0.71429002285003662,0.34558036923408508,-0.11380849778652191,0.1971452534198761,0.19289723038673401,-0.078598454594612122,0.15884552896022797,0.061791658401489258,-0.30511441826820374,-0.00982655119150877,0.11584315448999405,0.15210095047950745,-0.61862289905548096,0.00283426558598876,-0.083849377930164337,0.071672104299068451,-0.14920683205127716,0.36667251586914062,-0.23734959959983826,-1.1757748126983643,0.16871434450149536,0.1510779857635498,-0.27727317810058594,-1.7336138486862183,-0.93902856111526489,-0.62106281518936157,0.0042846640571951866,-0.04042159765958786,-0.011755699291825294,0.10495071113109589,0.11974738538265228,-0.78794968128204346,0.1671527624130249,0.11164958029985428,0.25496092438697815,-0.10982469469308853,-0.17655324935913086,-0.25360977649688721,-0.34947612881660461,-1.1280629634857178,-1.0649421215057373,-0.077555269002914429,0.34473752975463867,0.32381471991539001,-0.19769710302352905,-0.61684715747833252,0.21510201692581177,0.22950470447540283,-0.60511380434036255,-0.64815217256546021,-1.0897611379623413,0.025723926723003387,-0.068484924733638763,-0.066766634583473206,-0.98217600584030151,-1.0921444892883301,-0.53814786672592163,-0.65049529075622559,-0.60648679733276367,-0.9648287296295166,-0.029533335939049721, 
  /* [5][0][][] */ -0.60387289524078369,0.0089122336357831955,0.072432436048984528,0.029959209263324738,0.079554833471775055,-0.0036016630474478006,-0.31716358661651611,-0.74546164274215698,-0.20986327528953552,-0.24390318989753723,-0.11243864148855209,0.58473974466323853,-0.32962584495544434,-0.010674179531633854,-0.6879957914352417,-1.2514215707778931,-0.75909632444381714,0.15207009017467499,0.29243302345275879,-0.29242590069770813,-0.41836094856262207,0.27990704774856567,-1.1789041757583618,-0.16324199736118317,-0.0037585855461657047,0.20560309290885925,-0.1682305783033371,-0.087368018925189972,0.090034820139408112,0.33553695678710938,0.12534148991107941,-0.4251895546913147,0.016303477808833122,-1.0564659833908081,0.079477094113826752,-1.108507513999939,-0.9543832540512085,-1.4378105401992798,-0.28736433386802673,-0.023336423560976982,-0.10372739285230637,-0.18791055679321289,-1.013808012008667,0.072534799575805664,0.01307285949587822,-0.23180525004863739,-1.0576748847961426,-1.1974351406097412,-0.02105332538485527,-0.20429544150829315,-0.48476126790046692,-0.045615173876285553,-0.51684921979904175,0.13278099894523621,-0.4384462833404541,0.31807255744934082,-0.31219306588172913,0.10174984484910965,-1.246812105178833,-1.0606613159179688,-0.33169937133789062,0.18392525613307953,0.28113079071044922,-0.99757212400436401, -0.4140053391456604,-0.46170848608016968,-0.017958661541342735,-0.17131060361862183,-0.12379243224859238,0.064524397253990173,0.53177666664123535,-0.50689810514450073,-0.090348817408084869,-0.20150855183601379,-0.30475172400474548,-0.076950587332248688,-0.11506933718919754,-0.24132521450519562,-0.2689213752746582,-0.1402648389339447,0.075250178575515747,-0.10944918543100357,0.24226836860179901,0.17442566156387329,0.17117410898208618,-0.15925022959709167,-0.41174399852752686,0.22562232613563538,-0.286967933177948,-0.40190970897674561,-0.24945935606956482,0.11041031777858734,0.2726002037525177,0.69029062986373901,-0.18804472684860229,-0.014204507693648338,0.039791975170373917,-0.21228814125061035,-0.39212065935134888,0.083932019770145416,-0.23472358286380768,0.013873792253434658,0.13572385907173157,0.037234239280223846,0.063334368169307709,-0.022593133151531219,-0.44073048233985901,0.14369857311248779,-0.43774548172950745,0.075329028069972992,0.17543953657150269,-0.28967368602752686,0.073055140674114227,0.14417649805545807,-0.86692720651626587,-0.020344458520412445,0.35489916801452637,-0.49249598383903503,0.0016434227582067251,0.39765915274620056,-0.34531006217002869,0.24432040750980377,0.16272714734077454,-0.55737555027008057,-0.43136245012283325,-0.120184026658535,-0.17659357190132141,0.19728848338127136, -0.53663867712020874,-0.27724602818489075,-0.44752633571624756,-0.72915655374526978,0.084137417376041412,-0.10368956625461578,0.34414273500442505,-0.069757826626300812,0.36417463421821594,-0.13331063091754913,0.19284765422344208,0.63922727108001709,0.030465841293334961,0.23544192314147949,-0.85107403993606567,-0.6723514199256897,0.098281577229499817,-0.58301305770874023,0.12653824687004089,0.30333083868026733,0.35611265897750854,0.60101383924484253,0.16844001412391663,0.15278156101703644,0.11435271799564362,-0.37262332439422607,-0.94650727510452271,0.092275045812129974,-0.087606698274612427,0.85550260543823242,0.10267920792102814,0.47853252291679382,0.26465493440628052,-0.49300426244735718,-0.47544229030609131,-0.21572567522525787,-0.41868799924850464,0.13788360357284546,-0.27644708752632141,-0.19224230945110321,-0.27697101235389709,-0.22874177992343903,-1.0574748516082764,0.49482399225234985,0.20344890654087067,0.12980860471725464,-0.56919002532958984,-0.80062520503997803,-0.77705460786819458,-0.67630964517593384,-0.60376936197280884,-0.023508245125412941,0.096758678555488586,-0.43935555219650269,-0.52996879816055298,-1.0317785739898682,-0.28986960649490356,0.45093435049057007,0.89584219455718994,-0.80310738086700439,0.42353355884552002,0.50318342447280884,-0.20072145760059357,0.62009400129318237, 
