/* Generated by Edge Impulse
 *
 * Permission is hereby granted, free of charge, to any person obtaining a copy
 * of this software and associated documentation files (the "Software"), to deal
 * in the Software without restriction, including without limitation the rights
 * to use, copy, modify, merge, publish, distribute, sublicense, and/or sell
 * copies of the Software, and to permit persons to whom the Software is
 * furnished to do so, subject to the following conditions:
 *
 * The above copyright notice and this permission notice shall be included in
 * all copies or substantial portions of the Software.
 *
 * THE SOFTWARE IS PROVIDED "AS IS", WITHOUT WARRANTY OF ANY KIND, EXPRESS OR
 * IMPLIED, INCLUDING BUT NOT LIMITED TO THE WARRANTIES OF MERCHANTABILITY,
 * FITNESS FOR A PARTICULAR PURPOSE AND NONINFRINGEMENT. IN NO EVENT SHALL THE
 * AUTHORS OR COPYRIGHT HOLDERS BE LIABLE FOR ANY CLAIM, DAMAGES OR OTHER
 * LIABILITY, WHETHER IN AN ACTION OF CONTRACT, TORT OR OTHERWISE, ARISING FROM,
 * OUT OF OR IN CONNECTION WITH THE SOFTWARE OR THE USE OR OTHER DEALINGS IN THE
 * SOFTWARE.
 */
// Generated on: 22.11.2022 11:50:04

#include <stdio.h>
#include <stdlib.h>
#include "edge-impulse-sdk/tensorflow/lite/c/builtin_op_data.h"
#include "edge-impulse-sdk/tensorflow/lite/c/common.h"
#include "edge-impulse-sdk/tensorflow/lite/micro/micro_mutable_op_resolver.h"
#include "edge-impulse-sdk/porting/ei_classifier_porting.h"

#if EI_CLASSIFIER_PRINT_STATE
#if defined(__cplusplus) && EI_C_LINKAGE == 1
extern "C" {
    extern void ei_printf(const char *format, ...);
}
#else
extern void ei_printf(const char *format, ...);
#endif
#endif

#if defined __GNUC__
#define ALIGN(X) __attribute__((aligned(X)))
#elif defined _MSC_VER
#define ALIGN(X) __declspec(align(X))
#elif defined __TASKING__
#define ALIGN(X) __align(X)
#endif

#ifndef EI_MAX_SCRATCH_BUFFER_COUNT
#define EI_MAX_SCRATCH_BUFFER_COUNT 4
#endif // EI_MAX_SCRATCH_BUFFER_COUNT

#ifndef EI_MAX_OVERFLOW_BUFFER_COUNT
#define EI_MAX_OVERFLOW_BUFFER_COUNT 10
#endif // EI_MAX_OVERFLOW_BUFFER_COUNT

using namespace tflite;
using namespace tflite::ops;
using namespace tflite::ops::micro;

namespace {

constexpr int kTensorArenaSize = 13952;

#if defined(EI_CLASSIFIER_ALLOCATION_STATIC)
uint8_t tensor_arena[kTensorArenaSize] ALIGN(16);
#elif defined(EI_CLASSIFIER_ALLOCATION_STATIC_HIMAX)
#pragma Bss(".tensor_arena")
uint8_t tensor_arena[kTensorArenaSize] ALIGN(16);
#pragma Bss()
#elif defined(EI_CLASSIFIER_ALLOCATION_STATIC_HIMAX_GNU)
uint8_t tensor_arena[kTensorArenaSize] ALIGN(16) __attribute__((section(".tensor_arena")));
#else
#define EI_CLASSIFIER_ALLOCATION_HEAP 1
uint8_t* tensor_arena = NULL;
#endif

static uint8_t* tensor_boundary;
static uint8_t* current_location;

template <int SZ, class T> struct TfArray {
  int sz; T elem[SZ];
};
enum used_operators_e {
  OP_RESHAPE, OP_CONV_2D, OP_MAX_POOL_2D, OP_FULLY_CONNECTED, OP_SOFTMAX,  OP_LAST
};
struct TensorInfo_t { // subset of TfLiteTensor used for initialization from constant memory
  TfLiteAllocationType allocation_type;
  TfLiteType type;
  void* data;
  TfLiteIntArray* dims;
  size_t bytes;
};
struct NodeInfo_t { // subset of TfLiteNode used for initialization from constant memory
  struct TfLiteIntArray* inputs;
  struct TfLiteIntArray* outputs;
  void* builtin_data;
  used_operators_e used_op_index;
};

TfLiteContext ctx{};
TfLiteTensor tflTensors[31];
TfLiteEvalTensor tflEvalTensors[31];
TfLiteRegistration registrations[OP_LAST];
TfLiteNode tflNodes[15];

const TfArray<2, int> tensor_dimension0 = { 2, { 1,650 } };
const ALIGN(16) float tensor_data1[12] = { 0.088299617171287537, -0.57965570688247681, 0.25046107172966003, -0.018353532999753952, -0.15395601093769073, 0.86004489660263062, 0.16311685740947723, -0.65871769189834595, -0.15872344374656677, 0.65218383073806763, 0.58632445335388184, -0.84959030151367188, };
const TfArray<1, int> tensor_dimension1 = { 1, { 12 } };
const ALIGN(16) float tensor_data2[16] = { 1.9803543090820312, 0.036617282778024673, 0.86846631765365601, 0.01052852813154459, -0.42544430494308472, -0.57957184314727783, 0.19644288718700409, 0.77380907535552979, 0.41606819629669189, 0.067219279706478119, 0.76354247331619263, 0.10037840902805328, -0.20076587796211243, -0.10389404743909836, 0.5933799147605896, -0.30956578254699707, };
const TfArray<1, int> tensor_dimension2 = { 1, { 16 } };
const ALIGN(16) float tensor_data3[64] = { 1.2324424982070923, -0.93143564462661743, 0.3357679545879364, -0.10821377485990524, -0.6575627326965332, -0.3731313943862915, -0.81952112913131714, -1.0625472068786621, -2.2906777858734131, -1.7042258977890015, 0.055354475975036621, -0.72577393054962158, 0.16055330634117126, 0.19715443253517151, -0.65644663572311401, -1.9304190874099731, -1.2351701259613037, -0.018695497885346413, -0.51332885026931763, 0.33197313547134399, -2.4907705783843994, -1.1323345899581909, -2.3007996082305908, 0.071805939078330994, 0.74224835634231567, -1.0318335294723511, 0.79292005300521851, -0.027190124616026878, -2.075314998626709, -0.13102330267429352, -2.2620487213134766, -0.24744045734405518, -1.2902326583862305, -0.2413468211889267, -1.5514621734619141, -0.56881994009017944, -3.8409061431884766, -0.27645859122276306, -1.0784537792205811, -2.4993307590484619, -5.1390562057495117, -0.89603978395462036, -0.98024028539657593, 0.58064758777618408, -1.480158805847168, -0.15145809948444366, -2.7508563995361328, -0.75208789110183716, -0.49979192018508911, -1.6070351600646973, 0.79876041412353516, -0.051312990486621857, -1.8378080129623413, -1.3525106906890869, 0.18512111902236938, -0.26292049884796143, -0.78652948141098022, -0.029575061053037643, -0.62439489364624023, 0.19375531375408173, -1.017240047454834, -2.3084211349487305, -2.9534316062927246, -1.780522346496582, };
const TfArray<1, int> tensor_dimension3 = { 1, { 64 } };
const ALIGN(16) float tensor_data4[8] = { -1.3287397623062134, -0.87466663122177124, -1.1952981948852539, -0.7166818380355835, -0.57863712310791016, -1.028680682182312, -0.97178339958190918, -0.4053555428981781, };
const TfArray<1, int> tensor_dimension4 = { 1, { 8 } };
const ALIGN(8) int32_t tensor_data5[2] = { -1, 112, };
const TfArray<1, int> tensor_dimension5 = { 1, { 2 } };
const ALIGN(16) float tensor_data6[12*112] = { 
  0.0095645356923341751, -0.71718430519104004, -0.059864524751901627, -0.59888911247253418, -0.46811404824256897, -0.060038667172193527, 0.15816457569599152, -0.28375571966171265, -0.34820717573165894, -0.05459311231970787, 0.079914867877960205, 0.019783869385719299, 0.12381987273693085, -0.092458955943584442, 0.0067355628125369549, 0.20475314557552338, -0.3551357090473175, -0.56874722242355347, -0.29222217202186584, -0.38736215233802795, -0.36721974611282349, -0.11675465852022171, 0.20140208303928375, -0.37325495481491089, -0.36898684501647949, -0.063669279217720032, 0.20109470188617706, -0.015563013963401318, 0.099967099726200104, 0.047916349023580551, -0.063738636672496796, 0.16425126791000366, -0.38165852427482605, -0.51410824060440063, -0.15843072533607483, -0.67153578996658325, -0.26407390832901001, -0.38485026359558105, 0.17399023473262787, -0.51142823696136475, -0.54299449920654297, -0.27370241284370422, 0.12056963890790939, 0.046957027167081833, 0.10881651192903519, -0.039171162992715836, -0.11477018147706985, 0.086372785270214081, -0.36426746845245361, -0.71540004014968872, -0.17063626646995544, -0.65289068222045898, -0.077540390193462372, -0.39064809679985046, 0.17093683779239655, -0.38423305749893188, -0.39600828289985657, -0.21429511904716492, 0.18475338816642761, -0.058490864932537079, 0.2223738431930542, -0.023953404277563095, -0.39561685919761658, 0.14102771878242493, -0.48136740922927856, -0.63987040519714355, -0.1407352089881897, -0.40755441784858704, -0.12903845310211182, -0.42784991860389709, 0.177581787109375, -0.30086410045623779, -0.27438074350357056, -0.19898848235607147, 0.22779412567615509, -0.11402120441198349, 0.20254477858543396, -0.044979400932788849, -0.46382641792297363, 0.12218634784221649, -0.2147940993309021, -0.38398954272270203, -0.18085351586341858, -0.48891538381576538, -0.056811090558767319, -0.25954249501228333, 0.2519744336605072, -0.13224916160106659, -0.34775814414024353, 0.020757481455802917, 0.056802030652761459, -0.1381019651889801, 0.29284757375717163, -0.15598772466182709, -0.28853699564933777, 0.071073293685913086, -0.2308247983455658, -0.25506633520126343, -0.056528348475694656, -0.75380623340606689, 0.038427062332630157, -0.35288974642753601, 0.13744290173053741, -0.071867972612380981, -0.11324239522218704, 0.080046810209751129, 0.10405752062797546, -0.2233947217464447, 0.025639375671744347, -0.34690085053443909, -0.17394496500492096, -0.054809272289276123, 
  -0.076152727007865906, -0.37385293841362, -0.22205044329166412, -0.51292431354522705, -0.56441247463226318, -0.34061682224273682, -0.011895127594470978, -0.54698091745376587, -0.016748987138271332, -0.53724056482315063, 0.11581438779830933, 0.25652500987052917, -0.54324173927307129, -0.10001544654369354, 0.18240821361541748, 0.31489807367324829, -0.20638230443000793, -0.26780626177787781, -0.43002033233642578, -0.41967028379440308, -0.24243699014186859, -0.34335896372795105, 0.18207645416259766, -0.59309130907058716, -0.042298540472984314, -0.20321545004844666, 0.1980089545249939, 0.073977425694465637, -0.60705214738845825, -0.040559541434049606, 0.065660029649734497, 0.24094776809215546, -0.39562502503395081, -0.12421882152557373, -0.50285118818283081, -0.56196677684783936, -0.46077078580856323, -0.33677247166633606, 0.18847428262233734, -0.6218528151512146, -0.096256330609321594, -0.27882298827171326, 0.26755499839782715, 0.20184928178787231, -0.95312011241912842, -0.059342198073863983, 0.10097331553697586, 0.18116830289363861, -0.24902220070362091, -0.20420980453491211, -0.29542860388755798, -0.446820467710495, -0.705028235912323, -0.17057593166828156, 0.27678492665290833, -0.73956066370010376, 0.010690228082239628, -0.23158620297908783, 0.23878547549247742, 0.11187771707773209, -0.93062347173690796, -0.094608500599861145, 0.17166291177272797, 0.050831805914640427, -0.018728751689195633, -0.10710744559764862, -0.28651615977287292, -0.37464430928230286, -0.49758535623550415, -0.23265178501605988, 0.10685363411903381, -0.72156745195388794, -0.068198330700397491, -0.23442234098911285, 0.26634588837623596, 0.09950362890958786, -0.67019736766815186, -0.18522687256336212, 0.16419839859008789, 0.17029154300689697, -0.10941208153963089, -0.025838267058134079, -0.47294119000434875, -0.54266828298568726, -0.22481052577495575, -0.23885737359523773, 0.028522150591015816, -0.61579883098602295, -0.082103416323661804, -0.043742075562477112, 0.24347968399524689, 0.0034885972272604704, -0.54250741004943848, -0.13304220139980316, 0.091794170439243317, 0.038248319178819656, -0.14420622587203979, -0.099880866706371307, -0.35950747132301331, -0.9861333966255188, -0.31046673655509949, 0.011273830197751522, 0.12092267721891403, -0.47825810313224792, 0.079410552978515625, -0.11571954190731049, 0.065698496997356415, 0.056315664201974869, -0.73853826522827148, -0.033442750573158264, 0.098045080900192261, 0.051682028919458389, 
  -0.13979442417621613, -0.51258951425552368, -0.41611641645431519, -0.74416834115982056, -0.13336591422557831, -0.086534582078456879, -0.11353602260351181, -0.24289916455745697, -0.17803345620632172, 0.20107688009738922, -0.45496508479118347, -0.67987561225891113, 0.089630626142024994, -0.13779479265213013, 0.17744286358356476, 0.33613234758377075, -0.15839262306690216, -0.034756641834974289, -0.56834423542022705, -0.44757711887359619, -0.22701124846935272, -0.12386920303106308, -0.17020635306835175, -0.42814609408378601, -0.093447990715503693, 0.35425147414207458, -0.62600398063659668, -0.95025932788848877, 0.11912534385919571, -0.08143489807844162, 0.12828542292118073, 0.20066662132740021, -0.60676765441894531, 0.038071546703577042, -0.27010068297386169, -0.36940363049507141, -0.29018223285675049, -0.20050525665283203, -0.35378527641296387, -0.55000841617584229, -0.16194833815097809, 0.31273341178894043, -0.51971828937530518, -0.34401276707649231, 0.14404265582561493, -0.2279295027256012, 0.14588660001754761, 0.27799099683761597, -0.36786061525344849, -0.014264874160289764, -0.33993574976921082, -0.32233801484107971, -0.1884588748216629, -0.49935102462768555, -0.11035695672035217, -0.82464712858200073, 0.13724179565906525, 0.20174966752529144, -0.64593088626861572, -0.47933140397071838, 0.208079993724823, -0.048654548823833466, 0.068043097853660583, 0.1663893461227417, -0.46691682934761047, -0.016231495887041092, -0.59330880641937256, -0.37421202659606934, -0.18843977153301239, -0.31641983985900879, -0.033971268683671951, -0.76847022771835327, 0.075289063155651093, 0.20301903784275055, -0.36371684074401855, -0.45350340008735657, 0.14557088911533356, -0.084877811372280121, 0.079788126051425934, -0.016945311799645424, -0.30345600843429565, 0.025815736502408981, -0.42109584808349609, -0.35291734337806702, -0.088491268455982208, -0.32648304104804993, -0.077382199466228485, -0.34632903337478638, 0.048242762684822083, 0.19434644281864166, -0.34501555562019348, -0.4396432638168335, 0.10758394747972488, -0.19471617043018341, -0.13172134757041931, -0.064672261476516724, -0.31475687026977539, -0.31722822785377502, -0.09452056884765625, -0.68957281112670898, 0.004560752771794796, -0.10509578883647919, -0.159749835729599, -0.44933858513832092, -0.032000049948692322, 0.18115010857582092, -0.010535981506109238, -0.6439744234085083, -0.18509136140346527, -0.25972786545753479, -0.30705541372299194, 0.19306710362434387, 
  -0.1889776885509491, -0.36637166142463684, -0.096476361155509949, -0.23543813824653625, -0.32825744152069092, -0.42872142791748047, 0.21424321830272675, 0.014468573033809662, -0.36907568573951721, -0.13020530343055725, 0.070135496556758881, -0.036483816802501678, 0.12369883060455322, -0.32642686367034912, -0.21850211918354034, 0.019894596189260483, -0.27157476544380188, -0.19675165414810181, -0.1968923956155777, -0.15217640995979309, 0.02863730862736702, -0.27662068605422974, 0.21989193558692932, -0.11779345571994781, -0.30131939053535461, -0.23651900887489319, 0.16160580515861511, 0.00053716200636699796, 0.15082842111587524, -0.44373062252998352, -0.19175435602664948, -0.14142698049545288, -0.37338703870773315, -0.34189954400062561, -0.26412186026573181, -0.20650948584079742, -0.20584815740585327, -0.32727113366127014, 0.16408245265483856, -0.055376123636960983, -0.45884284377098083, -0.29842743277549744, 0.093138217926025391, 0.12286266684532166, 0.1397968977689743, -0.34985792636871338, -0.24678000807762146, -0.10771870613098145, -0.28979158401489258, -0.46857178211212158, -0.079346463084220886, -0.23249028623104095, -0.12503783404827118, -0.24895301461219788, 0.15725891292095184, -0.03991052508354187, -0.28240862488746643, -0.12617598474025726, -0.016436321660876274, 0.04697728157043457, 0.24377179145812988, -0.24853648245334625, -0.37539947032928467, 0.001611097133718431, -0.44256395101547241, -0.5725371241569519, -0.17722070217132568, -0.053336825221776962, 0.040138673037290573, -0.41077432036399841, 0.28580430150032043, -0.37685385346412659, -0.33177661895751953, -0.28833159804344177, -0.009327990934252739, -0.20130607485771179, 0.21122364699840546, -0.10835385322570801, -0.37611913681030273, -0.10640399903059006, -0.23891425132751465, -0.47254568338394165, -0.13846321403980255, -0.29767102003097534, -0.087006911635398865, -0.34668365120887756, 0.16321861743927002, -0.020356800407171249, -0.30447095632553101, -0.038754425942897797, 0.10272838175296783, -0.10124480724334717, 0.2265227735042572, -0.29938089847564697, -0.42236658930778503, -0.080133348703384399, -0.22903166711330414, -0.25416377186775208, -0.10447146743535995, -0.78089845180511475, -0.014293056912720203, -0.16687542200088501, 0.016717586666345596, -0.2388431578874588, -0.22009532153606415, 0.062067419290542603, 0.025087803602218628, -0.022794429212808609, 0.11952568590641022, -0.24974150955677032, -0.044539142400026321, -0.1742728054523468, 
  -0.35344454646110535, -0.17145940661430359, -0.23187309503555298, -0.26872873306274414, -0.25172948837280273, -0.33062964677810669, 0.11479450017213821, -0.14408859610557556, 0.0042752153240144253, -0.072553947567939758, 0.19079123437404633, 0.10551392287015915, -0.67182022333145142, -0.29487389326095581, -0.05487373098731041, -0.10844352841377258, -0.35088512301445007, -0.11780273169279099, -0.32986569404602051, -0.048933159559965134, -0.39254683256149292, -0.23460535705089569, 0.19846780598163605, -0.34436154365539551, -0.1200784370303154, -0.1852097362279892, 0.12200053036212921, 0.12734030187129974, -0.42376923561096191, -0.45922502875328064, -0.12470167875289917, -0.27696850895881653, -0.1305900514125824, -0.067993655800819397, -0.42993411421775818, -0.12051275372505188, -0.35808107256889343, -0.24238482117652893, 0.18465875089168549, -0.31201517581939697, -0.12627987563610077, -0.15263687074184418, 0.18727342784404755, 0.2620527446269989, -0.76201766729354858, -0.4689711332321167, 0.058098301291465759, -0.32274353504180908, 0.070687554776668549, -0.20529022812843323, -0.24294582009315491, -0.17900878190994263, -0.74119764566421509, -0.23851758241653442, 0.16822227835655212, -0.46945476531982422, -0.012111271731555462, -0.26205524802207947, 0.12684871256351471, 0.18963715434074402, -0.782978355884552, -0.35629478096961975, 0.20554162561893463, -0.28513854742050171, -0.17353647947311401, -0.11113566905260086, -0.25950756669044495, -0.1001514345407486, -0.46920296549797058, -0.14646393060684204, 0.093642473220825195, -0.56642287969589233, 0.039952807128429413, -0.14806900918483734, 0.17464812099933624, 0.10876285284757614, -0.66362547874450684, -0.4781574010848999, 0.11498501151800156, -0.52276510000228882, -0.045794121921062469, 0.064038887619972229, -0.44451883435249329, -0.25827014446258545, -0.3598695695400238, -0.3548223078250885, -0.010748983360826969, -0.48814278841018677, 0.026816511526703835, -0.022846871986985207, 0.11826515942811966, 0.055301383137702942, -0.54639440774917603, -0.29139649868011475, 0.12826083600521088, -0.43840479850769043, -0.19321750104427338, -0.076411321759223938, -0.3253171443939209, -0.50752121210098267, -0.45344534516334534, -0.2306658923625946, -0.18679210543632507, -0.42953586578369141, 0.054049666970968246, -0.17383766174316406, 0.10127096623182297, 0.022724797949194908, -0.67390650510787964, -0.25496447086334229, 0.06865449994802475, -0.333852618932724, 
  0.35103607177734375, -0.49937379360198975, 0.081795677542686462, -0.7779349684715271, -0.33497920632362366, -0.33768099546432495, -0.18941551446914673, -0.10456295311450958, 0.031166853383183479, -0.10754416137933731, -0.075287945568561554, -0.31382647156715393, -0.3360232412815094, -0.31840977072715759, 0.056238807737827301, -0.1921461820602417, 0.42573642730712891, -0.28071817755699158, -0.073014736175537109, -0.73705178499221802, -0.20365521311759949, -0.29424381256103516, -0.11770489066839218, -0.20475688576698303, -0.1767987459897995, -0.23463915288448334, -0.14516036212444305, -0.17142848670482635, -0.20017530024051666, -0.13356876373291016, 0.17440550029277802, -0.13950070738792419, 0.45574912428855896, -0.36532998085021973, -0.20118832588195801, -0.72910052537918091, -0.20152339339256287, -0.2335953414440155, -0.21609924733638763, -0.17071232199668884, -0.016610788181424141, -0.20095939934253693, -0.049932282418012619, -0.14052994549274445, -0.31534287333488464, -0.12218088656663895, 0.10499510914087296, -0.22002352774143219, 0.69378483295440674, -0.36705541610717773, -0.094248048961162567, -0.8219028115272522, -0.19358617067337036, -0.027663875371217728, -0.28471660614013672, -0.19677762687206268, -0.087920039892196655, -0.31586956977844238, -0.2276303619146347, -0.33733084797859192, -0.17439781129360199, -0.21630528569221497, 0.058020800352096558, -0.14981745183467865, 0.37777894735336304, -0.40417042374610901, -0.11755098402500153, -0.50635015964508057, -0.39349815249443054, 0.02801799401640892, -0.27328813076019287, -0.27969399094581604, 0.0018251381115987897, -0.39400374889373779, -0.034285157918930054, -0.20559963583946228, -0.19799467921257019, 0.047275818884372711, 0.11734775453805923, -0.0048411376774311066, 0.48122572898864746, -0.18641071021556854, -0.37102380394935608, -0.71370047330856323, -0.27036863565444946, -0.0070577720180153847, -0.32074165344238281, -0.2094731479883194, -0.13126595318317413, -0.27540978789329529, -0.18284080922603607, -0.29797214269638062, -0.14065270125865936, -0.22554035484790802, 0.028751078993082047, -0.18045789003372192, 0.16480088233947754, -0.34768813848495483, -0.26043933629989624, -0.96672451496124268, -0.27997863292694092, -0.13981886208057404, -0.29395762085914612, -0.25994908809661865, -0.17316558957099915, -0.48836663365364075, 0.070652887225151062, -0.24778205156326294, -0.36361989378929138, -0.36192905902862549, -0.069918781518936157, -0.064308151602745056, 
  -0.24215720593929291, -0.59819656610488892, 0.30464714765548706, -0.18105235695838928, 0.091868922114372253, -0.035816807299852371, -0.31260350346565247, -0.31282088160514832, -0.035306137055158615, -0.31551069021224976, -0.39757376909255981, -0.51863980293273926, -0.73615378141403198, -0.27728664875030518, -0.0095482701435685158, 0.30902236700057983, -0.48378422856330872, -0.48972144722938538, 0.31312268972396851, -0.12166503071784973, 0.21590167284011841, 0.063120909035205841, -0.58219891786575317, -0.459088534116745, 0.078843288123607635, -0.39622998237609863, -0.093787722289562225, -0.88644975423812866, -0.30187776684761047, -0.3501623272895813, -0.3200191855430603, 0.24233375489711761, -0.55681854486465454, -0.15083408355712891, 0.31642308831214905, -0.32048335671424866, 0.1760963648557663, -0.063123129308223724, -0.66591209173202515, -0.59022694826126099, -0.042468547821044922, -0.39760905504226685, -0.29659703373908997, -0.31822675466537476, -0.26836210489273071, -0.27628794312477112, -0.50077587366104126, 0.20024913549423218, -0.35402184724807739, -0.30687826871871948, 0.24091823399066925, -0.31526634097099304, 0.33226951956748962, -0.0058706845156848431, -0.23617267608642578, -0.52951055765151978, 0.18499535322189331, -0.46680420637130737, -0.41041961312294006, -0.58316093683242798, -0.068637147545814514, -0.21208740770816803, -0.51743650436401367, 0.13761222362518311, -0.087817154824733734, -0.2565453052520752, 0.34200701117515564, -0.21097549796104431, 0.29649630188941956, -0.12125822156667709, -0.21858203411102295, -1.0406494140625, 0.33896952867507935, -0.3897746205329895, -0.061562776565551758, -0.64666670560836792, -0.1020701602101326, -0.43035313487052917, -0.37760299444198608, 0.21889869868755341, -0.035902239382266998, -0.13516369462013245, -0.13351526856422424, -0.52871525287628174, 0.26344773173332214, -0.49480348825454712, -0.3079591691493988, -0.93105298280715942, 0.20667806267738342, -0.22308178246021271, -0.13056431710720062, -0.43411099910736084, -0.16302263736724854, -0.17300094664096832, -0.24982403218746185, 0.019148997962474823, -0.051206231117248535, -0.20612052083015442, -0.33283066749572754, -1.0083743333816528, 0.10741599649190903, -0.11086269468069077, -0.0467955581843853, -0.79628449678421021, -0.044409371912479401, 0.015948174521327019, -0.03065408393740654, -0.31941929459571838, -0.19284519553184509, -0.26921629905700684, -0.11773194372653961, -0.11927802860736847, 
  -0.34776818752288818, -0.81880450248718262, 0.007669894490391016, -0.40983530879020691, 0.18173880875110626, 0.264678955078125, -0.41115155816078186, -0.66305631399154663, -0.47726911306381226, -0.26612502336502075, -0.2999480664730072, 0.2315400242805481, 0.23324742913246155, 0.13063855469226837, -0.17784395813941956, 0.13792876899242401, -0.2123645693063736, -0.63879382610321045, 0.18742632865905762, -0.25335660576820374, -0.038488484919071198, 0.21903829276561737, -0.44420954585075378, -0.60657531023025513, -0.67306333780288696, 0.048917341977357864, -0.36373361945152283, 0.10981574654579163, 0.063806794583797455, 0.1736120879650116, -0.28445681929588318, 0.07624451071023941, -0.080790810286998749, -0.58453583717346191, 0.20504996180534363, -0.49194318056106567, 0.049437850713729858, 0.15592366456985474, -0.27358847856521606, -0.61255687475204468, -0.57938140630722046, 0.20531493425369263, -0.45645272731781006, 0.24418187141418457, 0.13693396747112274, 0.26765918731689453, -0.30154725909233093, -0.027801133692264557, -0.057155326008796692, -0.63700246810913086, 0.19794298708438873, -0.62661021947860718, 0.14492632448673248, 0.17554427683353424, -0.6310272216796875, -0.85516691207885742, -0.39114469289779663, 0.17912913858890533, -0.44582521915435791, 0.074633531272411346, 0.25821015238761902, 0.20684322714805603, -0.554546058177948, 0.016798967495560646, -0.31081819534301758, -0.65380358695983887, 0.19123038649559021, -0.63718920946121216, 0.072998858988285065, 0.29794588685035706, -0.42856523394584656, -1.2461730241775513, -0.69568467140197754, -0.025923000648617744, -0.73913693428039551, 0.21064953505992889, 0.13240651786327362, 0.12559713423252106, -0.55394661426544189, 0.22321332991123199, -0.16323539614677429, -0.42865195870399475, 0.24938352406024933, -0.35802489519119263, 0.24108459055423737, 0.27797827124595642, -0.48438546061515808, -0.61241775751113892, -0.64755696058273315, 0.14133526384830475, -0.72874915599822998, 0.085820816457271576, 0.15396611392498016, 0.20044966042041779, -0.39893218874931335, 0.28653395175933838, -0.13733640313148499, -0.46774828433990479, -0.15844196081161499, -0.83106374740600586, -0.058583319187164307, 0.14753001928329468, -0.18850216269493103, -0.68619471788406372, -0.23867107927799225, -0.40332511067390442, -0.26516550779342651, 0.17106775939464569, -0.021971479058265686, 0.05479634553194046, -0.15796801447868347, 0.16897304356098175, 
  0.060383908450603485, -0.085231862962245941, 0.25271126627922058, -1.0719194412231445, -0.0079979561269283295, -0.099613182246685028, 0.24118319153785706, -0.70281749963760376, 0.17112307250499725, -0.18193650245666504, -0.40999782085418701, -0.58400332927703857, -0.17835983633995056, 0.28523394465446472, -0.063931085169315338, -1.0894343852996826, -0.11987663805484772, -0.041105575859546661, 0.012264871038496494, -1.2547898292541504, -0.61638009548187256, -0.21810267865657806, 0.097383767366409302, -0.97801673412322998, 0.065601155161857605, -0.2437337338924408, -0.45428365468978882, -0.59318792819976807, -0.12226425856351852, 0.29771041870117188, 0.2243371456861496, -1.0621614456176758, -0.4321083128452301, -0.08673848956823349, 0.14034302532672882, -0.90463584661483765, -0.46118205785751343, -0.12833908200263977, 0.078120417892932892, -0.86656689643859863, 0.23900750279426575, -0.15762557089328766, -0.38007456064224243, -0.4315599799156189, -0.062976866960525513, 0.38842898607254028, 0.42596575617790222, -0.95245212316513062, 0.048663955181837082, -0.23261898756027222, 0.31041175127029419, -0.74892532825469971, -0.60463237762451172, -0.12572309374809265, -0.023220183327794075, -0.66304498910903931, 0.16654033958911896, -0.085456237196922302, -0.42638093233108521, -0.43745100498199463, 0.062372516840696335, 0.42088139057159424, 0.27322858572006226, -0.7861558198928833, -0.041810106486082077, -0.27825656533241272, 0.33998972177505493, -0.69352114200592041, -0.44721418619155884, -0.08187238872051239, -0.041223529726266861, -0.89928525686264038, 0.25029966235160828, 0.01090361550450325, -0.44640931487083435, -0.56315338611602783, 0.11410949379205704, 0.23456716537475586, 0.3388630747795105, -0.70941966772079468, -0.032163575291633606, -0.25468719005584717, 0.32073143124580383, -0.67426353693008423, -0.24259312450885773, -0.15096059441566467, 0.17138086259365082, -0.83684682846069336, 0.19835583865642548, -0.015355294570326805, -0.40556702017784119, -0.28100526332855225, 0.074269257485866547, 0.2323576956987381, 0.27156618237495422, -0.49100491404533386, -0.21849802136421204, -0.32665067911148071, -0.12677039206027985, -0.85080647468566895, -0.1519361138343811, -0.37639117240905762, 0.034865420311689377, -0.4995754063129425, -0.049739871174097061, 0.11733658611774445, -0.10312617570161819, -0.16717618703842163, -0.27063104510307312, -0.027529094368219376, -0.12384379655122757, -0.068198651075363159, 
  -0.084137521684169769, -0.67940902709960938, -0.57436245679855347, -0.79566842317581177, 0.19082885980606079, -0.18648326396942139, 0.3344283401966095, -0.42715412378311157, 0.20635990798473358, 0.09976176917552948, -0.091408975422382355, -0.36100116372108459, -0.40985578298568726, 0.31684255599975586, -0.55714380741119385, -0.59668815135955811, -0.27017486095428467, -0.41003879904747009, -0.65854275226593018, -0.99270635843276978, -0.15849816799163818, -0.1788109689950943, 0.29725450277328491, -0.46227437257766724, 0.25322812795639038, 0.36961573362350464, -0.044615466147661209, -0.43042254447937012, -0.43661025166511536, 0.27688893675804138, -0.49614372849464417, -0.3908514678478241, -0.3563559353351593, -0.3526473343372345, -0.59910058975219727, -0.90630519390106201, 0.044383931905031204, -0.52693808078765869, 0.23706954717636108, -0.53743445873260498, 0.25234901905059814, 0.26000037789344788, -0.075365707278251648, -0.54348492622375488, -0.54457587003707886, 0.25902417302131653, -0.34337145090103149, -0.50131303071975708, -0.19396230578422546, -0.52856659889221191, -0.35335668921470642, -0.57599890232086182, 0.12495119869709015, -0.36375799775123596, 0.15735639631748199, -0.92818754911422729, 0.350269615650177, 0.18261514604091644, -0.093265831470489502, -0.50198763608932495, -0.47659781575202942, 0.037879209965467453, -0.35143822431564331, -0.21923302114009857, -0.19421035051345825, -0.49037790298461914, -0.31327164173126221, -0.63638567924499512, 0.21423560380935669, -0.14109985530376434, 0.21511153876781464, -1.2692550420761108, 0.23825933039188385, 0.15147872269153595, -0.012526953592896461, -0.29695627093315125, -0.34205028414726257, 0.088432446122169495, -0.093717455863952637, -0.142952561378479, -0.15006126463413239, -0.5298774242401123, -0.35744062066078186, -0.75524204969406128, 0.27404120564460754, -0.1312544047832489, -0.0085752727463841438, -0.75308465957641602, 0.17747984826564789, 0.11553569138050079, -0.1952701061964035, -0.29706194996833801, -0.28416234254837036, 0.29451170563697815, -0.0955524742603302, -0.48190060257911682, -0.32343140244483948, -0.39191657304763794, -0.34676089882850647, -1.0520737171173096, 0.34287741780281067, 0.044785860925912857, 0.10792405903339386, -0.6498795747756958, 0.02654539979994297, 0.0095797441899776459, -0.14359641075134277, -0.48283526301383972, -0.35582679510116577, -0.23781579732894897, -0.20989251136779785, -0.21344329416751862, 
  0.14567117393016815, -0.32681214809417725, -0.20903781056404114, -0.91422450542449951, -0.40119278430938721, 0.14939488470554352, -1.0156828165054321, -0.01234549842774868, -0.64909404516220093, -0.27986490726470947, -0.69845694303512573, -1.1878509521484375, 0.053134877234697342, 0.14261189103126526, -0.12316860258579254, -0.25016963481903076, 0.24660080671310425, 0.10384319722652435, -0.26441404223442078, -0.49951925873756409, -0.18773253262042999, 0.20930555462837219, -0.58311671018600464, -0.094411730766296387, -0.50456219911575317, -0.067842654883861542, -0.5009920597076416, -0.27923989295959473, -0.10256312787532806, 0.25911885499954224, 0.037286132574081421, -0.1939445436000824, 0.14194945991039276, 0.0076562701724469662, -0.12063535302877426, -0.70565420389175415, -0.12810324132442474, 0.1709686815738678, -0.31561559438705444, -0.030478628352284431, -0.36041063070297241, -0.14776250720024109, -0.50916773080825806, -0.17908649146556854, -0.18252745270729065, 0.25916334986686707, 0.088050335645675659, -0.16309303045272827, 0.14661087095737457, -0.066202923655509949, -0.10673714429140091, -0.85207700729370117, -0.017295608296990395, 0.20781511068344116, -0.47962850332260132, -0.26207923889160156, -0.16847343742847443, -0.20039515197277069, -0.35389924049377441, -0.29908064007759094, -0.042562395334243774, 0.19105343520641327, -0.048796884715557098, -0.10244015604257584, 0.1423848420381546, -0.044660937041044235, -0.33263644576072693, -0.55252885818481445, 0.027691053226590157, 0.33768889307975769, -0.36114302277565002, -0.20542173087596893, -0.27794164419174194, -0.058615662157535553, -0.35498341917991638, -0.30223333835601807, -0.1449112594127655, -0.017805937677621841, -0.058211721479892731, -0.2250959724187851, 0.20876382291316986, -0.23555965721607208, -0.27517089247703552, -0.93714827299118042, -0.12729980051517487, 0.26231959462165833, -0.50290089845657349, -0.028090598061680794, -0.41630977392196655, -0.040798202157020569, -0.34249436855316162, -0.46837139129638672, -0.11638776957988739, -0.082107789814472198, -0.19785264134407043, -0.33117687702178955, -0.063258178532123566, -0.50335532426834106, -0.6121593713760376, -0.7659422755241394, -0.26032942533493042, 0.21036551892757416, -0.89366352558135986, 0.17750135064125061, -0.50311094522476196, -0.23730634152889252, -0.55196529626846313, -0.25300112366676331, -0.21798193454742432, 0.2208331972360611, 0.026207275688648224, -0.0087709575891494751, 
  -0.16890779137611389, -0.61566358804702759, 0.028039326891303062, -0.80495637655258179, 0.034509070217609406, 0.18527704477310181, -0.34796446561813354, -0.51013630628585815, 0.16172236204147339, 0.038628283888101578, 0.15996778011322021, -0.021941479295492172, -0.26699653267860413, -0.57646846771240234, 0.40571549534797668, -0.20787405967712402, -0.20894967019557953, -0.52169346809387207, 0.14173753559589386, -0.672016441822052, -0.10680368542671204, 0.079010434448719025, -0.33063808083534241, -0.44494220614433289, 0.13930641114711761, 0.17613688111305237, 0.20638445019721985, -0.24611294269561768, -0.42119017243385315, -0.37107321619987488, 0.35042294859886169, -0.31288251280784607, -0.19367270171642303, -0.43735751509666443, 0.25283408164978027, -0.87390142679214478, 0.0097461314871907234, 0.031016072258353233, -0.28569397330284119, -0.28671678900718689, 0.20678775012493134, 0.18121832609176636, 0.33073112368583679, -0.1980767697095871, -0.46826654672622681, -0.25136840343475342, 0.27566134929656982, -0.42248943448066711, -0.17381863296031952, -0.58226197957992554, 0.25964981317520142, -0.56577712297439575, -0.21725086867809296, -0.0028119883500039577, -0.23478040099143982, -0.4150618314743042, 0.20721660554409027, 0.19487148523330688, 0.23586773872375488, -0.32776710391044617, -0.56636005640029907, -0.1220443919301033, 0.20846055448055267, -0.36835986375808716, -0.39862275123596191, -0.48372927308082581, 0.30432385206222534, -0.33240681886672974, -0.26205822825431824, 0.048681315034627914, -0.26649394631385803, -0.50933003425598145, 0.054170891642570496, 0.22225534915924072, 0.33663484454154968, -0.30902713537216187, -0.32543602585792542, -0.20210427045822144, 0.35216003656387329, -0.33608376979827881, -0.1140109971165657, -0.42584240436553955, 0.30396300554275513, -0.39933550357818604, -0.044241983443498611, -0.22393512725830078, -0.5069853663444519, -0.45582708716392517, 0.082237847149372101, 0.14151500165462494, 0.2669176459312439, -0.38689887523651123, -0.27665713429450989, -0.60405337810516357, 0.21478419005870819, -0.46228966116905212, -0.20501595735549927, -0.39074349403381348, -0.069438017904758453, -0.73147088289260864, -0.34724512696266174, -0.17194046080112457, -0.51899474859237671, -0.38337132334709167, -0.021858278661966324, 0.16259703040122986, 0.23109763860702515, -0.16958411037921906, -0.20627464354038239, -0.38558986783027649, 0.066422447562217712, -0.2808830738067627, 
};
const TfArray<2, int> tensor_dimension6 = { 2, { 12,112 } };
const ALIGN(16) float tensor_data7[8*1*3*13] = { 
  /* [0][0][][] */ 0.24917329847812653,0.55085736513137817,-0.43972024321556091,-0.31702864170074463,0.068521358072757721,0.0095900110900402069,-0.044539690017700195,0.12810857594013214,0.062049612402915955,-0.14740674197673798,0.0546768419444561,-0.01260045263916254,0.093496903777122498, 0.23564010858535767,0.64935147762298584,-0.52802985906600952,-0.27081060409545898,0.1762753427028656,0.073056377470493317,-0.052473466843366623,-0.10427448898553848,0.073946051299571991,-0.065035514533519745,0.078216798603534698,0.02659066766500473,-0.0031133727170526981, 0.05729854479432106,0.60717064142227173,-0.46750891208648682,-0.46791329979896545,0.30963510274887085,0.15263102948665619,-0.12024682760238647,0.15185616910457611,0.045279201120138168,0.14725719392299652,0.017273619771003723,-0.15042911469936371,0.10344903916120529, 
  /* [1][0][][] */ 0.69762939214706421,0.071479693055152893,0.50445353984832764,-0.058532889932394028,-0.30005019903182983,0.10809577256441116,-0.2843453586101532,-0.023866172879934311,-0.051939945667982101,-0.010396686382591724,-0.008704090490937233,0.1161772683262825,0.014788515865802765, 0.61707419157028198,0.18705815076828003,0.49692180752754211,-0.019942827522754669,-0.39008897542953491,0.26012107729911804,-0.40148693323135376,-0.030982015654444695,-0.071671962738037109,-0.058536268770694733,0.072081498801708221,0.097769342362880707,0.016421707347035408, -0.17843425273895264,0.12390647828578949,0.30432417988777161,0.11958002299070358,-0.2447492927312851,0.014343349263072014,-0.10347112268209457,0.0048501323908567429,0.022623190656304359,-0.057439975440502167,-0.0001437990867998451,-0.0010835161665454507,0.012759938836097717, 
  /* [2][0][][] */ 0.36836805939674377,-0.23836609721183777,0.074486337602138519,-0.58166354894638062,-0.32573571801185608,0.15847299993038177,0.10882195830345154,0.022300228476524353,0.14478304982185364,-0.18916027247905731,-0.10848089307546616,0.021599574014544487,0.0098658734932541847, 0.1083962544798851,0.40721121430397034,-0.36915579438209534,-0.38721957802772522,-0.59884732961654663,0.2328648567199707,0.36312776803970337,0.156442791223526,-0.15699142217636108,-0.056924156844615936,-0.10485059767961502,-0.058346778154373169,0.16322074830532074, 0.7166399359703064,0.44467788934707642,-0.31217887997627258,-0.16363832354545593,-0.50820952653884888,0.19278727471828461,0.12388766556978226,0.15021951496601105,-0.14468848705291748,0.063574835658073425,-0.22025349736213684,0.057310238480567932,0.22495786845684052, 
  /* [3][0][][] */ 0.27257287502288818,0.82923078536987305,0.24801547825336456,0.23797787725925446,-0.15354026854038239,-0.081329979002475739,-0.14078901708126068,0.023992940783500671,-0.26036462187767029,-9.7826879937201738e-05,-0.15169665217399597,-0.071236699819564819,0.15265257656574249, 0.41798189282417297,0.059553228318691254,0.47019758820533752,-0.19245739281177521,0.34105002880096436,-0.060698080807924271,-0.077093333005905151,-0.011513997800648212,-0.013021549209952354,0.028243053704500198,-0.089104048907756805,-0.052098467946052551,-0.051597576588392258, 0.92346394062042236,0.0025909955147653818,0.51065713167190552,-0.18708108365535736,0.34432363510131836,-0.14772440493106842,-0.062866546213626862,-0.013082358986139297,-0.13600271940231323,0.016122659668326378,0.047674685716629028,0.1168942004442215,-0.078397445380687714, 
  /* [4][0][][] */ 0.21770665049552917,0.12579172849655151,-0.41156572103500366,0.15191732347011566,-0.17785067856311798,-0.28742080926895142,0.1157660037279129,0.22369065880775452,-0.17870426177978516,0.070745684206485748,0.015287957154214382,-0.0087633337825536728,-0.16784390807151794, 0.51372277736663818,-0.027588525786995888,-0.45831367373466492,0.36949408054351807,-0.36406660079956055,-0.32380315661430359,0.13257621228694916,0.035414371639490128,-0.02556493878364563,-0.0084447842091321945,-0.0031893427949398756,0.025064509361982346,-0.12896305322647095, 0.61764591932296753,0.026605736464262009,-0.16057860851287842,0.38021954894065857,-0.38713505864143372,-0.12825936079025269,-0.037024553865194321,0.16412819921970367,0.038543794304132462,0.026304813101887703,0.0079868491739034653,0.089786909520626068,0.068583711981773376, 
  /* [5][0][][] */ 0.040102999657392502,0.65276461839675903,-0.16590586304664612,0.1351102888584137,-0.030633427202701569,0.34337553381919861,-0.057275187224149704,0.080861307680606842,-0.0094712385907769203,-0.052406564354896545,-0.025062946602702141,-0.059581756591796875,0.032263901084661484, 0.35110566020011902,0.82354789972305298,-0.12965548038482666,0.3795640766620636,0.069157429039478302,0.16737142205238342,-0.03209783136844635,0.06649499386548996,-0.020859109237790108,0.079881615936756134,0.029515573754906654,-0.11278292536735535,-0.091402731835842133, 0.056284386664628983,0.91335958242416382,0.18039570748806,0.28438675403594971,0.28180435299873352,0.21967259049415588,0.13697825372219086,0.0010644190479069948,-0.006393450777977705,-0.04925016313791275,0.1007140651345253,-0.15771777927875519,-0.015239790081977844, 
  /* [6][0][][] */ -0.86112403869628906,-1.3568272590637207,0.045191653072834015,-0.071489542722702026,0.32189059257507324,0.0015477796550840139,0.12552659213542938,-0.015178692527115345,0.021678481251001358,0.0077214539051055908,-0.094402395188808441,0.0075360401533544064,-0.075670257210731506, 0.20571689307689667,1.2403272390365601,0.44581159949302673,0.028788208961486816,-0.089133895933628082,0.071545004844665527,-0.062582701444625854,0.00057255965657532215,-0.15585099160671234,-0.049411211162805557,0.011031266301870346,-0.037804659456014633,0.046149738132953644, 0.4473109245300293,0.21349261701107025,0.048169128596782684,-0.074236370623111725,-0.27617734670639038,-0.024967491626739502,-0.043548468500375748,0.12829719483852386,-0.041503295302391052,0.056468289345502853,0.0039138817228376865,-0.037922210991382599,0.037545040249824524, 
  /* [7][0][][] */ 0.47622221708297729,-0.18357905745506287,0.02200174517929554,-0.1764216274023056,0.14073990285396576,0.053241979330778122,-0.0056985830888152122,-0.033822420984506607,0.23601306974887848,-0.049564749002456665,0.05344415083527565,-0.086858876049518585,-0.059782456606626511, 0.81805074214935303,-0.22557257115840912,-0.012724559754133224,-0.063481628894805908,0.25679600238800049,0.037338998168706894,0.24704223871231079,-0.17108114063739777,0.098725751042366028,0.05303550511598587,-0.10009656846523285,0.0042510018683969975,0.010511500760912895, 0.63830047845840454,-0.35910853743553162,-0.088992469012737274,-0.13436378538608551,0.34430137276649475,-0.10319479554891586,0.078878246247768402,-0.14173789322376251,0.082537539303302765,0.092150621116161346,0.021949451416730881,-0.012594283558428288,0.023249829187989235, 
};
const TfArray<4, int> tensor_dimension7 = { 4, { 8,1,3,13 } };
const ALIGN(16) float tensor_data8[64*1*3*8] = { 
  /* [0][0][][] */ 0.050545886158943176,-1.8517768383026123,-0.21813789010047913,-1.9044367074966431,-0.12225845456123352,-0.36966276168823242,0.070547804236412048,-0.26212665438652039, 0.016164900735020638,-0.70733052492141724,-0.11278242617845535,-0.63055688142776489,-0.33641692996025085,-0.24583046138286591,0.050566673278808594,-2.0683305263519287, -0.22921022772789001,-0.5080263614654541,0.049578204751014709,-0.30548134446144104,-0.092726558446884155,-0.19196520745754242,-0.047604735940694809,-0.58118098974227905, 
  /* [1][0][][] */ -0.26396080851554871,0.008085290901362896,-0.119996577501297,0.063627555966377258,0.056155316531658173,0.95393013954162598,-0.34235018491744995,-0.28723630309104919, -0.37203392386436462,0.052943676710128784,-1.1860339641571045,-0.070047296583652496,-0.027274560183286667,-0.31467300653457642,-0.5071263313293457,0.24550168216228485, -1.3272496461868286,-0.24885986745357513,-2.4612503051757812,-0.12219037115573883,0.08174595981836319,-0.74910688400268555,-0.089764907956123352,-0.10346130281686783, 
  /* [2][0][][] */ -0.1590033620595932,-2.3676402568817139,-0.49716457724571228,-0.22022455930709839,-0.042418412864208221,-0.35209423303604126,-1.1877824068069458,0.67567306756973267, -0.082547508180141449,-3.7574803829193115,0.14016874134540558,-0.31050866842269897,-0.27906450629234314,-0.29906588792800903,-1.4976857900619507,-0.23503352701663971, -2.1919724941253662,-5.0942702293395996,-0.98549550771713257,-3.3571968078613281,-0.3528323769569397,-0.020446600392460823,-0.11098379641771317,-0.3483814001083374, 
  /* [3][0][][] */ -0.42436829209327698,-0.28036788105964661,-0.31799754500389099,-0.40677696466445923,-0.36708077788352966,-0.12926676869392395,-0.16741845011711121,0.0070056430995464325, -0.3975180983543396,-0.10854332894086838,-0.22355513274669647,-0.07079247385263443,-0.68621343374252319,-0.45528846979141235,-0.5895003080368042,-0.24402838945388794, -0.48764887452125549,-0.35818755626678467,-0.027057869359850883,-0.48764804005622864,-0.11174674332141876,-0.22557716071605682,-0.21667566895484924,-0.30019420385360718, 
  /* [4][0][][] */ -0.0026595403905957937,-3.5052928924560547,-2.3525123596191406,-2.0770714282989502,0.1721518337726593,-0.024421846494078636,0.36481231451034546,-0.12019383907318115, 0.12601085007190704,-0.1729961484670639,-0.28601118922233582,0.20146940648555756,0.22341670095920563,0.030474394559860229,0.25830692052841187,-0.22978612780570984, -0.81092667579650879,0.30987367033958435,-0.25041359663009644,0.22313770651817322,0.036422383040189743,-0.054713621735572815,-0.66908055543899536,-0.20874273777008057, 
  /* [5][0][][] */ -0.085352852940559387,0.0096988091245293617,-0.16476503014564514,-0.10868500918149948,-0.19633017480373383,-0.17060010135173798,-0.19829709827899933,-0.32316264510154724, -0.080313540995121002,-0.18978011608123779,-0.3018747866153717,-0.23389475047588348,-0.3113994300365448,-0.16381159424781799,-0.063237391412258148,-0.11692903935909271, -0.16891464591026306,-0.20855893194675446,-0.073583193123340607,-0.085220120847225189,-0.060224827378988266,-0.097954206168651581,-0.097157672047615051,-0.065950267016887665, 
  /* [6][0][][] */ 0.13600172102451324,-0.055583573877811432,0.29228106141090393,0.13369019329547882,0.28191733360290527,0.6187555193901062,-0.41409838199615479,-0.65833228826522827, -0.21141983568668365,-0.44228631258010864,-0.60092085599899292,0.31759577989578247,0.072582758963108063,-0.35856470465660095,-0.77432048320770264,0.086775034666061401, -0.56186127662658691,-0.3904367983341217,-0.28046247363090515,-0.45664432644844055,-0.064752526581287384,-2.6470310688018799,0.056774914264678955,0.22250719368457794, 
  /* [7][0][][] */ -0.29644399881362915,0.021505016833543777,0.45012649893760681,-0.28876191377639771,-0.19728818535804749,-0.17515785992145538,0.12649261951446533,0.46254831552505493, -0.039380684494972229,-0.082929134368896484,-0.37452146410942078,-0.10025813430547714,0.00085663481149822474,-0.10006792098283768,-0.45792567729949951,-0.14582188427448273, -0.1326773464679718,-0.051311079412698746,-0.60072767734527588,0.12213575094938278,-0.021573469042778015,0.69681763648986816,-0.55684417486190796,-1.4355865716934204, 
  /* [8][0][][] */ -0.67035740613937378,-0.13663651049137115,0.066108100116252899,-0.0081474566832184792,-0.44326159358024597,-0.18719735741615295,0.19781388342380524,-0.14522810280323029, 1.0421278476715088,-0.34522336721420288,-0.23586113750934601,0.092239424586296082,-0.21925762295722961,-0.30543765425682068,0.31293845176696777,0.026567976921796799, -0.20056653022766113,-0.10046108812093735,0.34454622864723206,0.2041381448507309,0.014925599098205566,-0.6487622857093811,-0.58982312679290771,0.089976012706756592, 
  /* [9][0][][] */ -0.46991205215454102,-0.26711145043373108,-0.28359711170196533,0.7287973165512085,0.13804985582828522,-0.29537796974182129,-0.094193451106548309,-0.3172411322593689, -0.21683308482170105,-0.40193349123001099,-0.024025686085224152,0.077794849872589111,0.15892013907432556,-0.65713083744049072,-0.46571025252342224,-0.35323017835617065, 0.98489505052566528,0.17105942964553833,0.048291273415088654,0.069426089525222778,-0.13478158414363861,-0.48934417963027954,-0.41735059022903442,0.10084650665521622, 
  /* [10][0][][] */ 0.12657797336578369,-2.3076574802398682,0.24157404899597168,-3.226794958114624,-0.26455533504486084,-0.085673503577709198,-1.2023525238037109,-0.50748759508132935, -0.170010045170784,-6.3110918998718262,-0.081785671412944794,-1.8524817228317261,0.070776209235191345,-0.97076797485351562,-0.64829462766647339,-0.70077961683273315, -0.43079099059104919,-0.66313612461090088,-0.12409727275371552,-0.91372746229171753,0.024529814720153809,-3.361147403717041,-0.50735622644424438,0.73170179128646851, 
  /* [11][0][][] */ -0.24661111831665039,-0.53809607028961182,0.035686668008565903,-0.64006119966506958,0.69359833002090454,0.53547424077987671,-0.71040159463882446,-0.058924917131662369, -0.36077487468719482,-2.804922342300415,-1.4724533557891846,-0.74293065071105957,-0.57954108715057373,0.049802575260400772,-0.63377839326858521,-2.6372420787811279, 0.029835650697350502,-2.6571578979492188,0.095584608614444733,-1.5084081888198853,0.36056810617446899,-0.14673864841461182,0.02397809736430645,-3.1675701141357422, 
  /* [12][0][][] */ -0.52152705192565918,-0.02940242737531662,-0.48918166756629944,-0.12118608504533768,-0.55090248584747314,-1.3609555959701538,-0.66586387157440186,0.57804220914840698, -0.74212163686752319,-0.23933424055576324,-1.2217257022857666,0.31040582060813904,-0.48992955684661865,-1.9354785680770874,-0.22472827136516571,-0.1957118809223175, -0.76704525947570801,-0.436318039894104,-0.2686094343662262,-0.36681303381919861,-0.030400678515434265,-0.52362102270126343,0.048687499016523361,0.48418036103248596, 
  /* [13][0][][] */ -0.4397052526473999,-0.34789013862609863,-0.53977304697036743,0.58076941967010498,-0.043425440788269043,0.090257510542869568,-0.70063835382461548,0.05784241110086441, -0.18017224967479706,-0.21383380889892578,-0.48340386152267456,0.13426439464092255,-0.29517605900764465,-0.058537725359201431,-0.94450253248214722,0.48843634128570557, -0.48769077658653259,-0.57741522789001465,-1.3901505470275879,-0.27864834666252136,-1.7181092500686646,-0.013969027437269688,-1.0964875221252441,-0.20375180244445801, 
  /* [14][0][][] */ -0.33909487724304199,-1.9584624767303467,-0.74636834859848022,-0.49499207735061646,-0.00060595542890951037,-3.9421525001525879,-0.85175460577011108,0.1924523264169693, -0.060990337282419205,-0.20302484929561615,-0.047149896621704102,-0.68535751104354858,-0.013491795398294926,-0.61747556924819946,0.14152911305427551,-0.0085908789187669754, -0.25507235527038574,0.26339557766914368,-0.026671960949897766,0.29132691025733948,0.094422996044158936,0.332365483045578,0.12499670684337616,-0.40847054123878479, 
  /* [15][0][][] */ -0.22666405141353607,0.40582793951034546,0.38374146819114685,-1.1491855382919312,0.42321944236755371,-0.18869049847126007,-0.38579365611076355,-0.27450782060623169, -2.3227176666259766,-0.06592974066734314,-0.022769637405872345,-1.8248848915100098,-0.27664953470230103,-0.18969196081161499,-0.21293722093105316,-3.222388744354248, -2.361499547958374,0.024597402662038803,-1.2637639045715332,-0.25219705700874329,-0.81949365139007568,0.88874471187591553,0.18264856934547424,-5.3486227989196777, 
  /* [16][0][][] */ -1.6199183464050293,-0.10275766998529434,-0.40040525794029236,-0.074810802936553955,-0.2091032862663269,-3.7980735301971436,-0.18323163688182831,0.37942713499069214, -0.093654751777648926,-0.34114918112754822,0.15627320110797882,-0.32877346873283386,0.31079214811325073,-0.49680131673812866,0.45812252163887024,-0.23485814034938812, 0.10361781716346741,-0.085263349115848541,0.26529026031494141,-0.3170013427734375,0.3136066198348999,-0.35009866952896118,-1.1716547012329102,-0.048507776111364365, 
  /* [17][0][][] */ -0.35736757516860962,-0.095006033778190613,0.39687538146972656,-0.54124307632446289,0.85999143123626709,-0.18346656858921051,0.082473702728748322,-0.22057349979877472, -0.38384640216827393,-0.040209148079156876,-0.01460788119584322,-1.2743270397186279,-0.18127532303333282,-0.91896235942840576,-0.85985243320465088,-0.45250692963600159, -0.68881553411483765,-0.024253048002719879,0.006824864074587822,-0.33949965238571167,-0.47501909732818604,-2.3319060802459717,-0.03327130526304245,-0.22700701653957367, 
  /* [18][0][][] */ 0.71369928121566772,-0.048229649662971497,-0.084727004170417786,0.17045082151889801,0.36420023441314697,-0.37101683020591736,-0.99068951606750488,-0.058459032326936722, -0.031992018222808838,-0.011416501365602016,-0.23065821826457977,0.31788203120231628,0.12005456537008286,-0.49698975682258606,-1.3116744756698608,-0.49333024024963379, -0.15924163162708282,-0.21040703356266022,-1.0133333206176758,0.077089972794055939,-0.43420517444610596,-0.28394857048988342,-0.75396651029586792,0.0074085877276957035, 
  /* [19][0][][] */ -1.0866516828536987,0.41231179237365723,-0.018267299979925156,-0.049188248813152313,-0.831429123878479,0.0047836797311902046,-0.062837749719619751,-0.47378173470497131, -0.98718523979187012,-0.2445320188999176,-0.33322128653526306,-0.32558068633079529,-1.252504825592041,0.034832779318094254,0.034229792654514313,-2.1666038036346436, -0.30548471212387085,0.045728676021099091,-0.83002662658691406,0.24225524067878723,-0.43949604034423828,0.37585592269897461,0.051753301173448563,-0.86653369665145874, 
  /* [20][0][][] */ 0.98522496223449707,0.29985854029655457,0.016528982669115067,-0.6301993727684021,-0.23987777531147003,-0.085756309330463409,-0.0051885508000850677,0.44437366724014282, -0.32344451546669006,-0.46585658192634583,-0.470986008644104,-1.8128715753555298,-1.1224838495254517,0.054648533463478088,-0.22703324258327484,-0.15258736908435822, 0.090757422149181366,-4.5806894302368164,-0.16588960587978363,-0.91634446382522583,0.16474585235118866,-0.89419573545455933,-0.9522472620010376,0.46497389674186707, 
  /* [21][0][][] */ -0.14540509879589081,0.77977150678634644,-0.065906435251235962,0.029702719300985336,0.020252825692296028,-0.18206508457660675,-0.082970812916755676,-0.17450913786888123, -1.9864876270294189,-0.0029661015141755342,-0.25428727269172668,0.18760794401168823,-0.28854802250862122,0.02149311825633049,-0.70704412460327148,-0.079620011150836945, -0.10946544259786606,-0.39442107081413269,-0.74789965152740479,0.18171161413192749,-0.0093885818496346474,-0.50251716375350952,-0.65531831979751587,0.40611100196838379, 
  /* [22][0][][] */ -0.34691321849822998,0.80720460414886475,-0.047729875892400742,-0.010736763477325439,0.12215622514486313,-0.10502216964960098,-0.29600957036018372,-0.2170657217502594, -0.56533277034759521,-0.0044883629307150841,0.049330394715070724,0.28103813529014587,-0.39895603060722351,-0.20603270828723907,-0.69585561752319336,0.26693519949913025, -1.7589254379272461,0.5187494158744812,-0.090444289147853851,0.11786788702011108,-1.0546940565109253,-0.13685166835784912,-0.55824184417724609,0.070527151226997375, 
  /* [23][0][][] */ -3.1092350482940674,0.64686167240142822,-0.39128813147544861,-0.31743481755256653,0.071876123547554016,-0.33289182186126709,0.32814574241638184,0.097068026661872864, -1.2138324975967407,-0.52186685800552368,-1.4784102439880371,-1.1496150493621826,-0.0040051667019724846,-1.0944688320159912,-0.18428444862365723,-0.50276333093643188, -0.26262122392654419,-0.61268496513366699,-1.0609521865844727,-3.296039342880249,0.16484120488166809,-0.62625241279602051,-0.12484422326087952,0.20157846808433533, 
  /* [24][0][][] */ -0.019132636487483978,-0.065948046743869781,-0.78078550100326538,-0.41525211930274963,-1.1199296712875366,0.34906888008117676,0.032637126743793488,-2.3370556831359863, -0.21769317984580994,0.033544071018695831,-0.2921161949634552,-0.72303998470306396,-4.3447327613830566,0.14279833436012268,-0.33059501647949219,-3.0128476619720459, -0.34238004684448242,0.012761867605149746,-1.1223915815353394,-1.5435664653778076,-3.0549249649047852,0.048559423536062241,-0.17920027673244476,-4.5325493812561035, 
  /* [25][0][][] */ -0.93961751461029053,0.050032366067171097,-1.2368922233581543,0.071973331272602081,-0.58463096618652344,0.20867337286472321,0.25504085421562195,-2.5291719436645508, -0.48283094167709351,0.14917691051959991,-0.49092566967010498,0.40644878149032593,0.13150833547115326,0.051638361066579819,-0.21437764167785645,-0.69121599197387695, 0.7582697868347168,-0.40358614921569824,0.47068250179290771,-0.27641129493713379,0.091829828917980194,-0.023595137521624565,-1.2359964847564697,-0.29685494303703308, 
  /* [26][0][][] */ -0.50818926095962524,-4.0095491409301758,-0.62121760845184326,-0.22132699191570282,0.2479482889175415,-2.3121168613433838,-0.02998003177344799,0.10979264229536057, -0.40999576449394226,-0.88012921810150146,-0.27996325492858887,-0.32143488526344299,-0.13658168911933899,-3.341151237487793,-0.10852720588445663,0.10271904617547989, -0.12470051646232605,-0.46853423118591309,-0.56620079278945923,0.26281136274337769,-0.1416424959897995,-1.5319697856903076,-0.41062068939208984,0.036144986748695374, 
  /* [27][0][][] */ -0.42535963654518127,-0.057930175215005875,-0.27580633759498596,0.55786919593811035,0.11051223427057266,-0.23542651534080505,-1.5317809581756592,0.53310567140579224, -0.2801947295665741,-0.24234697222709656,-0.38756516575813293,-0.48182335495948792,-0.7294921875,-0.5760200023651123,-0.20528256893157959,-0.74188750982284546, 0.37735742330551147,-0.38727018237113953,0.29347440600395203,-0.10482657700777054,-0.076550975441932678,-1.2108874320983887,-0.029501335695385933,-0.22127248346805573, 
  /* [28][0][][] */ -3.0731010437011719,0.20476895570755005,-3.0654430389404297,-0.00042267958633601665,0.33258149027824402,-1.4723261594772339,-1.3942147493362427,-0.069228306412696838, -0.25518906116485596,-0.77325958013534546,-0.25210708379745483,-0.46233963966369629,-0.6160045862197876,-0.16999664902687073,0.4048023521900177,-0.15216493606567383, 0.89298069477081299,-0.21797066926956177,0.0073010185733437538,0.022446261718869209,-0.20017042756080627,-0.042387519031763077,0.34693229198455811,-0.060036793351173401, 
  /* [29][0][][] */ -0.027467386797070503,-0.14403913915157318,-0.093313328921794891,-0.02870541624724865,-0.17816220223903656,-0.016361722722649574,-0.058331947773694992,-0.040682762861251831, 0.0070546958595514297,0.0052678599022328854,-0.20326350629329681,-0.038493610918521881,0.0061407196335494518,-0.064038246870040894,-0.13443489372730255,-0.052306711673736572, -0.0048102294094860554,-0.042833331972360611,-0.093952149152755737,-0.036583330482244492,-0.15710566937923431,-0.18796736001968384,-0.0050288285128772259,-0.040933925658464432, 
  /* [30][0][][] */ -0.44630518555641174,-1.484031081199646,-2.0999674797058105,-0.60080993175506592,-1.5231175422668457,-0.00307118846103549,0.40077593922615051,-2.6004767417907715, -0.15378923714160919,-0.96351784467697144,-0.065389841794967651,-0.00879695825278759,-0.084957219660282135,0.33206221461296082,0.27702507376670837,-0.37251952290534973, 0.079910710453987122,-0.31943675875663757,0.47276768088340759,0.046343524008989334,0.5435214638710022,-0.59730839729309082,0.16721917688846588,0.56458264589309692, 
  /* [31][0][][] */ -0.099565759301185608,-0.24827705323696136,-1.6145130395889282,-0.1484927237033844,-0.12522360682487488,0.3413054347038269,-0.66999083757400513,-0.40019413828849792, -0.70187479257583618,0.0020181760191917419,-0.33832991123199463,0.58854639530181885,-1.9578031301498413,-0.19604277610778809,-0.45093843340873718,0.17999462783336639, -0.78850084543228149,0.36736363172531128,0.29132363200187683,-0.20572321116924286,-0.52596497535705566,-0.40419289469718933,0.092349521815776825,-0.16035999357700348, 
  /* [32][0][][] */ 0.088971376419067383,-0.51642847061157227,-1.0617176294326782,-0.087636061012744904,-0.6730836033821106,0.2954297661781311,-0.48665803670883179,-0.20660895109176636, -0.10064461827278137,-0.95765453577041626,-0.43242248892784119,-0.34007799625396729,-0.22950738668441772,0.040762215852737427,0.24190221726894379,-1.4368312358856201, -0.074436530470848083,0.049153242260217667,-0.19984008371829987,-0.33313417434692383,0.98184221982955933,0.18193727731704712,0.21282556653022766,-0.37392869591712952, 
  /* [33][0][][] */ -0.19505563378334045,-0.044846203178167343,-0.23198519647121429,-0.17177070677280426,-0.089864641427993774,-0.22062315046787262,-0.11833410710096359,-0.043998565524816513, -0.030884426087141037,-0.2140229195356369,-0.0024501075968146324,-0.0085082510486245155,-0.069826632738113403,-0.16290733218193054,-0.1033070906996727,-0.18185684084892273, -0.034277111291885376,-0.011920527555048466,-0.076854169368743896,-0.053676791489124298,-0.2215912789106369,-0.11583942174911499,-0.021215420216321945,-0.14770704507827759, 
  /* [34][0][][] */ 0.27062663435935974,-0.72838211059570312,0.58966082334518433,-0.059469528496265411,0.2208455502986908,-0.13176903128623962,0.45109266042709351,0.25194263458251953, 0.052959609776735306,-0.75049698352813721,0.1735546886920929,-0.4592059850692749,-0.46896541118621826,0.45729747414588928,-0.18805815279483795,0.040894493460655212, 0.19376575946807861,-3.1187338829040527,-1.0474649667739868,-4.1684942245483398,-1.1053975820541382,-0.31238922476768494,-0.019159600138664246,-1.6341345310211182, 
  /* [35][0][][] */ -0.44490334391593933,-0.0086687235161662102,0.25641220808029175,0.81594967842102051,-0.0039869146421551704,-0.093470379710197449,0.49548760056495667,-0.14001816511154175, -0.60062354803085327,0.048349380493164062,-0.332672119140625,-0.11409774422645569,0.089239344000816345,-0.018324870616197586,-0.29188641905784607,0.074916519224643707, -1.5420773029327393,-0.17525100708007812,-1.835518479347229,-0.25763741135597229,-0.12997420132160187,-0.77643918991088867,-0.57330065965652466,-0.033834114670753479, 
  /* [36][0][][] */ 0.74273067712783813,0.23512645065784454,0.15728546679019928,0.070539511740207672,-0.25036102533340454,-0.27880242466926575,-0.17078948020935059,0.19344346225261688, -0.15562643110752106,0.096953205764293671,0.11937703937292099,0.072264939546585083,-0.2651621401309967,-0.013988437131047249,-0.30219820141792297,0.054588336497545242, 0.5920332670211792,0.35865631699562073,0.14278422296047211,0.25662100315093994,0.26393705606460571,-0.038450535386800766,-0.9641033411026001,-0.055496126413345337, 
  /* [37][0][][] */ -0.31548291444778442,-0.023876549676060677,-0.23388788104057312,-0.12003449350595474,-0.11226910352706909,-0.24376021325588226,-0.04496496170759201,-0.13612183928489685, -0.0071920817717909813,-0.16406169533729553,-0.1829429566860199,0.047318402677774429,-0.12105912715196609,-0.36503109335899353,-0.1805378645658493,-0.12777549028396606, -0.038420144468545914,-0.096415586769580841,-0.067699067294597626,-0.30292409658432007,-0.15754322707653046,-0.14963206648826599,-0.17911739647388458,-0.15017032623291016, 
  /* [38][0][][] */ -0.73916453123092651,-1.0086127519607544,-0.20905700325965881,-1.4926419258117676,-0.94449788331985474,-1.6848355531692505,0.13428939878940582,-1.0461546182632446, -0.29287028312683105,0.035213876515626907,0.14628410339355469,0.33498498797416687,-1.334804892539978,-0.36454781889915466,0.14583718776702881,-0.22275681793689728, 0.29804983735084534,0.29139447212219238,0.13758611679077148,0.068127676844596863,-1.3550564050674438,0.34358790516853333,-0.18539263308048248,0.14508830010890961, 
  /* [39][0][][] */ 0.039485938847064972,0.89067715406417847,-0.23646117746829987,0.21396154165267944,-0.023353485390543938,-0.42514485120773315,-0.12693493068218231,-0.87345606088638306, 0.12010131776332855,0.054886326193809509,0.41361552476882935,-0.59414052963256836,0.031197695061564445,-0.41030722856521606,-0.94356322288513184,-0.41438660025596619, 0.11078853160142899,-0.99656927585601807,0.34678703546524048,-1.0127553939819336,-0.044542387127876282,0.017553944140672684,-1.096709132194519,0.23459169268608093, 
  /* [40][0][][] */ 0.15092857182025909,0.19620305299758911,0.050006087869405746,0.12983280420303345,0.52201622724533081,0.076583288609981537,-0.1897769570350647,0.49840480089187622, -0.0062897787429392338,0.12344448268413544,-0.13885167241096497,0.14310841262340546,-0.17800822854042053,0.13530083000659943,-0.41391512751579285,0.11998086422681808, 0.12750083208084106,0.22191211581230164,0.13477873802185059,0.23133428394794464,0.68470275402069092,0.14430622756481171,-0.19524328410625458,0.37756380438804626, 
  /* [41][0][][] */ -0.091468781232833862,-0.047287590801715851,0.61899816989898682,-0.23341965675354004,-0.02172941155731678,-0.14892150461673737,-0.36605888605117798,0.24895173311233521, 0.033894337713718414,-0.37689700722694397,-0.0640278160572052,-0.45442396402359009,0.070769451558589935,0.11157605051994324,-1.2860863208770752,0.043779253959655762, 0.10314540565013885,-0.68958461284637451,0.3669755756855011,-0.2100798487663269,0.11155586689710617,0.24025870859622955,-0.89918476343154907,0.19366516172885895, 
  /* [42][0][][] */ 0.80134052038192749,-0.45000520348548889,-0.67278426885604858,-2.113990306854248,-0.77370494604110718,-0.16763097047805786,-1.3120033740997314,-0.28060558438301086, -0.3844258189201355,-4.9649391174316406,-0.47584691643714905,-0.50132852792739868,0.52111130952835083,-2.3584628105163574,-1.108599066734314,0.41988867521286011, -0.70574522018432617,-2.9736096858978271,-0.022000819444656372,0.06813715398311615,0.017731489613652229,-3.7057487964630127,-1.3490821123123169,0.1643662303686142, 
  /* [43][0][][] */ 0.15717156231403351,-1.3234138488769531,-0.37427577376365662,-0.77593904733657837,0.03507956862449646,0.14434158802032471,-1.5608854293823242,0.061535622924566269, 0.15529121458530426,-4.0390119552612305,-1.0770055055618286,-1.2525979280471802,-0.022000245749950409,-0.21589823067188263,-3.5334906578063965,0.005192452110350132, -0.16917216777801514,-3.6606929302215576,-1.3605616092681885,-3.9239544868469238,0.17326673865318298,-0.0059259319677948952,-1.9510905742645264,-0.26135972142219543, 
  /* [44][0][][] */ -0.49146205186843872,0.95474791526794434,-0.13522697985172272,-0.27064940333366394,-0.19949959218502045,-0.34527379274368286,-0.055833067744970322,-0.34826305508613586, -0.26863190531730652,-0.29404798150062561,-0.33140543103218079,-0.5377916693687439,-0.064577795565128326,-0.47473382949829102,0.069654062390327454,-1.1674752235412598, 0.059912294149398804,-0.2930324375629425,0.56809872388839722,-0.41939276456832886,0.20254689455032349,-0.20249626040458679,0.077465608716011047,-0.18701642751693726, 
  /* [45][0][][] */ -0.24166068434715271,-0.32309016585350037,-1.361721396446228,-0.6568148136138916,-1.0946197509765625,-1.9544399976730347,-0.35990500450134277,-0.42203158140182495, -0.0042236009612679482,-0.79968631267547607,-0.096275761723518372,-0.14313557744026184,-0.59701967239379883,-0.14971393346786499,-0.1216314509510994,-0.21703428030014038, 0.30815821886062622,-0.36213734745979309,0.23107405006885529,0.10641055554151535,-0.29855698347091675,0.30974781513214111,-0.11981526762247086,0.43572443723678589, 
  /* [46][0][][] */ -0.31433951854705811,-0.22418504953384399,-0.7598804235458374,0.014476077631115913,-0.56772309541702271,0.028645353391766548,-0.17178636789321899,0.9238516092300415, -0.69232636690139771,-0.021014884114265442,0.18443934619426727,-0.028436332941055298,-0.121715247631073,-0.17564314603805542,0.30614224076271057,-0.25134602189064026, -0.12736979126930237,-0.02993718720972538,0.25402683019638062,0.25215873122215271,0.26208430528640747,-0.24060919880867004,0.46387597918510437,-0.32486429810523987, 
  /* [47][0][][] */ -0.17778110504150391,-0.40536904335021973,-0.22109153866767883,-0.076261475682258606,-0.014251520857214928,-0.56137979030609131,-0.46859604120254517,-0.026943283155560493, -0.38371297717094421,-0.053187914192676544,-0.00036521733272820711,-0.2117239236831665,-0.29649096727371216,-0.33929687738418579,0.0036401026882231236,-0.068298876285552979, -0.27072075009346008,0.051544912159442902,-0.50226771831512451,-0.39420515298843384,-0.32857769727706909,-0.14886574447154999,-0.21682707965373993,-0.2890668511390686, 
  /* [48][0][][] */ 0.0043368055485188961,-0.12041336297988892,-1.2016466856002808,-0.021028773859143257,-3.0773932933807373,0.23768369853496552,-0.03479086235165596,-2.3019752502441406, 0.12345459312200546,-0.50604695081710815,-0.88925635814666748,0.088784649968147278,-1.0160858631134033,0.099448882043361664,0.070896275341510773,-0.21299897134304047, -0.37782013416290283,0.69111907482147217,-0.34437176585197449,0.30518290400505066,-0.58687180280685425,-0.2275545746088028,0.018574664369225502,-0.34602946043014526, 
  /* [49][0][][] */ 0.59238255023956299,-1.565949559211731,-0.49896880984306335,-0.10432462394237518,0.12205484509468079,-0.0096962712705135345,-0.98322498798370361,0.1036289781332016, -0.29523435235023499,-1.7428131103515625,-0.43054568767547607,0.17967411875724792,0.0034791808575391769,0.13952793180942535,-0.93560892343521118,-0.04292738065123558, -0.40871623158454895,-0.88126766681671143,-0.4234403669834137,0.086623772978782654,-0.12266357243061066,-0.033674221485853195,-0.81185519695281982,0.87334758043289185, 
  /* [50][0][][] */ -1.6374797821044922,-0.64809095859527588,-1.2070225477218628,-1.3115699291229248,-0.4556681215763092,-2.7003133296966553,-1.0397812128067017,-0.21057781577110291, -0.43854188919067383,-1.3418300151824951,-0.92719417810440063,-2.9854450225830078,-1.4287642240524292,-0.90757197141647339,-0.33286330103874207,-0.39271393418312073, -0.19723106920719147,-4.5626845359802246,-2.3753938674926758,-0.92690926790237427,-0.33721780776977539,0.18120019137859344,-0.020271938294172287,-0.60551589727401733, 
  /* [51][0][][] */ -1.462060809135437,0.035606268793344498,-1.718718409538269,-0.62563842535018921,-1.4492417573928833,-0.00871280487626791,-0.75113129615783691,-0.064666107296943665, -2.3658204078674316,-0.30927219986915588,-0.22645518183708191,-0.66342127323150635,-0.22339919209480286,-0.93675839900970459,0.040891606360673904,-0.19013479351997375, -0.18361827731132507,-0.035413000732660294,0.53756260871887207,-0.24610204994678497,-0.0283315759152174,-0.50473034381866455,-0.035186488181352615,0.38347330689430237, 
  /* [52][0][][] */ -0.098863907158374786,-0.14916747808456421,0.85866481065750122,-0.022856993600726128,0.036162141710519791,-0.57921618223190308,-0.14121313393115997,0.076776400208473206, -0.28443092107772827,0.12822465598583221,-0.12084276974201202,-0.28066101670265198,-0.12152227014303207,-0.6709778904914856,-0.0083333412185311317,-0.0054018902592360973, -0.85335958003997803,0.56057000160217285,0.14989563822746277,-0.176931232213974,-0.06108371913433075,-0.57637315988540649,-0.086086034774780273,-0.687447190284729, 
  /* [53][0][][] */ -0.1559026837348938,0.11196064203977585,0.011158821173012257,-0.30257803201675415,-0.39132502675056458,-0.57071292400360107,0.4931047260761261,0.53531670570373535, 0.040047913789749146,-0.021009448915719986,0.37336218357086182,-0.49961757659912109,0.075021401047706604,-0.050016544759273529,-1.1346614360809326,0.1704278439283371, -0.051105380058288574,-0.3505876362323761,-0.24017873406410217,-0.86224967241287231,0.016099374741315842,0.75751197338104248,-0.87183916568756104,-0.53315055370330811, 
  /* [54][0][][] */ -0.40783196687698364,0.26191148161888123,-1.5143085718154907,-0.22644655406475067,-0.77836018800735474,0.49528530240058899,-0.46607580780982971,-3.7895236015319824, -1.7961282730102539,-0.5911785364151001,-5.1814899444580078,-0.3734794557094574,0.25811585783958435,-0.24264055490493774,-0.38758468627929688,-0.30778038501739502, -2.0381877422332764,0.40750867128372192,-0.25462272763252258,-0.075097754597663879,0.089680604636669159,-0.31549808382987976,0.15007956326007843,-0.082101278007030487, 
  /* [55][0][][] */ 0.41718569397926331,-0.05420134961605072,0.21929672360420227,0.23492135107517242,-0.5298844575881958,-0.021293360739946365,-0.12385434657335281,-0.8995094895362854, -0.07214711606502533,-0.26287996768951416,-0.53618347644805908,-0.053496405482292175,-0.65111583471298218,0.68703740835189819,-0.75182384252548218,-0.54036414623260498, -0.56193071603775024,-0.60583120584487915,-0.53677099943161011,-1.0895035266876221,0.18603278696537018,-0.90913337469100952,-0.30168524384498596,-0.24095574021339417, 
  /* [56][0][][] */ -0.28098249435424805,0.65834218263626099,-0.27590042352676392,0.18009006977081299,-0.74377453327178955,-0.21524369716644287,-0.12981945276260376,-0.071081116795539856, 0.32631182670593262,0.025132119655609131,-0.067562542855739594,0.25818994641304016,-0.80423742532730103,0.37971806526184082,-0.24523591995239258,-0.84424996376037598, -0.022407988086342812,-0.084174118936061859,-0.61462676525115967,-0.10665855556726456,-0.54367208480834961,0.25316396355628967,-0.46108010411262512,-1.1685714721679688, 
  /* [57][0][][] */ 0.065579891204833984,-0.17821198701858521,-2.6653604507446289,0.039739590138196945,0.28475406765937805,-0.010618848726153374,-0.32472339272499084,-0.77599638700485229, 0.14517918229103088,-2.385364294052124,-0.9354240894317627,-0.8655129075050354,-0.039650388062000275,-0.2616431713104248,-0.54596322774887085,-0.1610790491104126, 0.55739998817443848,-2.1459097862243652,-0.64553225040435791,-0.64227879047393799,-0.57737469673156738,0.59677058458328247,-0.50808596611022949,-0.2290443629026413, 
  /* [58][0][][] */ 0.33375552296638489,0.52131706476211548,-0.28097274899482727,-0.45986440777778625,-0.40477192401885986,0.10931310057640076,-0.99322789907455444,-0.44597592949867249, -0.064783588051795959,-0.37195068597793579,-0.79895830154418945,-0.28316405415534973,0.16760891675949097,-0.91413986682891846,-1.1549797058105469,-0.099375173449516296, -3.5243546962738037,-0.44371464848518372,-0.52495682239532471,-0.2684171199798584,0.44114264845848083,-4.0872836112976074,-0.34256568551063538,0.39980638027191162, 
  /* [59][0][][] */ -0.22033663094043732,-0.34026420116424561,-0.36405825614929199,0.12601597607135773,0.05362667515873909,-0.06325376033782959,0.4417666494846344,0.3697216808795929, -0.10807732492685318,0.32647550106048584,-0.70540279150009155,-0.090553119778633118,-0.25408798456192017,-0.20565797388553619,0.3497789204120636,-0.0093117095530033112, -0.7349625825881958,-0.080452024936676025,-1.7281748056411743,-0.18204356729984283,-0.66468852758407593,-0.13690373301506042,-0.007102165836840868,-0.40229466557502747, 
  /* [60][0][][] */ -0.021515054628252983,-0.071381337940692902,-0.087338052690029144,-0.10730686783790588,-0.38728195428848267,1.1283782720565796,-0.092017687857151031,-0.12574927508831024, 0.01090813335031271,-0.062354959547519684,-0.52394092082977295,-0.67260801792144775,0.052410632371902466,-0.38574099540710449,0.1542603075504303,-0.79571527242660522, 0.14601464569568634,-0.98476463556289673,-0.049439381808042526,-1.3538490533828735,0.25519183278083801,-0.18187974393367767,0.16714806854724884,-0.50527799129486084, 
  /* [61][0][][] */ -0.20413979887962341,0.0024844065774232149,-0.63781905174255371,-0.12653321027755737,-0.10949741303920746,0.91563290357589722,-0.32259327173233032,-2.9373254776000977, -0.33790123462677002,-0.057021167129278183,-2.8061404228210449,0.11951148509979248,-1.2580738067626953,-0.20670242607593536,-0.30896496772766113,0.15648728609085083, -0.41381204128265381,-0.51196485757827759,-0.94583249092102051,0.076507113873958588,-0.96937018632888794,0.17867401242256165,-0.78517675399780273,0.67352181673049927, 
  /* [62][0][][] */ -0.4876665472984314,-0.32211887836456299,-0.35334450006484985,0.38726675510406494,-0.78155738115310669,-0.71207410097122192,0.39049050211906433,-0.17155970633029938, 0.16086354851722717,0.03690410777926445,0.008551083505153656,0.1306125670671463,0.13850216567516327,-0.40753450989723206,0.10324931889772415,-0.29176253080368042, 0.026035716757178307,0.090861447155475616,-0.13188983500003815,-0.24712127447128296,0.030498700216412544,1.1700834035873413,-0.21790522336959839,-0.86154806613922119, 
  /* [63][0][][] */ -0.20377880334854126,-0.10010272264480591,-0.46008026599884033,0.29174560308456421,0.26955834031105042,0.15650613605976105,-0.0055754696950316429,-0.53486156463623047, -0.44862738251686096,-0.13205297291278839,-0.36522310972213745,0.055137123912572861,0.29871630668640137,-0.034758914262056351,-0.072587624192237854,-0.33602693676948547, -0.2730991542339325,0.82284080982208252,0.08756643533706665,0.025892000645399094,-0.048969469964504242,-0.14539569616317749,-0.2584078311920166,-0.23043419420719147, 
};
const TfArray<4, int> tensor_dimension8 = { 4, { 64,1,3,8 } };
const ALIGN(16) float tensor_data9[16*1*3*64] = { 
  /* [0][0][][] */ 0.44632869958877563,-0.20347206294536591,-0.41884198784828186,-0.16256962716579437,-0.12819129228591919,-0.11009363085031509,-0.31589826941490173,-0.39036384224891663,-0.4722505509853363,0.11342924833297729,-0.84554082155227661,-0.075548581779003143,-0.16002720594406128,-0.33903813362121582,-0.48206156492233276,-0.35258063673973083,-0.21652160584926605,-0.2073456346988678,-0.34105241298675537,-0.01112760417163372,0.18003776669502258,-0.33101671934127808,-0.50112444162368774,0.19624316692352295,-0.15198737382888794,-0.086453676223754883,0.031605023890733719,-0.33543714880943298,-0.70621854066848755,0.0082720732316374779,0.31116294860839844,-0.23519276082515717,0.018081219866871834,-0.16239963471889496,0.31923609972000122,-0.11061627417802811,-0.68893307447433472,0.011098162271082401,-0.38724797964096069,-0.46291279792785645,0.29400759935379028,-0.26992195844650269,-0.74146819114685059,-0.72937136888504028,-0.068455249071121216,0.14288750290870667,-0.93819469213485718,0.29750105738639832,-0.065391890704631805,-0.44984692335128784,-0.94872033596038818,-0.21160750091075897,-0.600655198097229,-0.16216573119163513,-0.26592805981636047,0.21858330070972443,-0.093770436942577362,0.43669229745864868,-0.24017396569252014,0.28302985429763794,0.03423725813627243,-1.1734287738800049,-0.0057736425660550594,-1.5357613563537598, -0.30446812510490417,-0.74638509750366211,-0.55232465267181396,0.12538355588912964,0.098694160580635071,0.14118728041648865,-1.0081527233123779,-0.089361138641834259,-0.17940221726894379,-0.1904274970293045,0.026038935407996178,0.048909716308116913,0.043776322156190872,-0.021741431206464767,-0.16302640736103058,-0.13839049637317657,-0.83090126514434814,0.019079569727182388,-0.57495182752609253,0.16904497146606445,-0.32007861137390137,-1.0298746824264526,-0.23042891919612885,-0.30672284960746765,-0.27278134226799011,-0.1521100252866745,-0.26505869626998901,0.21305090188980103,-0.54653316736221313,0.025008311495184898,0.063461579382419586,-0.18158869445323944,-0.58656293153762817,0.05218147486448288,0.115850530564785,0.0418366938829422,-0.19031970202922821,-0.13337188959121704,-0.35689198970794678,-0.66123729944229126,0.053376942873001099,-0.41901502013206482,-0.88905268907546997,-0.99061852693557739,-0.058946032077074051,-0.24217720329761505,-0.51959502696990967,-0.189955934882164,-0.41314506530761719,-0.67333793640136719,-0.89050775766372681,-0.1805291473865509,-0.2122107595205307,-0.1674216091632843,-0.45374840497970581,-0.51350778341293335,-1.166264533996582,0.14305035769939423,0.29477456212043762,0.2137957364320755,0.17338107526302338,-0.41777202486991882,-0.37725961208343506,-0.44001832604408264, 0.21398955583572388,-0.30799651145935059,-0.079053193330764771,0.1929951012134552,-0.14278392493724823,0.010164016857743263,-0.12953564524650574,-0.46974530816078186,-0.038387808948755264,-0.1811799556016922,-0.22283935546875,0.021301470696926117,-0.13107794523239136,-0.26685985922813416,-0.18372303247451782,-0.46664583683013916,-0.50649261474609375,-0.009253120981156826,-0.32301965355873108,-0.14178618788719177,-0.27594533562660217,-0.59536433219909668,-0.94092667102813721,0.32336744666099548,-0.083209097385406494,-0.0083203958347439766,0.038637883961200714,-0.11048252135515213,-0.2359631359577179,0.065787352621555328,0.23692210018634796,-0.25752720236778259,0.20292972028255463,-0.11089029163122177,0.29788804054260254,0.091903306543827057,-0.21857663989067078,0.10397006571292877,-0.3871767520904541,-0.75060206651687622,0.057524938136339188,-0.30512559413909912,-0.4324725866317749,-0.13809569180011749,-0.16767638921737671,0.20093643665313721,-0.049178581684827805,0.11219546943902969,-0.11381373554468155,-0.18218992650508881,-0.70335322618484497,-0.054035115987062454,-0.28156769275665283,-0.14627724885940552,-0.49279859662055969,-0.15790590643882751,-0.52753806114196777,0.10474682599306107,0.24300386011600494,0.24115057289600372,0.10933497548103333,-0.20919318497180939,-0.73850405216217041,-0.72681635618209839, 
  /* [1][0][][] */ -0.61897492408752441,-0.78761512041091919,-0.68010783195495605,-0.096484988927841187,-0.10566789656877518,-0.097233787178993225,0.063556291162967682,-0.14280092716217041,0.087413765490055084,-0.087092332541942596,-0.22739224135875702,0.24862830340862274,0.56385517120361328,-0.053135577589273453,0.0079743824899196625,0.17168644070625305,0.24335350096225739,0.14605231583118439,0.4677460789680481,-0.59286552667617798,-0.34279721975326538,-0.24780666828155518,-0.33929631114006042,0.26901975274085999,-1.3601596355438232,-0.17215423285961151,0.21393020451068878,-0.13906407356262207,0.58209258317947388,-0.034201618283987045,-0.52843683958053589,-0.055359266698360443,-0.87347137928009033,-0.04857553169131279,-0.60353207588195801,-0.30338633060455322,0.36150598526000977,-0.11439219117164612,0.34968891739845276,0.38570073246955872,0.20318371057510376,0.058421298861503601,-0.35609158873558044,-0.74284577369689941,-0.001396907027810812,0.092809893190860748,0.26217323541641235,-0.050097506493330002,-0.071380935609340668,0.19235034286975861,-0.19947628676891327,0.071835145354270935,-0.054546844214200974,-0.0093261208385229111,-1.0024553537368774,-0.22852760553359985,-0.032330706715583801,0.004394877701997757,0.21238212287425995,-0.81611865758895874,-1.9590160846710205,0.010284642688930035,-0.027944641187787056,-0.065542735159397125, -0.73456352949142456,-0.098562039434909821,-0.49326106905937195,0.13603614270687103,-1.1286157369613647,0.10686414688825607,-0.11075319349765778,-0.040540706366300583,-0.07169458270072937,-0.3796006441116333,-0.66820108890533447,0.45879524946212769,0.04874766618013382,-0.17898014187812805,-0.33267951011657715,-0.20294144749641418,0.4255906343460083,0.090671032667160034,-0.090520761907100677,0.13275350630283356,-0.6709098219871521,-0.6514241099357605,-0.19109556078910828,-0.52685028314590454,-0.59356600046157837,-0.41468861699104309,-0.02248157374560833,-0.22986125946044922,-0.13871151208877563,-0.11405178159475327,-0.62836122512817383,0.021993333473801613,-0.048941660672426224,-0.031644523143768311,-0.027873020619153976,-0.62270808219909668,0.048068121075630188,-0.073430813848972321,0.1551225483417511,-0.24543364346027374,0.1503833681344986,0.11928270757198334,-0.49027243256568909,-0.22045610845088959,-1.3534469604492188,-0.29463931918144226,0.16128714382648468,-0.080362096428871155,-0.42116439342498779,0.19467116892337799,-2.068432092666626,0.27345001697540283,-0.45627564191818237,-0.061846271157264709,-0.45979934930801392,0.022127050906419754,0.012004168704152107,0.17684024572372437,-0.081358380615711212,-1.1213310956954956,0.56759250164031982,-0.030962275341153145,-0.12445297837257385,0.08307725191116333, 0.24116523563861847,0.038380246609449387,-2.5214388370513916,0.11196835339069366,0.0094882482662796974,0.067516148090362549,-0.21483433246612549,-0.38630738854408264,-0.073478765785694122,-0.19721005856990814,-1.3172856569290161,0.50016546249389648,-0.69011211395263672,-1.7067180871963501,-0.12427728623151779,0.14626257121562958,0.2444717139005661,0.34218961000442505,0.17466038465499878,-0.33652615547180176,-0.27637860178947449,-0.13395942747592926,-0.4436989426612854,-0.19447973370552063,-1.120633602142334,-0.039224088191986084,-0.38535091280937195,-0.19056563079357147,-0.76876920461654663,0.052241496741771698,-0.12142227590084076,-1.0961796045303345,0.49081999063491821,-0.20025502145290375,-0.16923783719539642,-0.3990204930305481,0.32548478245735168,-0.027914300560951233,0.51965898275375366,0.28624334931373596,0.37348511815071106,0.003165464848279953,-1.059994101524353,-0.044870976358652115,-0.18698912858963013,-1.5488744974136353,0.19821083545684814,0.24668017029762268,-0.20746077597141266,-0.26797991991043091,-2.7797229290008545,-0.17087484896183014,0.072322599589824677,-0.069295875728130341,0.27135565876960754,-0.17751963436603546,-0.45423352718353271,0.19803649187088013,-0.16468754410743713,-1.5066955089569092,0.28962239623069763,-1.3539822101593018,-0.73200833797454834,0.15160532295703888, 
  /* [2][0][][] */ 0.020859837532043457,0.080158382654190063,-1.0929867029190063,-0.07128133624792099,-0.49073079228401184,0.013860885985195637,0.035734593868255615,0.29916501045227051,-0.6453205943107605,0.22943222522735596,-0.10737603902816772,-0.087311238050460815,-2.4900023937225342,-0.90619492530822754,-0.90623354911804199,0.23894312977790833,-1.6982715129852295,-0.26939371228218079,-0.19272150099277496,0.6608009934425354,-0.27661320567131042,-0.15459081530570984,-0.3092389702796936,-0.057314068078994751,0.11591645330190659,0.4407389760017395,-1.4082440137863159,-2.257922887802124,-1.1717252731323242,0.1550898402929306,0.32597088813781738,0.2320830225944519,-0.43558117747306824,-0.040596876293420792,-0.099307127296924591,-0.82316130399703979,-0.72719764709472656,-0.044955305755138397,-0.22966170310974121,0.17549538612365723,-0.77183175086975098,-0.079019404947757721,0.043364387005567551,-0.34864053130149841,0.16773879528045654,-1.0616532564163208,-0.6906808614730835,0.14931729435920715,0.12487258017063141,-0.39331603050231934,-0.35872852802276611,0.0025173122994601727,-0.0045644952915608883,0.030899479985237122,0.4221290647983551,0.029468728229403496,0.071685537695884705,-0.39274793863296509,-0.84625333547592163,-0.32758310437202454,0.13409844040870667,0.022964423522353172,-0.041321024298667908,0.12150251865386963, -0.6813046932220459,-0.29754078388214111,-2.2235360145568848,-0.26351621747016907,-0.41121861338615417,-0.019924147054553032,-0.44164830446243286,-0.11210787296295166,-0.21830309927463531,-0.048868816345930099,0.55615782737731934,-1.0510601997375488,-1.1004438400268555,-0.94107288122177124,-0.80002063512802124,0.56314623355865479,-0.24683006107807159,-1.2348017692565918,-0.74090456962585449,0.15106190741062164,-0.049700655043125153,-0.2473033219575882,-0.18050280213356018,-0.40920454263687134,-0.71479743719100952,0.22271506488323212,-0.73806893825531006,-0.83945763111114502,-0.49958658218383789,-0.11482977867126465,0.007324982900172472,0.24607476592063904,-0.80037093162536621,-0.174883633852005,-0.45238569378852844,-0.68090987205505371,-0.015439721755683422,0.11826485395431519,-0.45760232210159302,0.39574664831161499,-0.52883177995681763,-0.0035281851887702942,-0.88632428646087646,0.34902063012123108,-0.20850846171379089,-0.20530889928340912,-0.71789520978927612,0.17930826544761658,0.13329328596591949,-0.33762630820274353,-1.4003413915634155,0.28323227167129517,-0.36958655714988708,-0.20277518033981323,-0.21416968107223511,-0.3509649932384491,-0.060952823609113693,0.28171622753143311,-0.16166731715202332,-0.41445034742355347,-0.065328717231750488,-1.1734011173248291,-0.28829032182693481,0.15636104345321655, -0.91831684112548828,-0.28732001781463623,0.37318116426467896,-0.23286169767379761,-0.49543106555938721,0.1314084529876709,-0.13833065330982208,0.14346851408481598,-0.00061577535234391689,0.11942271143198013,-0.4093051552772522,-0.62866824865341187,-1.5031012296676636,-0.4802880585193634,-0.31308233737945557,0.022726552560925484,-0.30049872398376465,-0.58534139394760132,0.055526901036500931,-1.1017038822174072,0.13988028466701508,-0.40512201189994812,-1.2949128150939941,-0.37436681985855103,-2.0955462455749512,0.4241899847984314,-2.0851974487304688,-0.24351562559604645,-0.12768180668354034,-0.1197458878159523,-1.4413419961929321,0.28718051314353943,-0.88151556253433228,-0.15652346611022949,-0.34981644153594971,-0.61890214681625366,0.043041747063398361,-0.27165111899375916,-0.74838715791702271,0.37910166382789612,-0.37156841158866882,0.39234662055969238,-0.13654588162899017,0.17339670658111572,-0.37746438384056091,-0.012037443928420544,-0.35824254155158997,-0.17350375652313232,-0.015503881499171257,0.3028184175491333,-1.6218352317810059,-0.16008472442626953,0.17922681570053101,0.41981634497642517,-1.472038745880127,0.21484033763408661,-0.23479017615318298,0.46558845043182373,-0.41533926129341125,-1.3473927974700928,0.11220699548721313,0.08348933607339859,-0.3110048770904541,-0.41064345836639404, 
  /* [3][0][][] */ 0.057890422642230988,0.57436603307723999,0.48847928643226624,0.013578132726252079,-0.058210227638483047,0.06789165735244751,0.078496314585208893,-0.43498215079307556,-0.18363650143146515,-1.0606003999710083,-0.027322001755237579,-0.52661776542663574,-0.55630034208297729,-0.35729044675827026,-0.25042122602462769,-0.10276147723197937,0.078716009855270386,0.42617541551589966,-0.10940874367952347,-0.13456486165523529,-0.40283879637718201,-0.29785996675491333,-1.8236428499221802,-1.449872612953186,0.21970643103122711,0.35555675625801086,0.26085808873176575,-0.48377710580825806,0.093494407832622528,0.045159190893173218,0.12937925755977631,-0.45336997509002686,0.17816020548343658,-0.083045318722724915,-0.80832040309906006,-0.62382471561431885,-0.36090821027755737,-0.117538221180439,0.13374041020870209,-1.3844509124755859,-0.90776574611663818,-0.29642036557197571,-0.4591277539730072,-0.01960102841258049,-1.0668808221817017,-0.81526482105255127,-0.45182862877845764,-0.24462273716926575,0.16003185510635376,-1.2774031162261963,0.088020958006381989,-0.56000113487243652,0.025620562955737114,-0.19156046211719513,0.32951217889785767,0.27478253841400146,0.79033148288726807,-0.81642329692840576,0.29437974095344543,-0.45650357007980347,0.14356802403926849,-0.027392406016588211,0.39069843292236328,-0.34530797600746155, -0.27662539482116699,0.07772594690322876,0.28403863310813904,0.11062707006931305,0.16630047559738159,0.088030882179737091,0.16417300701141357,-0.54655486345291138,0.096505075693130493,-0.058121897280216217,-0.58304333686828613,-0.15205451846122742,-1.0767602920532227,-1.1902884244918823,0.11433696001768112,-0.43193787336349487,-0.16666793823242188,0.27717521786689758,-0.70500922203063965,-0.03884328156709671,-0.23271077871322632,-0.36802560091018677,-0.16231325268745422,-0.72139519453048706,-0.13688996434211731,0.019922859966754913,0.38582500815391541,-0.71720457077026367,-0.26946777105331421,0.11074881255626678,-0.52401614189147949,0.06556180864572525,-0.11798553168773651,-0.079721242189407349,-0.58179676532745361,-0.14482848346233368,-0.11391733586788177,-0.043560691177845001,0.49712085723876953,-1.1036401987075806,0.054858241230249405,-0.11983241140842438,-0.26368165016174316,0.50559729337692261,-0.68710494041442871,-0.34213575720787048,-0.17655834555625916,0.038471639156341553,0.090738169848918915,-0.75669431686401367,-0.23195716738700867,0.045357897877693176,0.023680498823523521,-0.13492779433727264,0.42585346102714539,0.4230659008026123,0.00086295540677383542,-0.81837332248687744,0.2986539900302887,0.092605382204055786,-0.065374784171581268,-0.38416764140129089,0.10342415422201157,0.044625483453273773, -2.5716900825500488,-0.44155749678611755,-3.9231021404266357,-0.10717455297708511,0.20686772465705872,-0.047120939940214157,-0.27226740121841431,-0.043754182755947113,-0.53944826126098633,-0.1295023113489151,-0.10392408072948456,-0.50659030675888062,-0.02671612985432148,-0.03994707390666008,0.10602883249521255,-0.063686572015285492,-0.056017268449068069,-1.049072265625,-0.055385924875736237,0.13128869235515594,-1.6995205879211426,-0.033812161535024643,0.16411533951759338,-2.1404697895050049,-0.49650371074676514,0.03062766045331955,-1.9868156909942627,-1.4458024501800537,-1.9828652143478394,0.082848250865936279,-0.41013097763061523,0.1017831414937973,0.068575166165828705,0.024436138570308685,-0.72616398334503174,-0.23360255360603333,-0.25166672468185425,0.098712652921676636,0.19830925762653351,-0.076838418841362,-0.0013566314009949565,-0.46426084637641907,0.17469553649425507,-2.2936496734619141,-0.37164765596389771,-2.1212871074676514,-0.44098269939422607,0.26807287335395813,0.18833675980567932,-0.98880040645599365,-2.9372377395629883,-1.3764605522155762,-0.11839763075113297,-0.12603315711021423,-0.31820622086524963,0.32285887002944946,0.35945230722427368,-0.19156168401241302,-0.31188151240348816,0.032325789332389832,0.27518591284751892,-0.56629210710525513,0.51940310001373291,0.16201825439929962, 
  /* [4][0][][] */ -0.33858928084373474,-0.20608225464820862,0.38069695234298706,0.23076926171779633,-0.2548326849937439,-0.068441763520240784,0.42131948471069336,-0.05329439789056778,-0.19290636479854584,0.086047232151031494,-0.083808690309524536,-0.11269658803939819,-0.65149027109146118,-0.19639526307582855,0.0062126703560352325,0.26567870378494263,-0.68804788589477539,0.15032753348350525,-0.03262677788734436,-0.59560096263885498,-0.033426489681005478,-0.56742870807647705,-0.870433509349823,-0.32856619358062744,0.068786799907684326,-0.30936154723167419,0.0016906369710341096,-0.54094099998474121,-0.4702986478805542,-0.084282875061035156,-0.53166484832763672,-0.34616392850875854,-0.2304934561252594,-0.17445939779281616,0.096043355762958527,-0.055948708206415176,0.071209535002708435,0.19260092079639435,-0.23737984895706177,0.38253951072692871,0.017387501895427704,0.43370205163955688,-0.0057232570834457874,-0.16358581185340881,0.78533512353897095,-0.19411487877368927,-1.0238243341445923,0.11844564974308014,-0.076563715934753418,0.1471179872751236,-0.98900562524795532,-0.38943031430244446,0.25046682357788086,-0.1468537300825119,-1.3664563894271851,0.045581541955471039,-0.68345552682876587,-0.1149713546037674,0.046057321131229401,-0.46604996919631958,-0.27763903141021729,-0.75784212350845337,0.45794269442558289,-0.13711404800415039, -0.80248051881790161,0.2887876033782959,0.44817245006561279,-0.012503248639404774,-0.1697482168674469,0.10269814729690552,0.10109217464923859,-0.22067160904407501,-0.32168728113174438,-0.22699016332626343,0.25489234924316406,-3.4665505886077881,0.1289634108543396,0.025871196761727333,-0.37606313824653625,-1.2528716325759888,-0.28613394498825073,-0.14207758009433746,0.032234232872724533,-0.96207433938980103,-0.10480918735265732,-0.389974445104599,-1.5666345357894897,-0.52340447902679443,-2.238168478012085,-0.95748239755630493,0.12153217196464539,0.19201253354549408,-0.18322455883026123,-0.048084788024425507,-0.30140015482902527,-0.092930525541305542,-0.34438157081604004,0.056556377559900284,-0.23398227989673615,0.10724179446697235,0.10471102595329285,-0.139055997133255,-1.3156628608703613,0.19740258157253265,-0.16744606196880341,0.32949236035346985,0.2841743528842926,0.069193899631500244,-0.063621602952480316,0.0032726789359003305,-0.42573326826095581,0.1564713716506958,0.18218885362148285,-0.0051490883342921734,-0.11877724528312683,-0.042891938239336014,-0.1319105327129364,0.21242764592170715,-0.34650188684463501,-0.16264358162879944,-0.91150534152984619,-0.63000333309173584,0.14337214827537537,0.19847172498703003,-0.61895865201950073,0.27222245931625366,-0.17772620916366577,-0.39239034056663513, 0.14307086169719696,0.38648262619972229,0.51551002264022827,0.50480073690414429,0.1184474304318428,-0.040728315711021423,0.40392178297042847,-0.0027399687096476555,-0.02589329332113266,-1.5063531398773193,0.070540904998779297,-0.4883933961391449,0.11514502018690109,0.33515244722366333,0.38276985287666321,-0.88838142156600952,-0.41915923357009888,-0.013111901469528675,-0.082971461117267609,-0.20759010314941406,-0.28907957673072815,-0.63276547193527222,-0.34528976678848267,-0.23972897231578827,-0.30198290944099426,-1.5353236198425293,0.43753817677497864,0.28253766894340515,0.39862066507339478,-0.14825280010700226,-0.34948799014091492,-0.60754382610321045,0.076256774365901947,0.13809932768344879,0.10102294385433197,0.18742142617702484,0.32227829098701477,0.10605261474847794,-0.16628611087799072,-1.9557796716690063,-0.36578366160392761,-0.012610550969839096,-0.33160883188247681,0.20374421775341034,-1.646737813949585,-0.88257789611816406,-0.30361956357955933,0.22786936163902283,-0.27468997240066528,0.16104994714260101,0.15249432623386383,-0.24365925788879395,-0.7752692699432373,-0.0090238619595766068,0.20138861238956451,-0.28592002391815186,-1.0862628221511841,-0.14632895588874817,-0.49733203649520874,0.21683286130428314,-0.77156174182891846,-0.40019863843917847,0.42246052622795105,-0.57004338502883911, 
